-0.997987301294982,0.00207060562964214,0.00308789961712251,0.00888839689927325,2.72316277389047e-06,0.995005470316035,1.00398089830112,0.00401697103018927,0.00381419571033188
-1.0045540076429,-0.00466448149936449,0.997862745107789,0.998706399979461,-0.00333305087690495,0.00413693954188723,0.000823794246791163,1.00253901674453,-0.993891818123982
-0.00551077841421528,-0.00328526948953341,0.998094614300687,1.00217946018796,-0.00594998304730032,0.00295424304929996,-0.00639442584375391,0.997631895624332,-0.00503356457312535
0.00525773855969335,-0.00227022325044945,-0.000445738726191083,-0.00549343412870156,0.000138281796224272,0.927676416733664,0.00529849604790687,1.0723235578911,-0.0136854156296972
0.00342224508218143,-0.00595519419781119,-0.00125793736144731,0.997785467863045,0.010161196759007,-0.00573948519302158,0.0085391142663726,-0.00854973624647083,0.00915837632470781
-0.00934990667608819,-0.00563217185615343,1.018676429373,-0.992137470911106,-0.98911171877248,-0.00473357591635454,0.99654921917632,-0.000347615248862885,0.00845858462782117
-0.99660354265216,-0.00291965385116164,0.00539981012186073,0.998261994589953,-0.00663989640655117,0.00634065465021328,0.00283011402093761,1.00204830592392,-0.00768856320058237
0.012090743049223,-0.00962375127355805,0.0181157882303801,0.0178068732677019,0.0119053069860053,0.0246706930622845,0.0162688097648783,0.0246278905613059,-0.0149068203117461
-0.997214979240013,-0.00422253611048161,1.00574197739316,-0.0049301459620776,-0.00432336980189766,-0.00464504469197451,0.0042337519415352,0.00348980722472835,-0.997108926563753
0.997625517806459,0.993814007071321,0.00605246647522603,0.997795091585856,0.992169870328089,0.999659195653652,1.01508869087517,-0.00359157788726627,-0.00360832960799249
-0.0103778447719801,0.00750533040823162,1.00620869489885,0.990931000382043,0.00387749879468605,-0.000786504296597178,0.00412701556495979,-0.000487251958104539,0.00228449745703666
-0.0146264670516271,-0.00640405530318708,0.997943858830913,0.0115554064852283,0.00762279900704188,0.00870129601865572,0.00663964588503212,0.0139972512016509,0.00229104852200387
-0.00591169551989898,0.00324694531977843,0.00857038208841334,-0.00216764588234017,-0.0042876519714186,0.00747054237159235,-0.00318841677134326,0.996878880227771,-0.000548243812274957
-0.00566065918583357,-0.000115907891283542,0.00148802303094527,-0.00775854185983226,-0.00155796963001388,0.00159786940914039,0.013567143958165,0.998925328632998,0.00726954262930707
-0.998118236901817,0.00512742662580817,0.0098202452479621,0.00607771331093609,0.000811188762253973,0.00719400841914309,-0.000385247443705138,0.0178683322295323,-0.00745003000480684
-0.999150812237488,-0.00378219619216794,0.00455085697680897,-0.00951823046583,0.0103990392489353,-0.0110635884149292,0.00449422856752714,-0.0025515983775075,-0.00506563277526178
0.00440823387338555,0.00653795521368444,0.0114356362212762,0.0235041099959589,-0.00682132661231032,0.00432377463247953,0.00886136841768935,0.997340723842427,-0.0104617720713259
-0.00125277776981023,-0.00314810196611052,0.997984105329911,0.0168576316648684,-0.00460173222841603,0.00657013503653922,-0.00166535627071481,0.00678557469360352,-0.00658510163337086
-0.00675489399823203,0.00353875451487143,0.0100004279914405,0.998985007274387,-0.997390113313734,0.00299421788643781,0.994255662708102,1.00628464758665,-0.0024128580563663
-0.00323368439844101,0.00106247682506892,0.00118710325934115,0.992177990852118,0.00727573784420208,-0.00986257944972943,0.00533195763270053,1.00579773539941,-0.00329232723221504
-0.0150909413805506,0.000190538751191306,0.998252892287469,0.000471106949142068,-0.00607275672411552,0.0112580697199471,0.0130650288598267,0.00614799508113681,-0.00380128929659979
0.00114743100098895,0.00147824053163052,-0.00295532230649557,0.997282734771639,-0.00493644091783355,0.0229832360289333,0.0151097235087923,-0.00407338678022247,-0.00558103882528391
0.00155499376374972,-0.00730638782626331,-0.00257972910349047,0.00730248545835219,-0.00165281758678733,0.0141332201980528,0.986871141462831,1.01034614953421,-0.00147232535486882
-0.0122957120147482,-0.00245821807485779,0.00319936030492657,0.992100237953413,0.0119710331764458,0.00533822929910704,1.00472028775563,0.00686358221617218,0.0016699521697819
-0.00694170843294288,0.00157993815176523,0.99715711761026,0.00678028722285522,-0.00278966273038737,-0.00435022236417258,0.0185989271687412,0.010377414688809,0.00679571542390918
-0.0195954229478169,0.000216058630021803,0.0141211182924963,0.000848817470910411,-0.0124121916421463,-0.00203578152067337,0.00583367159565039,0.997435049694922,-0.0028644109556951
-0.00234286613913451,0.000941114652277249,0.998419943979375,-0.00227345875781172,0.00685694596351067,-0.000599735754811928,0.00874703575672332,-0.00736226056500646,-0.00856899081683712
-0.00353826383191511,-0.00255984818702565,0.99400222843031,1.00289309678773,0.00164644042209326,0.00598385648643085,0.00421687876273684,0.00931633927641921,-0.00621682331052212
-0.00287397405031802,0.980787275328908,1.03451853622521,-0.00745497514938925,0.979757096939045,0.00194485972489115,0.00399917669157016,1.9848052009866e-05,0.00647693073011173
-0.0020533815796626,0.00310073510541145,0.0127240245325472,0.00876479581916271,-0.00183533750832076,-0.00289162185802368,0.00311156604993408,0.998764493360764,-0.00216089978856251
-0.00289293371990595,0.00409903677262827,-0.00207135343508808,0.0185554186218058,-0.00469294987961036,0.00114640072974704,0.00603306589434535,0.997759539143773,0.00286276059102541
-0.998122014123142,-0.000149124862425136,-0.00227037991764983,0.00796222738087288,0.00613340013640923,-0.00350359326374809,-0.00464650433105272,0.000743814014692268,-0.0122301976941293
-0.00279810243174843,-0.00191957325818956,-0.00506997526122195,-0.00232521089420732,0.00669308996798147,-0.00650549673450037,0.011264100543748,0.0146137429374755,0.00928522206529354
1.15652158272253e-05,-0.00432440254482834,-0.992673098007118,1.01275148286117,0.991369455713165,0.00309014513041391,0.00711512092654664,-0.00152239017102608,-0.00336986281676739
-0.00389767564563955,0.00113609284669706,0.000783807107704725,0.997880964212857,0.00324820111507016,0.00362646046740988,-0.00573974710179168,0.0137089675002427,0.0129328393079775
0.0257974270668146,0.00310845258026194,0.0623137001751287,0.975272410683662,-0.0192838340657087,0.0267921633055924,-0.00489514214176084,1.02472756084623,0.00577776124929489
-0.000565468510892622,0.00368241311218347,0.996932247083799,0.0066270000414787,0.00379489464503023,-0.00487563744510629,-0.00329198534011059,0.0156968880043274,0.0102309611829583
-0.00622714035304958,0.00400371387954967,0.0114340975861608,-0.00468502483875642,-0.00472442850659453,-0.00023367145608969,-0.928341571355957,0.00705677792806083,-1.07165839492288
-0.997884798689345,-0.0028607622590427,0.0122858867789068,0.0016454829362992,0.00588341876633658,0.00157939153521776,0.00631847933181659,0.0189152228979556,-0.00923940353330341
0.0029510633487259,-0.00299959407159859,1.01755520488467,0.0161931662006887,-0.0177860240836574,0.00625633186992332,0.979443064996306,0.00531178700153413,-0.00132801664654322
-0.998166703683213,0.000703633795424461,0.00859309355428151,0.0138260178953816,0.00533839085477342,0.00812235256335802,0.0101277996867919,0.00963336485239846,-0.0053573876339045
5.91040789861721e-05,0.000997896072900372,0.00406017198153485,0.999408121629191,1.00730580141386,0.00168454208679099,0.990386901370311,0.00993994454732696,-0.000726281859843486
-0.00808228865945631,0.00306156879646128,0.00770615793842025,-0.0030415318151368,0.0157976369481177,-0.00756907932215402,-0.00857168252337386,0.00735974320158702,-0.997851512323991
-0.0093495093760243,0.00721694616752896,0.00410483949058418,0.0096165089407494,0.00318226619736267,0.015281095472438,0.997537597896701,0.00856332476537076,-0.00144532756143747
-0.00293168727701507,0.000249959912751347,-0.00696660876573356,0.00824049935848446,-0.972694388499275,-0.00612490516913594,-0.00616985290029681,1.02348580175696,-0.00333269002853233
0.00129415862133616,-0.00199470532330194,0.000321926249023408,1.01146639011523,-0.00112360584884943,-1.40521904294027e-06,0.985616120754454,0.00931065639512264,-0.00437176572595164
-0.000239348870121306,0.00149342335025252,0.998413104007946,0.0113109981913369,0.00628225678348281,0.00546347913398638,0.0149281812152211,0.00393090391784796,-0.00342958509911061
0.000174815832531416,0.000175056510242052,-7.00438673699757e-05,-0.000350310781350253,0.000209583826998563,4.68967616228819e-07,0.000139765585414537,1.00176991817961,0.000105605175262488
-0.950828098381193,0.00443268014674731,-0.0102232074659438,0.0277803416435663,0.0309976155702213,-0.00682810123966688,-0.00737151124258055,1.04917187932891,-0.0052565098221699
-0.00277206340603852,-0.00490028316373186,0.000196891052664241,0.0085707338565327,0.0168994650103143,0.997028195320152,0.0117044742453726,0.00632103844925684,-0.00672364112899998
0.00252221548767516,-0.00271892098457698,-0.00377272756944562,0.00634008121117971,0.0019236506155122,0.990708555129296,0.981646644388026,1.02341631755732,0.0012926664753805
-0.0173153573344573,-0.0251108884196477,0.0166741553733345,0.0268821096046251,0.016987793400215,-0.005384380134759,-0.0135524335050633,0.0106798184347097,-0.000343803174120318
-0.998181164554395,-0.995938497364492,1.00642546647949,0.00905762330219836,0.00157328772135607,-0.999064287221421,0.997927262621269,0.999233896661881,-0.0038548175112794
-0.00534579528314759,0.00024137684523416,0.0103050724035659,1.00064011173982,-0.00382759789962091,-0.00165609445581177,0.00359666609596304,0.996888569725273,0.0101865796199223
-0.00357641734781187,0.00173782741908075,0.0050560592861694,-0.98304704677565,0.000265725235674041,0.00153322610808365,-0.00817214302226764,1.02852114263125,0.984132125922603
-1.03792340292318,-0.0186335422020575,0.0223883322567219,-0.0079986105754762,-0.00228335016561809,0.00170168997887467,0.0105845410692808,0.962076656426067,-0.0143564833521164
-0.00178039934521017,-0.00191663966155996,-0.00472068529111594,0.981910495573424,0.00728927405653863,0.00555073222891477,1.02218114357727,0.991873601054195,-0.00288791233849302
-0.00734413939436945,-0.00267471414649336,1.00579576500945,0.99117382125106,0.00314119025356019,-0.00219178394744616,0.00768668302261404,1.00056155158624,-0.000903368772860156
-0.0024723713458544,0.000533895088591018,0.998676763607928,-0.0108027171019394,0.01344993257931,0.0127007946628661,-0.00658574483583205,0.00752829742921388,-0.00694885801375919
0.989279855428047,-0.000531862132811671,0.00283859951865976,7.31767473631697e-05,0.00422789473040627,1.02796755977299,0.989146906020295,0.989597603221427,-0.00389163151361057
-0.0212311659944449,0.0238856700959972,0.0285764580858556,0.0365770902139567,0.00565117995892629,0.027509358022638,0.00435345863808407,0.0570194441985594,-0.0159045845135669
0.00404056236050769,0.0011473745980758,1.03421571444385,0.0053941415197012,0.00758363046374102,-0.00155420899329731,0.0072984968940539,0.981282117392202,0.979690283650822
0.00550102576377001,-0.0236987547052347,-0.00877702300996324,-7.14113969385239e-05,0.00345855199574636,-0.000282163323105496,-0.00554799830852668,-0.00164024510728042,-0.00838677963379462
-0.993374632381278,-0.00596941685351799,-0.000305051293034238,-0.0010686145536402,0.00385674974912944,0.990919725860165,1.02006432915896,-0.00156328388644556,0.991914421894347
-0.00714436609083739,-0.00320088332597266,0.0037113639414394,0.00962046316663581,0.00301346896627821,0.98792365711676,1.00994048762527,0.0029170749789838,-0.000371798491070452
-0.991388349838041,-0.00342241946281155,0.00175168121984145,1.00056129519481,1.00146233388284,-0.00165366895064893,-0.000672055359629336,1.00324399495857,-0.00329006424031453
-0.0155392381688906,-0.00511309207154014,0.00454626849865844,0.0164506264909369,0.0037710677361834,0.0047170087458963,-0.0108823978469949,0.99747744448766,-0.00363623921011985
-0.0148731731862252,-0.00718945049054315,1.0697596318057,-0.00290613442875479,-0.00671834467077072,0.0060769854904917,-0.930240279043779,0.0114895798828735,-0.000793715563352921
0.0156482037050683,0.0168508308489598,0.0516983348775855,0.0209887196382876,0.0174896680191237,-0.00287226228204894,0.0537370734677281,0.0535870845905296,0.00372255034786231
-1.01744482595563,-0.00623069855971061,0.986793097347083,0.998191547425469,-0.00725057863920086,0.0075327591058181,0.0104727740826582,0.994312725127395,-0.00261738621444005
0.00318492845502584,0.931167499209512,0.000255835803411852,0.000585842505796368,-0.00567773608285053,-0.0071279134372145,-0.00172128803130131,1.06883246050799,-0.0102565023912787
0.00434639145158637,0.00410954610564761,0.992134661660942,0.00347979606596254,0.00646677280094015,0.00861987770222165,1.00359915043692,1.00159945284974,-0.999256739444921
-0.0154656874044928,-0.00288268891343578,0.00350285130929632,0.013271464701442,0.996956232726592,0.0092971876149823,0.00789105898789745,0.00602678897711123,-0.0116903809302413
0.00872208773596039,-0.000412049721063358,-0.00409221299126139,1.0043432977609,0.00542462493981171,0.9953520234295,0.0172544447453323,0.998426754608429,-0.00115247914847145
-0.00526239204401487,-0.00980325607422453,0.0073872889131371,0.991537182568765,0.00125072800868752,0.00977186801981778,0.00756298761122942,1.00628411444818,-0.00507840116733676
-0.996394089717957,-0.00536542318640776,0.005237729686596,0.994344749090847,-0.00422198228581052,-0.00310927932194288,-0.00423823216066002,1.00639133310738,-0.00532421855486796
0.0086521183288076,-0.00235186357852893,1.02871823999299,0.013660814674404,-0.000478345878253958,-0.000601069000495728,0.00800447791360899,0.985024464072802,0.981807892861342
-0.00221455146964399,0.00514047949582583,1.07118594174754,-0.00286526999514488,0.928814028847195,0.00101803683882724,-0.00296484676246253,0.00522471675187264,0.00348217118678189
0.00843605373282121,0.00700568215077495,0.0109829269019788,0.98705435435859,0.00409429908755875,0.00155500353719771,0.00335651245602319,1.0096813998203,-0.00714281893419024
0.0114947501637019,0.00681564068498299,0.00281737334733937,0.0179761940681025,0.00693452476361929,0.000817961054218114,0.997279226550182,-0.00130733920679354,-0.00419539790136352
-0.00459314133287416,0.00489129901246929,-0.00384167398842565,1.00036736832065,0.00446875787924162,0.0042386080487112,0.00330715712734267,0.00461918568876266,0.00450780875523787
-0.0050859603509198,-0.002716197462372,0.00124520981190996,0.997817368587203,-0.0019099799628893,0.0128773256527447,0.0102205939296676,0.0175614234456242,-0.001491240106607
-0.00880874243828106,-0.0129967143380457,1.06457593731318,-0.0155625366145231,0.925867501027596,0.00481409330075383,0.00585090568793534,-0.0104004072304487,-0.0057578084609689
-0.0071202899540608,-0.000713682085323691,1.03134199755942,-0.00358169124450442,-0.989752482697598,-0.991000091483152,-0.00405084375064395,0.983710258542996,0.00291693046073769
-0.995889231630087,-0.00340412671166862,1.03094789063938,-0.00137114837440001,0.988695713868499,-0.00285623171964788,-0.00176668076817121,-0.991357327847726,0.988830805719177
-1.0012238574264,-0.994062418276378,-0.000265554954121039,0.00628177210593774,-0.992949588955783,0.998564906370336,1.00644996423277,1.00353265593141,-0.00550165821002069
-0.987201665561558,0.00940144702639122,0.00203906418066296,0.989886277138214,-0.000583294054080836,0.00626362874696032,0.993167575477681,1.02641594878583,-0.00444975243165713
0.00998415790543184,-0.00399826719502045,0.999161638253367,0.00415974365232236,0.00262957677633686,0.0105427289514853,-0.00358138800279841,0.00433648276776725,0.0107989528464722
0.00856193988378327,0.00872260945727932,0.00360295853628174,-0.00687942853074246,-0.00503371879135842,-0.00731137136376336,0.993678974186301,1.00379527496006,0.00364841081733183
-0.00638042286847488,-0.00272223717819405,1.00362421597165,1.00281125750256,0.00108792873716319,0.00166737439570367,0.0119699668559434,0.990809923039788,-0.0120075327646202
0.000930839093203775,-0.00895711825354304,0.00086120731930471,1.00327343046876,0.0145306914471567,-0.00251604513534296,0.995862605618978,0.997933543775432,0.00148169667056176
-1.00531122601807,-0.0055959104367092,0.00693491107286423,0.00236050998518663,0.00250793793400442,-0.000511883917744998,0.00255329053743998,1.00201587586147,-0.989736327330878
-0.95363599993783,0.0169835387680983,0.00463370551955528,0.00201978122146738,0.00103489795122838,-0.00790876426502866,-0.011392511860946,1.04636399104837,0.0167267406654098
-0.00354471697816936,-0.00278105423175647,-0.00552271276725366,0.00813985073582932,-0.00226418620249424,0.996804580100585,0.000751259797235892,0.0078875331201666,-0.00270303964849172
-0.0111824280914978,-0.00104299316683177,0.998976589480347,0.00440330211757185,0.00813598957726924,-0.00670547754971352,-0.00128887774706116,0.00556545115694156,-0.00143586949904959
-1.01194483153901,0.0203620156403266,-0.000239828156783951,-0.0122487089595034,0.0474901422441023,-0.00580005178290191,0.00706095334090208,-0.00410510045217479,-0.988055596437418
-0.0437884416127146,-0.0163740924876712,-0.00652867760583379,0.994300175479302,0.0213650851255575,-0.0107893274626099,0.00685297511123757,1.00570023734976,-0.0161812733833428
0.00129102277283505,0.00455817964793689,0.997316214046167,0.00648211897468454,-0.00771644436369809,-0.00837775409629927,-0.00541883419732689,0.0174743113265218,-0.00134630518054246
-0.995728506765596,0.992822200653656,-0.996454058655217,-0.000454127616846005,-0.993895480014723,0.997709569608646,0.994248166417309,1.02525739986955,-0.00117932570061352
-0.0184651411720477,-0.00148301898716489,0.00288582888520694,1.00309145632248,-0.000167969957417451,0.00642583828424486,0.0102342020746115,0.993643041918084,-0.0108707681742361
-0.0113461075331366,0.0159633257504214,-0.0106489504531436,0.0152607608887322,-0.00277019573122355,-0.000811320470939567,0.0063801158332332,0.997320103617739,-0.00275858897499335
-1.0114680429695,-0.996185980279503,1.00115192929744,0.996078801745182,0.00689538516476716,0.004911811708512,0.990968518212094,1.00288366625207,-0.998146123210489
-0.000934721067781581,0.996346854395943,0.00353737341520912,1.00214431838868,0.00246473549660176,0.999468737987048,0.00362461714339713,1.00063113071473,-0.998084109109961
-0.994456789847666,0.000249922450952774,0.00308551406533807,1.00511334339326,0.991817601848386,0.0061404970627309,0.00240995794794731,1.00550734894144,-0.0135307496137044
-0.992513935039844,0.00282956031521374,-0.00362211270002438,0.999491478248156,-0.0015171998747456,0.0035177620168061,1.00267217133144,1.00218367012349,-0.00433331769715709
-0.00410841277340234,0.00378785665292357,0.00460446717434329,0.0162134010859564,0.00719046442068364,0.012617143503062,0.00329233750473671,0.998158690295535,0.00321596976792243
-0.997251831381152,-0.00952164055143856,0.0109206181394128,-0.000584188519503401,0.0189538700886284,-0.00657944750442025,0.0126222243965249,0.00112610044499026,-0.00258520402275504
-0.00102888079079602,-0.0034802419089525,0.998061510169437,1.00750655454096,0.992673346259854,0.00207280756572259,0.00970269694768982,0.998390943673066,-0.000461367256743761
-0.997389078260308,0.992210447342646,1.00340153543844,0.99777904009686,0.00794350156095757,-0.00129458041983397,0.999322178215753,1.00698885725709,-0.00393332806669817
-0.00291599962656082,-1.00401728145844,-0.000170414059246939,0.998620257352864,0.00771304090750647,0.998390441028982,0.995660993323324,0.00290721636199562,-0.00365836819823699
-0.00758981310930536,-0.00589416230173685,-0.0185139998072353,0.997823183415806,0.00328072800583975,-0.000857945667888505,-0.000763914245677769,-0.000810301185956015,0.00610613408860811
-0.996263970126207,-0.00362608953508101,0.00429987570875022,1.00493333429362,-1.00451855222145,0.00452652050713329,0.99781695240797,0.996414000416719,-0.00391126252760946
0.00849324109817716,-0.0129548540540624,0.0116628997043154,0.00730902810089828,1.03792892395506,0.00763421442351053,0.962071097226714,0.0302276732784688,-0.00777078141931645
0.000878446951467572,-0.0062854409801062,0.00188056392699432,0.0159941199924818,-0.00715488680368623,-8.89188435003446e-05,-0.00653507319238278,0.997669737111541,0.00717599687031522
0.983956733786546,-0.00695284384583763,0.982637274700794,-0.00514472657980005,0.00316739972443779,-0.00299223132595829,-0.00327736812085639,1.02909908450261,0.0028905078405341
-0.998127334881873,-0.000603645594345437,0.00317680072582417,0.00726268447262993,0.0103388371605614,0.000288656047473976,0.0103940584082435,0.000780999495645859,0.00190801225778569
0.00309547435429547,-0.000685727085506942,0.0334898398822604,0.980422133672886,0.00713348255557599,0.0132442091097079,0.0165925029415169,1.01957956066526,-0.0118077074515033
-0.00578345171830668,0.00324889347216428,0.000527305392233433,1.00751521700567,-0.000377932330652983,-0.000632281296036538,-0.989377702658111,0.0115499175734585,0.00234032596366325
-1.0404051830677,0.000844570354383522,-0.0175266251474871,0.0253434970821929,0.0036541479121008,-0.0194737730121979,0.953708194992052,-0.00305292467296232,-0.00327261444194753
-0.994620617615185,4.79113715036405e-05,-0.979708299903158,1.00057168201519,1.00555420457433,1.0010422165478,1.00289756064904,1.00713679094792,-1.00566732275349
0.997404804496617,0.996223110069493,-0.00068261026591589,-0.000483034142388423,1.00068206980386,1.00430693586439,0.997905965163073,0.0022299553789421,-0.00466972812057329
-1.02721000001014,0.0116250985167891,-0.0212647810488094,-0.0120996470567139,0.00144462566530465,0.0135475445671188,0.972791942425269,-0.00197453018151282,0.00173437688882184
-0.00331905243664933,0.00102441440048678,1.02759461904983,-0.00371637076687764,-0.00116707919821818,-0.990564102612188,0.988842368166085,-0.00414674526751139,0.988912250015643
0.000586767703000153,-0.00342914888935919,-0.00422521904101987,0.00748944009618676,0.00807777192419998,0.997116916025084,1.00213216371648,0.997511932230061,0.00821409178483655
-0.00270101339090778,-0.00569015214635745,1.03583199235328,0.00401761742244875,-0.00937464152428363,-0.00728970052732547,-0.980178251412607,0.979077096814409,0.00272655335658342
-0.00440431617633384,0.00389107874857701,0.00410911828100145,0.00421966815549005,-0.00401483918711951,-0.00426839596904376,0.00395652502048619,1.00038396452214,-0.00418316847254131
-0.00483396247041427,-0.00432131956489579,-0.0054015360145472,1.00093074323401,-0.00489224010459483,0.00514023351652975,0.00534581406904522,0.00436652879916881,0.00485391659888111
-0.00688080637995614,-0.00757752567662579,-0.00574713791778103,0.0175431596557047,0.00386169002585489,-0.00361813633605265,0.0140322429085329,0.997328093778676,-0.00522268429704509
-0.00790735207102646,-0.00320919685964724,0.0098091691642097,0.999598423868817,0.0125275620733267,0.0142768303462447,0.0188780268333289,0.997871760730393,-0.00121635063211509
0.00302716918296144,-0.0044635493692884,0.998937219838602,0.0131866593284052,0.00545353541045882,0.000398944077674167,-0.00235256289942258,0.997894346469878,0.00191222114765927
0.0033274543001383,-0.00172750089712124,0.00180164387914107,-0.981943040873092,-1.22277117613406e-05,0.983047865828431,-0.00219632441564119,1.03036860989596,0.00237699483429814
-0.00962368601455514,0.00853445189988607,0.00245078237453967,0.015967566329598,0.00178214632103268,0.998321717079196,0.000859426344806662,-0.00527189474459735,-0.00979647823034279
-0.997046105428114,-0.000656693047658604,-0.0217077187267208,0.0133512228521302,0.00152848920153275,0.026826360014376,-0.0249668159506138,1.00295471915,-0.028641557923328
-1.05049691017671,0.015336620607327,0.0198171262907882,-0.0176629152426446,0.949503057043695,-0.00190414063548969,-0.00217316391115806,0.00628706199273215,-0.0210013236794299
-0.00596864195459156,0.00358659422663942,0.0104034124886386,0.0141143071203325,-0.000600818060802617,-0.0132515853441419,-0.00461369865468994,0.998719275252584,-0.00489561607261173
0.00486747926379648,-0.00562779226135027,-0.0075134845842345,2.29210897951829e-06,0.00586266465763596,0.00610348388501211,0.00542440863336147,0.998969718240831,0.00976073366853399
-1.02067293964603,0.00584277914329818,-0.00697662769520993,0.993450615576114,0.00300008951009128,-0.987840618405557,-0.00759485117168926,0.994898292521602,0.00370680851969036
0.989736107218016,0.992864021883391,5.66492962797788e-06,1.00276755877314,0.00671648936409597,-0.000731181036957551,1.01513213362839,0.995919814967448,-0.00261573642305534
-0.00405240688534716,-0.00815800192842591,0.988285146995453,-0.986739615999362,1.03358212049262,0.00209678846489213,-0.000609319753530453,0.986835045358621,-0.000404144282273295
0.00310205579900284,-0.974701450288362,0.0101206795770329,1.01060231984952,0.997013903001636,-0.00379455516836994,0.00329415968344568,1.01469553888229,-0.0165949966288929
-1.00445592348526,0.00529377836434104,-0.00285554712742144,0.0207620938940197,0.00329624785178604,0.00763861400682458,-0.00322925450683255,0.993016329174088,-0.0165235282523564
-0.987211223150498,0.000678394987059626,0.000125702699864779,1.01066690659458,-0.0035803146655462,-0.0113704865086422,0.00471712889517457,0.999636798510399,0.00583898963382614
-0.984017733601246,0.00461388661150812,-0.000473462669587477,0.00593691831151759,-0.000240587708578292,-0.00795030892685953,-0.00568934122893013,1.01293245766016,-0.00429677041773191
0.00677415490236933,0.984462468526005,-0.000431005985127188,-0.00210010903864723,1.01986862755838,-0.00617552960308793,0.991809968004688,0.0059412254136642,0.00735556013584827
-0.0117120576881439,-0.0101977591532195,0.00220461817204031,0.00738430638677428,0.0134286917472712,-0.00540250165627772,0.00740781331413343,0.99717343233904,-0.0140559943640096
-0.998759248318209,0.00465617901759928,0.00767979105373189,0.993014501079053,0.00283723065497604,-0.000753996303690605,0.00433349192072908,1.00519162483436,-0.00275952060376587
-0.0133312665240531,-0.00851392587439256,0.0142179706524013,-0.00189874493948807,0.0064630297534686,-0.0024439540595502,0.00392838644930545,0.000158809816637502,-0.997495778427299
-1.0065870501774,0.000587026107350057,1.00025665281778,0.00538030299743849,-0.00813137467972297,0.989881663128372,1.0002662400106,-0.00751367738930223,0.00157212841136984
0.00327465610977301,0.0026534356330498,-0.985901905011819,0.00267213519027958,0.998334553525595,0.00744330660811755,1.01252440255212,-0.00510773683197494,-0.00952125559890602
-0.0278971188170092,-0.0178588472121381,0.0399922948297585,-0.0112615566303917,0.990845388773816,-0.0058702054006771,1.00915503490696,0.00714754498568621,-0.00500623180171615
-0.00683123491761104,0.986713094316283,0.00696877633623576,0.00259846918073564,0.00599559341982949,1.00148991769545,1.0083797504135,0.00834221055317001,0.00199922359388916
-1.01056362888541,-0.989439284094129,0.0193205853475371,0.0210934825676753,-0.00460998037849658,0.00504460380474433,0.00975896478627593,-0.0172961538937121,-0.0261126515360965
5.64102987398201e-05,-0.000221832859907489,0.0145525415204038,0.995025226552858,-0.0122987193854192,-0.0143699180580408,-0.00161107791576502,1.00220700449279,0.00730718920930393
-1.10685600056811e-06,-0.00672762111053311,0.00220295429938479,0.02348760984186,-0.00409991825319706,0.00182659602802451,-0.0113731929992587,0.997257162502694,-0.00988183038817657
-0.981571649567177,-0.00454064034544503,0.00651017203512925,0.00530014519610567,0.00264209300497676,-0.00311801598447255,1.01524491528714,0.00332604238811225,0.0108486596611389
0.0105345362045688,-0.00378002088542975,0.00371075524134957,0.035622179392569,-0.0296684202125802,1.03183258109409,0.968167413308075,-0.00288390212032626,0.0218382741537248
-0.994320418748887,0.00264618678437453,-0.992965144231435,1.00289447819811,0.00430164471787112,0.999349518269667,1.00560613416626,1.00752660376701,-0.99375859496547
-0.0226586355110698,0.0119155481503618,0.0281002798188678,1.0348850904714,-0.0073150564262917,0.00703544462714536,0.0331280360252712,0.965114895835109,0.0140437760894277
-0.00420083125648729,0.0132830611471558,-0.00314641556309714,0.0139883596092462,0.00539326818914255,-0.00143912307603464,-0.00485815570755076,0.998099595930356,-0.000978056446349278
-0.00459833703759648,-0.00301970569575029,0.00772252868179937,-0.00177592935209008,0.0108173684780976,1.00334673857048,0.993731029688732,0.0057621567201624,-0.00655900678357944
0.00711835078793182,0.00274012990877,0.00497584349841834,0.997518235175338,0.00374726946940757,0.00321941965516954,-0.0116187955879481,0.0125995699400553,-0.000939292967226737
0.00494392354833127,-0.000272748822624251,-0.0036202846136446,1.02388555642019,-0.0148504400279557,-0.000998880048451625,0.00737837903668249,0.976117708884619,-0.0260893270114552
-0.0167716741363932,0.00657762154294287,0.976729356437864,0.0333058320400032,-0.00203547808778399,0.0259187792858837,0.0295564835456542,1.02327069124152,-0.00309931709565224
-0.00382187248942096,0.000446643070745512,0.00336383223653511,0.0108033822579708,0.0250838434171145,-6.84590251060587e-05,0.996986235108576,0.00348020383145809,0.00391699366518993
0.00176735018975057,-0.00105572731628437,0.00150171708900139,0.0178850769650938,0.000167519690020289,0.0168934864659677,0.00857651164209904,0.997970584949747,-0.00773096303784419
-0.00507711779923379,-0.0112828093346843,0.00627685026827394,0.0114943192466282,0.00718208531404395,-0.000650624945903809,-0.0167189711273921,0.9981940976825,-0.00428621879003993
-0.004150158482003,-0.0255570232407947,0.0118683914269486,0.0207957869250292,-0.0314886543146806,0.00566535687614693,0.00636404351886727,-0.0127380847048391,0.00186297445779347
0.000386345440653256,-0.00565229204122097,1.07120803267467,0.00643017106403763,0.000247170258807937,-0.000874810147189246,-0.00889660183866174,-0.928791937883156,-0.00955258242091226
-0.0064911973027938,-0.00661978395195473,0.0164540949089235,0.0175035298277889,0.000748903779699442,0.00375080593685512,0.00778244519595497,0.997448347926734,-0.0117727055162026
0.989884114385549,-0.00267094864371558,1.02577317419643,0.98880388289835,0.991309021063415,-0.00105705207010753,-0.00366809491184633,0.000472154328373647,-0.00183273864745136
-0.00323737453509782,0.0037208723309568,0.995425041328626,1.00187392873203,0.0013763626244121,0.00251109864788534,0.00273453372970653,0.000259129568068663,0.00139215273393732
0.00153326881951919,-0.00267338930237418,0.994144010594458,0.998712152438639,-2.69689670466491e-05,1.00325682282304,0.00355711589343121,1.00374675359376,-0.997411883261717
0.0106963879356241,-0.0100797362848421,-0.00355386954919694,0.988716062100896,0.00668962829474982,0.00556756868684712,0.00208089219637897,1.00839002046772,-0.000970981468907117
-0.991590879468967,0.00290180646972137,0.00782409920747659,0.0106986567189043,0.00140484792614291,-0.986099619598424,1.00716066074797,1.01139026967418,-0.00316167808931802
-0.00557209837780596,0.00108395362740643,-0.00596902425755938,0.0235389802261264,0.00707285579420424,0.0103124531635105,0.995486331315592,1.00196437439173,0.00971142815010996
-0.988229907128733,0.00689424437830609,-0.00199307664450819,1.00429731362842,0.00163119449833282,0.000988031562457282,0.00982469412772124,1.00485164651067,0.0117091284293421
-0.0101067167746463,0.0172786802846152,0.00226454486830348,0.0266325843210602,-0.00484633243243246,0.00260731938650068,0.0372675523040189,0.031359170053456,-0.00141903533993892
-0.00550520946315778,-0.00411886757713593,-0.993068052528117,0.993198700562043,-0.993210246675005,-0.0041313780926869,0.990036924278473,1.02629418780136,0.00420717799836827
-0.0152390168788208,-0.00613492498703064,0.0225587708228264,0.022229542197428,0.0434580893443018,-0.00858540290990134,0.0772237979647238,0.057085594501392,-0.0366696831020837
-3.64497522762529e-05,-0.000524168120230804,0.00639321809006552,0.00427400564133115,0.00479434292728003,0.0037344007716543,0.996977054275321,0.00263630710178937,-0.000511512733512947
0.0027453088917817,-0.002983807443289,-0.000214170215034165,0.995770761922373,0.982331558742481,-0.00244135984328494,0.985811395154827,1.03150200068443,-0.00202251759001411
0.00868096334812687,0.0103729983501821,0.0602246757120976,0.978835872011557,-0.00296847460426453,0.00198245417158499,-0.0169287073186814,1.0211641110738,-0.0131440973433334
-0.00586746577855221,-0.0278594988496988,-0.00217209559601273,0.00424276150577868,0.0243483170293851,-0.0203605277958757,0.00578733714592958,-0.014200113242983,-0.00697743660600977
0.00558431860286548,0.000887705623767263,1.04456661326175,0.0146058680029458,0.0278790949346073,-0.0220622464688437,0.955433349324886,0.00518772420846521,-0.0330400831515199
0.977722394199269,-0.00341472454705832,0.0124882384087001,-0.0120535811804473,0.0055641240794668,0.00109884510618379,0.980170444715441,1.03694491780177,-0.00126909622615763
-0.000610082595631108,0.0132635430976218,-0.000248970489983766,0.0119007291669385,0.000821903152935881,0.998871089543991,-0.00252483136171015,0.00680792091738004,0.00562370726591754
-1.0016158945576,-1.00310435952701,0.998697087197095,0.992156107777298,0.997177639760439,0.997487485735204,1.00993538396444,0.999249272834739,-0.999274926207955
0.00668418282544978,-0.0108862570261221,0.00874186649994298,1.00482447260437,-0.00028642612925456,1.01147782615847,0.989574174696503,0.991798017074105,-0.0089174357629163
-0.00485368082651932,0.00145439922450071,0.00543035807286244,-0.00272912546565085,-0.00396663764136608,0.00917323096943355,0.000578655653411125,0.998647255548423,0.00605861285924752
-0.00407743075680873,-0.999020555761833,-0.99474781249603,0.997316294066785,0.999182404647743,1.00868285012617,0.999803749295662,0.00682637080564397,-0.997827363304708
-0.0127563757395496,-0.0150179532295711,0.0359903504111543,0.014041285419627,0.00535895831686404,-0.00728697380486323,0.0147605730261171,0.0324887269831295,-0.0246281035119294
-0.007080872104573,0.00884938886575108,-0.00852940744346866,0.00679489926216463,0.00900899303488417,0.999560133093121,-1.93045662735654e-06,0.00748694578546462,5.2558171239998e-05
-0.99871638158011,0.00119018722524571,0.0039487118099917,0.0143210551152789,0.00167082416548967,0.0058862093727598,0.00122249673745824,-0.00256281429056576,-0.00796837125518289
-0.00502058345959136,-0.00447819418305926,0.0101065073821678,-0.00227940199999193,0.00355425622197455,0.0111169595201897,0.997153795166622,0.00862176501559473,-0.00744188637646126
-0.991506842659,0.000960288764009027,-0.00255753718494859,0.99733518228912,0.00192071630482654,0.00139211458365837,0.993828676402209,1.01413386257933,-0.00824958369450565
0.997989708429848,0.99692754019772,0.00208172095070373,0.999974833642383,0.999262672819301,1.00215135410972,1.00208307262848,1.00097560631166,0.996970884038364
0.00491880957872961,0.00426886942926548,0.00439025925025959,0.00367057384445801,-0.00512679097177297,-0.00458722611432352,0.0046029121733449,1.00034488477305,0.00427846640756832
-0.988602034102335,-0.00152056396717594,0.0069489506741996,0.0166708074380687,0.00739064027063284,0.0112816946269177,1.00803108730749,0.999756559785526,-0.00877519521346258
-0.00364462957178562,-0.999575671647713,0.00479150712490457,1.00244963627557,0.00604985614182249,-0.00263313962209379,0.992256211098646,1.00799575248026,-0.994665799528101
-0.993620747616964,-0.00494700515235323,-0.00115665732422282,0.993201209770943,0.00110265509310933,0.000190010248802367,0.0025375780777577,1.01140995606315,-0.00489394331310007
-0.03207735453658,-0.0239564468735932,0.0392788386527435,-0.0124419397461166,-0.00058009336503139,0.00286845399511563,0.0195557710938338,0.0587161467391965,-0.0176544441005533
0.00427133414521572,0.0024024668581202,1.00295939635645,0.00226563373981564,0.00780552809820765,-0.00394150078381167,0.995097402463969,-0.00164390979408448,0.00639658323701531
0.00624419184068674,0.00220552466899059,-0.00403644449789395,-0.00567490074941233,0.999649651601499,0.00431478473459164,0.00582610244192736,0.00291074849203359,-0.997945779075586
-0.00739917721197675,-0.00526665011561167,-0.00213518892965699,0.0131205315100165,0.013501708350335,-0.00100677795681503,0.00680835842055136,0.998740725254447,-0.00698782970743957
-0.00154730645910659,-0.00939368494502461,-0.00932780757017593,1.00226840690997,-0.00492490659642792,0.000852457935067684,-0.00275386839072871,0.995014518151145,-0.00305814312637568
-0.000997605890627113,0.00189275016981902,0.0146676706445284,0.997241821972595,0.00143099892419572,-0.00180165145461073,0.0147896204322048,0.00539874969205567,0.00785392190603341
-0.0124653948883531,0.00855796582365463,1.00268663232588,0.997297108388317,-0.00389434868003433,-0.0102029301310904,-7.63918783794896e-06,0.997286494280138,-0.00469426011256923
-0.00482155642069205,-0.00179084677823261,-0.0203737112513727,0.979358101182005,-0.00219654110045268,-0.00656195190692801,1.01763868772171,0.0113294018450069,-0.00917147940466676
-0.0025148176633946,-0.00252371747958182,6.77948346252572e-05,0.0136486448026914,0.987818329676895,-0.00211955180725019,-0.987894580274295,1.02036229113736,-0.0051000684130442
-0.0113878006493302,-0.00412764344848837,0.0126734687692814,0.99570262124786,0.00727909586805849,-0.0023183654416091,0.00269435031227624,1.00100325174984,-0.00166631476080943
-0.00831739421709563,0.00339396847136648,0.00388548719768951,0.998696525571854,0.00817291631736443,0.00301962839631953,0.00477337967481202,0.00854714729095259,0.00878970512461318
-0.00476153878294982,0.00443863457075553,-0.0130564200299386,0.997431207345038,-3.17569461413998e-05,-0.0125045952270299,0.00357738194128978,0.0172827853452018,0.00113909598002483
-0.0133986167029919,0.00414693096813891,0.00594376765356588,0.0185403328162404,-0.00271549158632614,-0.00277007538516529,-0.00264694787359142,0.997311479275671,-0.00511539526104618
0.00403079641606476,0.013113705139118,-0.00502849565369835,-0.014329413507728,-0.00243045345953761,0.012799878316922,0.0341635836661641,0.00177528213167602,-0.00128499142739641
-0.00357567294875969,0.00359357748668464,0.00501107940035682,-0.00456607170735406,-0.00237224374822022,-0.00246456921895345,0.0057896442097818,0.997157711601632,0.00031147223567194
0.00137114030795993,0.00477772323967454,0.00251884612765066,0.977726829109549,-0.00436826451477692,-0.00668302070592127,0.000691412521205528,1.0194783657445,0.0151783933263495
0.00203146830109366,-1.00039572269496,0.998365713212211,1.00349460305299,0.999536140333007,0.997256951971935,0.997331484692461,1.00010614504096,-0.00115574204251381
0.000193189099741854,-0.00423498729035816,-0.00556953773675165,1.00007859846027,0.997074571688715,0.0114954605648112,0.015136488683263,2.78036473684573e-05,0.00362773905307693
0.0138523674806264,0.011504362008876,-0.0166131121877303,0.0286814100178871,0.018403182888482,0.0301285225674112,-0.0139925904572527,-0.0109458612302932,-0.0505555710000646
-0.000924116940478129,-0.00334221392094663,0.988795668778343,1.00157593016749,0.00250486395722827,0.00650188870808178,0.00547375820058662,1.00706905612726,-0.00955589930371687
-1.01414311849277,0.0070093475532131,-0.0012743000324572,0.000948797689543847,0.983437570958405,-0.00281027513102505,0.0136917398595555,0.00576215443443027,0.0025622462011881
-0.0222345249292866,-0.0135789878367043,0.0312507934125085,0.0157010991022449,0.022794468332273,0.0222770658578822,0.0226288512457337,0.0265371197473528,0.00724466992242437
0.000174412683236182,6.95013319624271e-05,0.000104778036981201,0.000174510291365461,-2.89002028293901e-07,-6.97262866018341e-05,0.000139913195347151,1.00177030313293,-0.000175286437383252
-0.98171967836827,0.00947233377981806,0.00771047069425433,0.993482724611577,1.01224838995714,-0.00587512419335654,0.00577763636032208,1.00990664840942,-0.0141442115331682
-0.996669764181672,0.0064389958707541,1.01353436006511,0.00831627812895227,-6.18503472413981e-05,-0.00678093625548344,-0.0039404429130014,0.996526307677205,-0.990217656602499
0.0268011608255628,-0.0201138446106107,0.00620391959570787,1.02878524629876,0.00396334393678467,0.00818399937381849,0.971215279074475,-0.0114012844779769,0.00191979957701162
0.00339586286046487,-0.0148337120224869,-0.00379570752185896,0.0172857965989053,-0.0128279379374461,0.0119513425819988,0.00165311329868427,0.996743857842737,-0.0144414397597191
-0.998767736606526,-0.994101331488687,1.00897356146253,1.00302741578517,0.00607363840214569,0.00184261417746705,0.997706484702351,0.994155401326761,-0.00266257404904631
-0.997937982976084,-0.00758806442249023,0.000445335602888829,0.000379259325146497,0.00507070245014159,-0.00032798132390457,-0.00331326372992331,-0.00799690823302908,-0.00967904428652829
-0.985062577527152,0.00939753377020516,-0.00138310560543186,0.0200148905305379,0.0180492040375177,0.00272171520335291,1.01060037943746,0.0243716972642537,-0.0164920427116506
0.00675526636008959,-0.00246031204115006,0.00543472894470719,0.007034810772927,0.0133031076030243,0.99826078574006,0.00522240122835355,0.00704813083005279,0.00737408501217111
-0.00472369181204301,-0.00394189971234878,0.00435197802377065,0.00410799944030387,-0.0039813574805737,-0.00500674001508025,0.0042242083595071,1.00036164710658,0.00479572853308867
-0.0165093000011853,0.00377947599303368,-0.00817565572872009,0.997548856993836,-0.00155836772030107,0.00815614510738971,0.0019148882982168,0.00620426722564877,0.000185730357464365
0.00114175800376017,0.00756290732219174,0.00943016102561399,0.00935883357659744,0.0129640298252069,-0.00740543048169883,-0.00347811532999118,0.998081851272131,-0.00043260575450792
-0.00155730713903579,-0.00147543621860638,-0.980940445096607,0.000736309297624887,-0.978372696001141,-0.000616748891930552,-0.00544522843886135,1.03593818901575,0.00245694180350744
-0.00408161981286532,0.00322252964716919,0.997952897695936,0.0133294880157906,-0.00314587953380034,0.00606812432111275,0.000889480751848156,-0.00393913493005728,0.00891568489699564
0.0031364980840148,-0.0161032726968464,-0.00696356186718357,-0.00324348361308057,0.0054112327490261,-0.0118048997569234,1.0696875297326,0.00214677859741103,0.930312378175656
-0.0161227611537155,-0.000659139687805239,0.00719637511491187,0.0266321153837537,0.0180533361846625,0.0136464463757436,0.00540115888825924,0.996315413308121,-0.00997802957345691
-1.00125561339846,-0.00851250722496365,-0.000142703456032131,0.00239596524010746,0.008538618683815,0.00234930295580943,1.00399550215005,-0.00215357635560497,-0.991918759811714
-0.994584057905601,-0.00762642875374894,0.964842876574163,1.04595129521725,-0.0067133574212935,0.00529911934824565,0.985849428278103,1.00450375077894,-1.00426863904279
-0.00100568378678275,0.992493915440991,0.989329869636861,1.00413174000385,-0.00622200962925684,0.00424234247154582,0.0043794291015539,1.01064558104343,-0.00217014991234663
0.00294278793356741,-0.00299637259389036,-0.00193647402102944,0.00250627859605116,-0.92807049102478,-0.000802673868860818,-0.000820978596836977,1.07192946702463,0.0023141116336762
0.000731552054152609,-0.924865178180523,1.07513478961034,0.000464990445057418,-0.000463622125801273,0.00668306474631616,0.00214409661870726,-0.000397866435726503,-0.00360690835860688
0.010486383005061,0.000363524173360754,0.0058474269818184,1.02862999597699,0.00565209796941289,0.0238230039527793,0.967197701524832,0.00445293060147523,0.012586713453292
-0.998666165202944,-0.0017825753464511,0.0105072575961356,0.00254742099756319,0.00776675357756456,0.00177911948241871,-0.0021722765404228,0.00206945742628611,-0.0140582908758765
-0.00511463413052173,0.00127880310798722,0.991827606034423,0.996776590703721,0.00360513062283465,0.993066573024622,0.999183130195721,1.02258203545034,0.992493725655072
0.00257532625187078,0.00454231662309753,-0.000829295096883402,1.02185837232557,0.000485202954723667,0.03123267023753,-0.0128884020877542,0.978144932524567,-0.00416705470712875
-0.995118845919192,0.00374956660923351,0.00921473388696106,0.00753731641051646,0.997309282856611,0.00874609363542523,1.00437496942247,0.00328392431715507,0.00443447084287845
2.31726394936506e-05,0.00112584025582998,-0.00138722064291347,0.0189399972092019,0.00536472386350704,0.00209588931369067,0.00844395529787436,0.998087452051795,0.000634649298370511
0.00736946073530349,0.00457311175111236,0.998565270131169,0.000216976842955113,-0.000557974957020259,-0.00221098033132614,-0.00229118413920975,-0.000416193647256216,0.00456721919512994
-0.0322919534814179,0.0114745227750933,0.00834145291099962,1.02093321187467,0.0113769535239822,0.00802228649981272,0.00914347475020223,0.97906745645803,-0.0240661183532644
-0.0194883800818401,0.0117651358321516,0.0046336798629111,0.0246967187982924,-0.00527145437664305,-0.00323597268953617,0.00413654495672097,0.996658530392755,-0.00399126178078748
0.000458683834088542,0.0204133411018451,0.0227899747123841,0.968973459240909,0.00786440365014371,0.00356870346996801,0.0586712240871588,1.03102634008445,0.0112728316287702
-0.00323013945446995,8.20212575901385e-05,1.00172223859797,1.00282665081887,-0.99747507667256,-0.00251652713190671,0.00157576839152563,0.998565140574377,-0.995999967243472
-0.00603310285433149,0.00618905297613221,2.62258335233861e-05,0.98735172106943,-0.000510186950691898,1.01044620100624,0.00213149114942751,0.00790156683152417,-0.000218511691398438
-0.0180144022443998,-0.00474865605352116,0.0159518588133511,0.987463639526017,-0.00175425105146081,-0.0108269367606379,0.0272695327650693,1.00930267941709,-0.000220431200631186
-0.991531179080273,-0.00180465970019016,1.00120739401474,1.000813980463,-0.00472123209038914,-0.00432202105339558,0.00228467866009135,1.00340016795459,-0.0100094719883734
0.00301145358227897,0.0024612474568724,-0.00383155406178873,0.00758870120929588,-0.0413588824945697,-0.0224249231425679,0.0142547026160294,-0.0344260344796485,0.00932569769897588
-0.000422968189843068,0.00417404147878898,0.00188159697151269,0.0128291689430731,0.00166104035168252,1.01504706131076,0.000504416036472205,0.992090181969031,-0.989050071759323
-1.00193523385069,0.00276029520463672,1.00355847441241,-0.00169905508461239,0.996613109867671,0.994758706826678,0.00134532235615203,0.000837554559885835,0.00264760068024965
0.00935745014433261,0.0102000527892276,0.00409614758803409,0.00392002918189947,-0.00382872258607433,0.999113416877031,0.00464329860874816,0.00999073582032093,0.00998831811181384
-0.00199928006814975,-0.00478796103745627,0.000194989938016552,0.0030339567424411,0.00978040944771306,0.99688707664388,0.00634441871666573,-0.00977377372855141,0.00869550286445476
-0.997919451787694,0.00734962484078162,0.0033063404648982,1.00255201195574,0.988745940950436,-0.00540818156582519,-0.00363875457201732,1.0082808323511,-0.00686736023986203
-0.00524694450945856,-0.0135251447261499,0.0174838239750864,0.048083545099631,0.00778114698323072,0.0159561168430265,-0.00272031562566363,0.037559592588988,0.0276947790557415
-0.00522736261321746,0.00330925348835433,0.000829368057556026,0.979670628980852,-8.23793362879676e-05,0.00201371124123724,0.0123092602449858,1.0172835110206,0.0016145527244978
-1.13074643428469e-07,-0.000210365597707769,3.55844314166704e-05,1.00177011819044,0.000245412815706792,6.99947467428145e-08,-2.41096507720996e-07,0.00010499908203353,-0.000280388160569485
0.990663391902048,0.0016874771382682,1.01918800707812,0.00750212652949445,0.00262644404164414,0.000478822765982372,0.986134141369263,0.0101616284348394,0.00286864771009615
-0.00347913686018131,0.00520658218463253,0.988798934295197,0.00380364954676702,0.00438890863802874,-0.0111591940332428,1.01122044263813,0.0249469863962537,0.00202525050099405
-0.0109607870939501,0.00473847375793385,0.0163051002025679,0.00487614174229473,0.000860040053126644,0.997456113025088,0.00477604614174164,0.0195956582111085,-0.0124940853625341
5.81545703571821e-05,0.0080214761482452,0.00496217546193602,0.99698266020299,0.00182983094933506,0.011141828712003,0.0165896497490174,0.0229523646688702,-0.00604372123832028
-1.00277457922526,-0.0122439203961143,0.000444805708592645,0.00071709174767916,-0.000361545939681152,-0.00511957777644385,0.00230741424607033,1.00844669181626,-0.986041982727608
-0.99688027184973,-0.00106001975727679,0.00405994535974862,0.0137481137225227,0.00447708647540165,0.0162653190080322,0.0104135252288911,0.0178638025788949,-0.000591017193652253
0.006844948056414,0.00264496868413923,-0.00451664977878796,1.01239152610349,-0.00073079484718329,0.0023270331675956,1.00256287022842,-0.00164758214524356,0.981765819871773
-0.0146805275544183,-0.00996051503494466,0.996510064518532,0.0216281024866844,0.00409025249175474,-0.00192458514462978,0.00256411605320322,0.0202626490308824,-0.00252790358612644
-0.0109656326419764,-0.00488696489760592,0.0117958468036652,0.0196026654262528,0.0054698327850813,-0.00265300745382905,0.00944500678194007,0.996894651632342,-0.00474966859958039
-0.00311137633707166,-0.00085803664363028,-0.000111773199114961,0.00815761582053288,0.00577882122756772,0.00457161086957304,0.99728034705329,0.00485263792073426,0.00202544604088358
-0.0107967227023369,-0.0129854385676886,-0.00182741210835314,1.00336998473829,0.00433703613068383,6.16777941627419e-05,-0.00183292703275905,0.994569015220193,-0.00214378446821252
-1.00179770594126,-0.0116867439883597,-0.00559639970387906,0.00709878165027445,0.00112614543247442,0.996170004795779,0.00349340713975327,-0.00531606359950331,-0.00567875789431681
0.00170178920842665,0.00260507502712277,1.01359347377614,0.998054548117249,-0.993504237050297,-0.00176326033289457,0.997862699251833,0.995986006728603,-0.997808858394871
-0.930240336634838,0.00204517286604716,0.00399298647307621,-0.00946522472645171,-0.00302952578402745,0.000805001091601641,0.00378833465350543,1.06975934740014,0.00669002507333296
0.000580608556336893,-0.00403846069834811,0.978917404922532,0.00160128356110716,0.027096045970998,-0.00194864666428344,-0.00612667424623963,1.01776015275548,0.0163838162456431
0.00119543866506985,-0.0134820731062996,-0.00482620455808232,1.01957965904487,-0.0135929265073413,0.0422235968576144,0.0347824861898376,0.980420306829365,-0.040846992784392
0.00814085885539654,0.0203322906179417,-0.0129849448124533,1.03490429502074,0.0107417450361064,0.00506454703175059,-0.0231162366124426,0.96509576121663,0.0155806547181562
0.0035436732606835,0.000538100956319195,0.00681878127489817,0.997225850023793,0.00241586795842254,-0.00494925450691238,0.0191526038022642,0.0141239491948215,0.0121964874904274
-0.00119567347245265,0.00251066928587334,0.0127830460102363,0.996836352704271,0.00714091758272398,0.00349859651738192,-0.00415666594336281,0.0208885344414504,0.0075684378358827
-0.0157906291410914,0.00319986083487996,0.00687894929916111,-0.0272905506446411,0.028673556644575,0.958441231079691,0.00779377585543597,1.04155874285523,0.0190465825193951
0.00240448437948964,0.0224191419580384,-0.0145170772238452,0.96907032942754,-0.0153391632908242,0.00597950996180094,-0.0110440054803163,1.03092977663472,0.0300408748858093
-0.00218362047039787,-1.00314057816851,0.00431297137322633,0.994996565223353,0.99886737226652,-0.00419858644345973,0.00448522619898527,0.00831764154364629,-0.000136684742131283
0.000843792132696311,-0.017007130514056,0.0196286557413537,0.96836372930063,-0.00740510145419588,0.0243522427878891,0.0190968860393162,1.03163624365806,0.0280234207995635
-0.00482007884125864,-0.00257327098983383,-0.0131401300258508,-0.0125675783054861,-0.0121410497539296,0.0017406690592445,0.00378291970403405,-0.0141949090073528,0.00656805102936601
0.00260894913504993,-0.997037320171992,0.996783898281478,-0.00614505058894012,0.0035393140404925,0.996066541458251,1.00672936529081,0.0039484472037624,0.00157593787408347
-0.997087800310854,0.0101082260733076,0.00261853005113515,-0.0046030817097621,0.00867242705396505,0.00247816846608983,0.01623651639031,0.00247702748091794,-0.000480509361587974
-0.0114414812276328,0.0074637161327528,0.00816587687405436,0.00963405098209155,-0.00275899862374644,0.0193974026014095,0.0230262065600345,0.996412129682245,-0.00836420373218207
-0.992289800394037,-0.991662071458587,-0.00052147625770877,0.000826304860874322,-0.00150614991615727,-1.02624012435051,0.000185941728313162,-0.000130523614295097,-0.985633248137655
0.00101101624258589,0.00102454675035581,0.00835760455644994,0.0157369224158463,0.00934392683218016,0.00684420117064715,0.00237640513358526,0.998075690150858,-0.0131780915335978
-0.997293874799586,-0.00285620546816694,1.00142904812075,1.00898753004149,0.00336611607811216,-0.988270675818996,1.00366714334026,0.997411574918762,-0.000787063813851482
-6.48050065047244e-06,-0.000675794956083924,0.999741018926494,-0.0068685061531564,0.000260024607030739,-0.000765114368788515,-0.000746654969625759,0.00879087591732329,-0.00759106125841759
-0.999172035141559,-0.00897019982904152,0.00110548486118718,1.00760071629875,0.994840966194099,0.00734191519931571,0.00755026231837213,0.00558668274066449,-0.995619301620625
0.00378831661727025,-0.00684734144011034,1.03559138069685,-0.00397751555634884,-0.0127697970869018,-0.000999999905335423,-0.959045499477121,0.0153267749757613,0.00917614512176455
-0.996889953769436,0.00423671680808933,0.0022040379723141,-0.00219603620924506,0.00868327505527181,-0.0107940795951881,0.00330290583166313,0.010789513815359,-0.012517122301062
-0.00393479976935099,0.00372353446539556,0.0104381318355781,0.0130095850288353,0.980259886835088,-0.0066658585465354,1.01593576494927,0.00881390350435243,-0.00781037307455906
-0.0163849851408501,-0.00696880330398199,0.996852772419779,0.00721897105525479,0.00374104290151914,-0.00237263460156511,0.0122996339988372,0.0124641391853973,-0.0200841689117729
-0.00791236146064154,0.00104835737610705,0.0226664936343761,0.994343760733731,0.00242766070852709,0.0138371016854562,0.00396466148404363,1.00271524644732,0.0021380149769071
-0.993564552550757,0.00275563425646077,0.999976549774525,0.00718637576187831,0.000475927978576827,0.00101890394384742,-0.00457267166442373,1.01130344881474,-0.992070903541528
0.0058359482739214,-0.0295394089257811,0.0481654340994812,0.0246135439042562,0.0333934985014306,-0.0109768856749474,0.0692745342352589,0.00869723817208205,-0.0194419613718875
-0.00720371224021006,-0.00446390739605879,0.0196970036929817,0.00562540967507488,-0.00124760377532876,0.00626024333728784,0.99708695069586,0.0184588371976413,0.00807211098225712
-0.994908960052443,-0.00175067239885911,0.00962313680189451,-0.013401261228051,1.00214917396792,-0.000293011693722441,0.00422161472276114,-0.00212866377026252,-0.0125573672059155
-1.01013761559075,0.00605587240619435,0.00346190486836058,0.00572905183343286,0.00396781108738538,-0.00771911509890528,0.00960112077822163,0.00549874423452037,-0.986869124928733
-0.00336052853449365,0.000660773345603804,0.00228766166302922,0.00158553536648105,0.993374619054604,0.00304255734884508,1.00354925184164,0.00295351428386064,-0.00510182647171141
-0.00691913148047581,-0.00806024719520105,0.00226951226876343,0.998201830291817,0.00162992827910214,-0.00549729356425321,-0.0039103858936261,0.0177323944701747,0.00352061233816982
-0.997326346674616,-0.00198190076142165,0.989389387789159,0.999672121265739,0.0105749444364564,0.00551589329362048,1.01167483901725,0.998423970262754,-0.00143871678961092
-1.03534543003115,-0.00444952813115016,-0.979246334731408,0.00727826302012094,-0.00186241962846108,0.0064482866039807,0.00489396782310575,0.980361294327429,0.00396950699109533
0.0041117518992117,-0.00333520848644539,0.988829323378156,0.00367499715402923,0.00105444066157617,0.0100341133564444,1.00825685175218,0.0119758783727352,-0.00564349421471105
-0.00433206525452499,-0.00318448921106965,0.00700769632835855,0.00704087754015622,0.0032966510546647,0.00268991304752954,0.997199823674218,0.00162641766287327,0.0059599258208183
-0.00339319990995203,-0.00330412357991951,0.00130328642163688,0.991236054256262,0.00552542312817545,0.00965603086350096,-0.020748096833006,1.0063760012542,-0.00114188667892113
-0.0120789653327177,-0.00481539849476499,-0.00347523606411923,1.00009783166547,0.00364145546245754,0.00578115580628881,0.0165693179722525,0.997501874224685,-0.0141482923888716
-1.00394157908098,0.00523418799737612,-0.00860566260218034,1.00475840130405,0.00229728126907985,0.0142691066544239,-0.00475757361262621,0.988504684524823,-0.0003005268638016
-1.01302742600607,0.00245449349066873,0.0116700465476467,0.988504314484033,0.00182127936418771,-0.00170538218801264,-0.00864521375406157,0.995228085488259,-0.0176178640269555
-0.0262187252679463,-0.0208473364459973,0.00931235302008109,0.974688510623885,-0.00948044093682982,0.0147465666429424,-0.0265238584037823,1.02531169416009,-0.0120748130308679
-1.06429879485768,-0.00168173404879529,-0.000533751349495309,0.935701124887173,-0.00206003692042909,-0.0105577347696405,-0.002150332764843,0.00783473650136051,-0.0138087335567556
-0.0126843168047469,0.00444503252339854,0.997414501482241,0.0193194489968748,-0.00697695475998424,0.0021012811116374,0.013076635977255,0.0116442330555791,-0.00258457972779706
-0.00761778119280108,0.00117076062832483,-0.0142465739597878,1.00006676024649,0.00559723040319956,0.00335584264805341,0.0140413807955549,0.997744681572306,-0.000891983955506928
-0.00938567903421053,0.00835777545085055,0.0133043832797753,-0.000395084281561138,-0.00707061045267438,0.00686483298343076,-0.011844798962085,0.99811187280019,-0.00409758656407663
-0.00631468462328599,-0.0099057863118833,0.0103222967844548,-0.0131432597299572,-0.00368055319805019,-0.00627464476809751,-0.934450889030287,1.06554908522544,0.00603416107285196
-0.0129124042878517,-0.00503185860954812,1.00911918954757,0.000646845007972082,0.00734363347807587,-0.00480030360512267,0.00692539020327903,0.00016613204646782,-0.98757273322138
0.00625454306988276,-0.000765990734567554,-0.00979793661056411,0.0171780483399513,-0.0023800289380872,-0.00158668131513352,-0.000228369391783792,0.998108013457618,0.00100157791131673
0.00105298694660786,0.00379956499139138,-0.00900651575267418,0.0201361403450187,0.00690777801662912,0.0103634948367658,0.0115764354010848,0.997138674076527,-0.0171123822349398
0.00234290413431767,-0.0117504887579329,0.00982828170971743,0.00357366942768152,0.00349744923605497,0.995523163881831,0.00169882810317695,1.00634856718341,-0.994829264545103
0.00340792090565152,0.00131166874992685,0.00573887181230114,0.0113914447670612,0.00316816722669184,0.00973300528866982,-0.00962684456227942,0.99917915205941,0.00268492266779745
-0.0243997069220686,-0.0255648953312344,0.0113988136846272,0.996680472049132,0.00629916043292964,0.0534429188657592,0.0258443617439082,1.003319531614,-0.0084308170973362
-0.00622695658883782,0.00312023313359324,1.00190114716684,0.994468563797264,0.00744354626517323,-0.0034192570060604,1.00223654893587,0.998500302007798,0.00256759405182837
-1.008145004924,-0.99172526018491,0.00228932395514464,1.00177167669077,0.00296570248313859,0.00661109353179709,0.994118043545319,0.999710932515299,-1.00120124760267
-1.03777042449527,0.0104283033824212,-0.0208154684674067,0.0213234598750896,0.0233576932262109,-0.0142891612197548,0.962229562375338,0.00903209985594555,0.019805054476713
-0.993940718452666,-9.73518636861515e-05,0.0112478533172709,0.0491550619279955,-0.0149794027840545,0.00273525752556041,0.00182371721518751,1.00605928924602,-0.0432277800849716
-0.00416406341584528,0.0190769584231212,-0.00425533113545623,0.982030735810332,-0.00328774090676814,0.0062188164338417,0.00477439963162404,1.01797165096658,-0.0342655305922868
0.994894288499376,-0.00242239946186191,0.995874603461569,1.02292310175046,0.991422819811355,0.997540377352331,-0.000449199978545935,0.993253011050307,0.0011414578003398
-0.997996370348902,-0.00130481295655501,0.00287625852699338,-0.000366656541607605,0.00471998668827273,-0.00318717470827446,-0.00128158062131037,0.00768554873721182,-0.0140781460057665
-0.00442082231697572,0.991180886411768,-0.0029246121082656,0.00158471836485078,0.995475110100524,1.00006760564949,0.996615544534762,1.02313865687225,0.989432442884137
-0.00364874594950968,0.00395820829590527,-0.0059356535827823,0.0213769328093248,-0.00518221599687055,-0.00013954752009884,0.00105339445632989,0.997635181528406,-0.0113531779971877
0.00221954033408288,0.000757726671118482,0.00169662018899782,-0.00227803421758472,0.983785520343848,-0.000982973216734795,0.00216686189171222,1.02571819734292,0.986395516049321
-0.0579659541936426,-0.0235928458350246,0.00281892460873297,-0.00134962204922481,0.0160920286746109,0.0184638978075133,0.0132241210932346,-0.000679362113524766,-0.0579763082710537
0.983428358319563,0.992233269769357,-0.000909156030456237,-0.00134273524648244,0.00369737177309563,0.00478581282174968,-0.0039311344263283,1.03258575427572,0.987192978486669
-0.00420919548717293,0.00849963637588423,-0.00653558035243358,0.0130428963294075,0.00295343017493125,0.00410270551809284,0.0106418230657696,0.998516902215037,-0.00985307248742105
0.000666655265667736,0.00238365647637354,0.0106769864639569,0.0119596012619728,0.00572633519952719,-0.00154364333518261,0.000637123487017563,0.997770562751711,0.00612273604719652
-0.00379658449511488,-0.0123759467854003,0.00628303355086803,0.0236307331429978,0.000550111759597326,0.00423624193368533,0.00601671701759531,0.997278675828207,-0.00495491002093526
0.00771920602680939,0.00620814936742695,0.999651204300284,5.45699989996104e-05,0.00646316357225593,0.00635619818617898,0.00842530197657002,-0.000485695865363197,0.00713226521305144
-0.00320753662210142,-0.00239814665566573,0.0104884448591852,-0.00383104424256731,0.00269540866616463,0.00933177347334921,-0.00224444363269098,0.999304632225436,0.00309974972734978
-0.995909106812738,-0.000714607506186481,0.00364332433352145,0.0278565019187059,0.00299506518594914,0.00168401059874073,0.999803158722754,0.0185450366345882,-0.0115821526183946
-0.000264569378929376,0.00527623422095669,0.998451986288247,0.00578071019489487,0.0102782034477759,0.00825730389424113,-0.0103012259602201,0.00851999346560097,-6.86215292341665e-05
0.0100324078710091,0.00241951478139884,0.00951819210509127,0.988879358683974,0.00553520418690879,-0.0057261713427593,0.0214999237075752,1.0111464604103,-0.00259161434061787
-0.0053418215645979,-0.0038262800917993,-0.00670826188030633,0.996049488522192,0.000413313155896795,0.0144395142453445,0.00647742033547044,1.00085205835859,0.000202890167435338
-0.0111290655910586,0.0115748076028221,-0.000296131088737758,0.00972830889201363,0.0121193839403691,-0.0014562843585925,0.00552852536415213,0.998326742228492,-0.00157647919891333
0.00806581903795186,-0.00177195504249985,0.0015346864759419,0.98883269671923,0.00993093587128174,0.000119583430303889,0.0134186944180903,1.00837228712914,-0.00589327153323848
-0.994296084234488,-0.996902616738785,0.0057227527100393,0.00207977521778578,0.00342111785062952,0.00525520375172902,1.00925538307054,0.999091029338597,-0.996939867719212
0.00252729679803756,0.00299869043347709,0.99996990547849,0.00724440334948826,-0.0031087265416195,-0.00161627988851859,0.00478666493156427,0.996949801496018,0.00151711682936566
-0.00805179680388001,-0.00574080700382454,-0.00212539863458908,0.0163138624603992,0.004740267658467,-0.00587703294335034,0.00807878279484523,-0.00683155275017177,-0.997099415384792
-0.00546282859066836,0.00702647986567056,-0.00706164519013422,0.987796609097028,0.00748131198486943,-0.00545142318495994,0.0029935003853882,1.01001257812108,0.00288810997871865
-0.997847826659631,-0.00016613434396596,0.00189733143464939,0.00620638890978216,-0.00277812561564847,-0.00351083231977161,0.000767650694698641,1.0017899363296,-0.997090755935056
-1.00238381917118,-0.00384198870825237,1.00740954804043,0.994220907690018,1.0015507263157,0.00264790222543701,0.995493389030998,0.996768758089598,-0.99905573108689
-0.00141658394154687,-0.97874509553736,0.00530150377060755,0.97982180416889,0.000786159845039834,-0.00618107170059034,-0.00462099456276749,1.03640333540058,0.0030475564330999
0.00655914257449905,0.000914738646465787,0.022489744627828,0.0461791339261687,0.0338505170341223,0.0258959068575546,0.0523187985713894,0.0227677621233731,-0.0193900320901541
-0.00754586116038614,-0.000212105009233383,-0.00642676546170393,0.0128555475698605,0.00806584741256771,-0.00177209375822856,0.0034123174208494,0.996932764127794,-0.00789449452331019
-0.987855768253904,-0.00488060527849326,0.00582789142064085,1.01653533473692,-0.00872639483273302,0.00272182783076885,0.992445612218071,-0.0061591792761353,-0.00809084800266975
0.00483088686510718,-0.0051293428640119,0.0033185174665705,0.997268166493721,-0.0126225994012831,-0.0147659750762002,0.0224679417783705,0.00150763807610106,-0.00339667171176629
0.00719917401858109,-0.00360705356381543,-0.0117170466994108,0.996999425087755,0.0187322742053921,0.00135757875840157,0.0118068774511035,0.0221798769537826,-0.00646219493751312
0.0074970372837434,0.00207832170092689,0.971278851491279,-0.000685898079647024,-0.00263294262856051,0.00570646174517144,0.00452534590875856,1.02487592341537,-0.0022514456206739
0.00583126791958654,-0.00992722650323947,-0.0190731965737037,1.01916431197117,0.00451629242302011,-0.000888258147342403,-0.0240194097738574,0.980839972055515,-0.0125487207592506
0.00693270226869239,0.986221734158741,-0.00747947340574967,-0.000886710990557925,-0.00731258355573529,0.987176310630955,0.992689421995515,1.02941118096955,0.000638433218174833
0.00502117877585979,-0.00765995683438664,0.000339270461097676,0.00831430747897232,0.00637287101898355,0.997613127400996,0.010562845775019,0.00549935696331301,0.00758296223406121
-0.983820271040323,-0.00846882171507393,0.000767244030056945,1.02052791653418,0.00735776808140449,-0.00437879466388871,0.00873858328593708,0.99241936243334,0.00402641896171937
0.0048348633749254,0.00102832495759199,0.00827349338546895,0.00226704063793324,0.996969634241365,0.011723354808404,0.0209528049897881,-0.00192812419848247,0.00098270863131016
0.0105758479262139,-0.0168819415568404,0.044061949530717,-0.0147084484487667,-0.0161561860338366,-0.0156897913997241,0.0143546523656495,0.0181623937262913,-0.00847626515126557
-0.992296078234483,0.00203901711503006,0.010479391952815,0.0122513078225941,-0.00258029746679741,1.00965135700182,0.0044119142181838,1.00187057650786,-0.992727589956466
0.000129717681025491,0.996362306570926,0.993692454475747,-0.000868904972579736,0.995630205138769,0.997755268059426,1.0142230394324,0.00112897138104682,0.998555396110339
-0.997240385920867,0.99675762882399,1.01919810794676,0.000599083236125436,0.99793323862972,0.997474080286342,0.00158207237300635,0.994697129447741,0.992869221799852
-0.014737081480872,-0.000665600908176326,1.07066686323686,0.00137966668920052,0.0101006006850844,0.929333110189556,0.00094724957806601,0.0043867133331418,0.000698656278469069
-0.989771928429183,-0.00859863379637654,0.0014473791597741,0.994536300514445,-0.000797200138958628,0.00350704488369648,0.00046165507680661,1.01389767857698,-0.00442545880596195
-1.0059520899643,0.0079823668100658,0.00190280929284813,0.995116108271509,0.0111041552798982,-0.00121507887927997,-0.00884570778095959,0.996292628751672,-7.81227472542672e-05
-0.00634588430868067,-0.00906104203115279,0.0115069723038188,0.0111142484228884,0.00554393325535294,0.00479024992120547,0.0100190144084509,0.997966753739395,-0.00791234465020962
0.983837655272794,0.00814391538476171,0.980821386151732,-0.00440115524712543,-0.00121094222315098,-0.00199317657118359,-0.00228641780285645,1.03061171210857,-0.0138917162592543
0.000114737788112719,-0.00142120891851979,-0.00643692079828208,1.01468762571516,0.00915408643915856,0.00251492866954017,0.982467859926768,0.0177533459718321,-0.014586848320485
-0.000858150640082205,0.00420568399452396,0.000271656162127718,0.998062273721481,-0.00285435062971587,0.00952234899676285,0.0124133619540804,0.0185819679357051,0.00536900910322371
-0.00425954326554357,0.00364677452840172,0.00431095997661865,0.00190601889515248,-0.0072629755500448,0.982307423513517,0.989872400604057,1.02363713792019,2.00367152837009e-06
-0.00705096718117472,0.00102449987705325,1.00500919983137,0.00479800172221184,-0.000347352847399285,0.0061718870616355,0.991858165161867,0.00840734829232844,-0.000436606778308525
-1.00389736979167,-0.00726623260898372,0.0128659799134561,0.00503136358815213,-0.00384918920802769,-0.000425423035288324,0.00365824944290145,-0.00536923691602604,-0.993003784611099
-0.00154708184717695,0.00309756074998859,-0.00666856256853324,0.0114901404607032,-0.0317187283132867,0.0118671284834416,0.0392247593241516,-0.00422783728844325,0.0133184696041117
-0.984529101256934,-0.00138854603086242,-0.00238185970009892,1.01377780060093,0.00179438006988361,-0.0105726653778034,0.00569160047469759,0.998494614517449,-0.00299319161837175
-0.00269688874487427,0.000227811780529247,0.997393268882211,0.0017483533314043,0.00808965173007542,0.00304095265466806,0.999683070312797,0.00129492949023164,9.8884736051969e-05
-0.00972123019873693,-0.00177950058712114,0.997868000568402,-0.00894851837172716,0.0069269980336039,0.00391623945493969,0.0116645770861879,-0.0041284826928764,-0.0132870290304488
