-0.245794627761339,0.000503879970870915,0.0617648247022709,0.131861936815389,0.0697865217313991,0.231088504544489,0.397198951238776,0.0612167241294513,0.0416851971638365
-0.396347981380142,-0.0471670449005558,0.295737330617481,0.281891084337795,-0.0579259154900266,0.0603386507596674,-0.0579969538519602,0.362113130457186,-0.227001135445197
-0.0325414964425864,-0.048075867892942,0.344235337670158,0.435521022808137,-0.0488563452867142,0.0642922726224154,-0.00952985598723913,0.388009951041469,-0.0114433111719152
0.0129526527972081,0.0102636181257089,-0.0157901801483185,-0.00360455644869534,0.0423101361448634,0.0269046576168719,0.0378952050329676,0.699967875823957,-0.00807829812322193
0.0467822218308193,-0.0633997113218805,-0.0480587226592656,0.561502796129421,0.187986935688364,0.00869641738281181,0.17585733954794,-0.106750649754618,0.0790749946539197
-0.0640718392059895,-0.000681310340765258,0.578197313205606,-0.0741809621544028,-0.135516909533274,-0.0999575555488765,0.303467932178287,-0.0392015030217171,0.072178653702243
-0.244166092995994,-0.0523367688077045,0.12959097725465,0.233438327509832,-0.107940434392995,0.114963732986115,0.0683584756665991,0.360005814767035,-0.151656219092864
0.0783759456540988,-0.0352059562593127,0.0460281636889616,0.0825419484418749,0.0840905187666474,0.153996315070863,0.00969968109087307,0.108822400973234,-0.0518604427391625
-0.521239978610304,-0.0662910558849585,0.557518494184524,-0.0447595536574353,-0.0722309581408033,-0.0660511676672383,0.0662461106953956,-0.0588397603445615,-0.479945795009165
-0.0230722856133361,-0.0729536514546676,0.179751309777829,-0.00936735062558344,0.0425849960647762,0.0672901733908149,0.696330110905505,0.0252131720304645,-0.0154099167756976
-0.0979095326246446,0.0495730986570534,0.369618068669138,0.252127695359615,0.0306701280493993,0.010008040534392,0.0702840305636815,0.0170449292600618,0.0168499377460453
-0.141573556684143,-0.0932459795574303,0.661200096784497,0.0641990340790232,0.126565482648002,0.0980724884519636,0.17602861645257,0.156633663135829,0.0102403503021262
-0.0879448864226409,0.0361969869037479,0.155274721705249,-0.0450626992294508,-0.121000322126387,0.124640112503203,0.00334474459705888,0.33634423326971,-0.0130940205917632
-0.0886591955484023,0.0255482400620692,0.063050799888037,-0.131478091425836,0.0247436091372643,0.109968411142995,0.276573234423343,0.652990899079964,0.0974208790958217
-0.620474071201237,0.0785119350135797,0.0973304600081496,0.0202521531763395,0.0635740602539017,0.112189944913336,-0.0103490853770611,0.198421035027976,-0.049288092585489
-0.650035689352508,-0.0853651347824794,0.110911897342013,-0.0443524585199273,0.157777833689709,-0.157465498886803,0.0262230658002621,-0.0154160402606102,-0.0963886197701671
0.0831228062259102,0.0255062941738578,0.110175215088434,0.24643946568772,-0.181641146717556,-0.108126141094372,0.0631474557237014,0.637856069727059,-0.0520908619705542
-0.0181608139398538,-0.0465778735612318,0.613493932395949,0.144774243650335,-0.00340747725966421,0.0688433077242016,0.0121959646757813,0.0510532894082737,-0.075262468111798
-0.135277036307899,-0.0486565013981304,0.235563702907893,0.321197218058261,-0.248642636666622,0.105551523788725,0.191920247860392,0.449343806509637,-0.00984326343166616
0.00144322088481559,0.00499361673103199,0.0641644063491984,0.440717040324278,0.0260582091559731,-0.0438381155575947,0.0601383529547314,0.476746844379586,-0.0222130604764723
-0.151076584769454,0.0502765264354284,0.637536532495536,0.0675118305399349,-0.0518607745010613,0.135957191977307,0.133989709596564,0.0453839411311725,-0.0320026519054067
-0.0389402563088271,0.0385572217368264,-0.0751016238126198,0.575694714598976,-0.0226011510102105,0.302319493008819,0.290939243912535,-0.0383333300599826,-0.047979541872232
0.0312660539090749,-0.0790860487240376,0.0284621463235134,0.0684787328808306,0.0461870047659515,0.207960478581386,0.385166954187856,0.409424066198426,-0.0224536541418977
-0.0889784487185746,-0.0304105404713628,0.0479504923369905,0.157907475768756,0.180970070483435,0.0903135291789631,0.552080994870127,0.036883869179296,0.0200304031302565
-0.173791900959476,0.12747723391156,0.544585530315572,0.0518610030279183,0.0646787784992081,-0.0441553420471888,0.363195141686257,0.106604322462887,0.0525540078609636
-0.207774100460482,-0.0350664635301964,0.158841153846406,0.0680768250960823,-0.1149132579349,0.0383632382192671,0.095841502770159,0.574123133834576,0.0284509125429682
-0.0342805172611593,0.0311807185436554,0.560248129252184,-0.0332541821017338,0.111527069851843,0.0143808464201199,0.0948741464761256,-0.0722591445316188,-0.0952949647464075
-0.037552155627346,-0.0423522611943205,0.197071566295265,0.352064431420841,0.0669454210693195,0.104435725939207,0.0509825524162168,0.145970795011731,-0.103486093964204
-0.00427120189443227,0.00625318941976878,0.704969822254283,-0.0279483767521503,-0.00653470335807386,0.00689517946739775,0.0148166246138003,0.00380613714194521,0.033323936245581
-0.0195870350964477,0.0207019939836805,0.111589694861532,0.0997603389667381,0.0198495334425125,-0.0541005323203292,-0.0231458585592107,0.621098261035276,-0.0324299243305974
-0.0278292591365458,0.0184878883288659,0.0308829287624335,0.20953859302478,-0.0974711067749533,-0.0172620706026875,0.107746139328499,0.547193200692288,0.0239209866666195
-0.58600598380645,-0.0916790675653085,-0.0215455813391983,0.126956112914477,0.096254607022847,-0.072377206010543,-0.0788710432263767,0.0173097865047417,-0.117224892047108
-0.0248421891830305,-0.0043400689613527,0.00517681124189933,-0.0013725790333726,0.12521347735311,-0.0382571199989426,0.0478184354988459,0.0724927409416768,0.0900612442594744
-0.0456397035247134,-0.00422720332446836,-0.146320976556481,0.455387161412844,0.258204180980965,0.00328611212948007,0.161493846910286,0.073407794010181,-0.00218540256399389
-0.0281848220942222,0.0508271841362052,0.0173047518638883,0.602056701450812,0.0815652827595763,0.0369678331088823,-0.0527730340440414,0.185162258173363,0.131311983977546
0.0723529096124396,-0.0465946700018086,0.309614475653602,0.415946806353952,-0.11812088716851,0.218015215002573,-0.0642058344177807,0.629796581392651,0.0455377206794391
0.0024823405019764,-0.00325128387652545,0.393192787075289,0.173477385317033,0.0611711605709829,-0.131649785015558,-0.0549509735404113,0.242490973032175,0.0792109113810479
-0.00729749762613365,0.0303953420627356,0.0309543947009584,-0.00980338032931985,-0.00247039434805709,0.00584847326519277,-0.0299671113413374,0.0171524831669635,-0.676026186051236
-0.659310735461004,-0.0186202694988087,0.174283615368108,0.000360183060601694,0.109150530301583,0.0760418429893474,0.137143979199722,0.231367652210295,-0.00555943605991638
-0.0474770191743401,-0.0232444126275996,0.422196271783223,0.139926496055726,-0.132484368685096,0.0407492683289412,0.44097448744658,0.0394906855856698,-0.0192737613467087
-0.660301637481861,0.0415173272912134,0.0773780732565641,0.206049216878235,0.0528482981320433,0.087249320248396,0.0812878835946175,0.08611976330859,-0.00268148270136736
0.0395299200169844,0.0472184630619805,0.117939553309579,0.344837503760756,0.517669733775846,0.0155393145769753,0.241809379553624,0.169552113052249,0.00955119674304719
-0.0829931202588684,-0.00222075830118765,0.0815654057685039,-0.031351368749061,0.322283993330106,0.029901608631239,-0.0869216957484056,0.0783462513413934,-0.559775010089889
-0.085452986747877,0.065532172862483,0.018716581128827,0.0677701738275132,0.0588050168245576,0.214657296837954,0.63924513806547,0.061818466670639,-0.0254560791384334
-0.0697395661364425,0.0179080658191999,-0.00607643128766851,0.233780812931387,-0.126200884745577,-0.0520718194980157,-0.104424060113209,0.633451074084559,-0.0107053862135503
-0.0307342905067989,-0.0646189731795259,-0.00747858967858177,0.412130657058714,-0.0302940595730247,-0.00850094308297714,0.372195830653084,0.108317633703059,-0.0305457916384486
0.0449894819648929,0.0132992301672097,0.643900988484893,0.0933178080223427,0.0537167032468471,0.0874157626488154,0.229124015586953,0.0330956072691557,-0.0370941905638516
0.0172000062183427,0.0345903368439451,0.0345303093822592,-0.0563910603392661,0.0154981763793305,0.00233467088836338,0.032423706742563,0.693774477157368,0.0334836289147341
-0.287947675670699,0.016187250218284,-0.103926165244896,0.0505947298631772,0.187204261953951,0.0393203455264838,0.079850456550979,0.65216283682443,-0.0411570377580093
-0.0562861867315644,-0.0607955298722956,0.00951792588182373,0.0779910190922618,0.204448978604452,0.552354823810952,0.151077662070923,0.0704353971865522,-0.0253258588924379
-0.076114066938269,-0.0444342877566504,-0.0420310611038255,0.1750166866502,-0.0442961958073652,0.0690526432995042,-0.0958726600372637,0.695065663333909,0.15535502909458
-0.0721331720041383,-0.071350673988024,0.0675747645944681,0.103270343197901,0.110974786284523,-0.0234146331735858,-0.0457209343755672,0.0532231736219283,0.0140975368489232
-0.256890977395579,-0.139091022543194,0.277403749103928,0.177773614412049,0.0459381850043514,-0.0977726550238302,0.188512249401942,0.280764051291421,-0.137760077908689
-0.0616494601735532,-0.00670067104767829,0.133829227500041,0.453676895620315,-0.0651283819595306,0.00406027049510344,0.159208597720892,0.353968367399874,0.0494391919903067
0.0343688455769833,0.0517441237907747,0.040115512732811,0.0175377610023512,-0.00495691982779232,0.0737993298177302,-0.073994085490489,0.709691888273258,-0.0218006768479721
-0.574103523236137,-0.0482921403155556,0.0829635313932266,-0.0355872904794495,0.00720864061119947,-0.055623822797659,0.0683533474918055,0.312131151326623,-0.0736000967029499
-0.0799488421869616,0.00190495430796315,-0.0383334744756091,-0.0644412063350785,0.131507007211932,0.125255818567662,0.763188841225456,0.0532687146004692,0.0390394039552486
-0.158364805657173,-0.0108740972148334,0.463996098082584,0.283824440411347,0.112078565320888,-0.0286516341097491,0.17243984618389,0.401115915793482,-0.0809389366301219
-0.0492469815513439,0.028040308276029,0.678143094440272,-0.109776667843457,0.142490186378323,0.164561570245912,-0.0100265989768561,-0.0227780883219638,-0.047616568305126
0.0170874339631564,0.0694072453285481,0.041266188183071,0.0427769287254268,-0.0951897832592787,0.740487913956928,0.0757326216409396,0.00435402088326412,-0.0507017006110928
-0.106408387058457,0.11947371538458,0.155046611243237,0.275058711210235,-0.0268668309929928,0.163827107432354,-0.0792812905649268,0.33540977441005,-0.0421512250171307
-0.0237830545466194,-0.0280413323805631,0.70594078151197,0.0492747139176428,0.055290204571481,-0.0844811168057592,-0.000308155354136083,0.0848181010369309,0.0613415504335759
0.0455141069549843,-0.0689143411766585,-0.0452709146612635,-0.00688756850546926,0.0821583051400791,0.00619276105224832,-0.00178909543760824,-0.0307972913517422,-0.0218609665981247
-0.0598774631721182,-0.0731920893643846,0.0258226790626136,0.0261501322212431,0.215245462618523,-0.0592696440838035,0.731040007740529,0.0625124228181018,0.0372826712587295
-0.0360230964396238,0.014397074357082,0.0802564852133534,0.0733488791421532,0.021956403957335,0.296231818636801,0.615333659429713,0.0149672865920627,0.0330343709787088
-0.039659886297676,-0.0433963099955589,0.0386845098185314,0.220877555621196,0.352541859171018,-0.054447066038941,0.00793537492673745,0.236749851279455,-0.0645963310372377
-0.141429534378078,-0.10383319601345,0.000208210325637896,0.199601481959142,-0.0101418412200776,0.0440442101128662,-0.0755456281691127,0.511154364213921,0.0480974347447138
-0.0371701637081378,0.0128749286028718,0.710017332166791,-0.0157447620424224,-0.00875919214194916,0.0296932945163236,-0.00591800473809968,0.011920414643529,-0.00638836471275885
0.093537012667821,0.0293351282074874,0.279213577419485,0.175875892322078,0.23733418746703,0.0219811365003416,0.486732124574384,0.340145500867354,-0.00318116865427424
-0.489716807176265,-0.0909637338221354,0.15953888895387,0.283005820442857,-0.106827722753914,0.0525553237455848,0.179721968821164,0.265022554125684,-0.0115565679366597
-0.001962316360268,0.0274688301502317,-0.0283975881910432,-0.00890378216918932,0.0133417601897135,0.0061565459498627,0.0128615343575083,0.706119749753363,-0.0132533324100157
0.041553226082341,0.024930628796858,0.0442306806505515,0.0661465508682,0.175645730175795,0.172150545860907,0.322478373325946,0.278339592924997,-0.172684553572285
-0.156154454574859,0.0414899920430677,0.0499062549954391,0.202094347154572,0.575037490108831,0.0925269112999991,0.129111712624703,0.0225397918174034,-0.112855220545039
0.022820505184528,0.0291107307381724,-0.0436889570312706,0.503308218729291,0.108282853079161,0.52608708533624,0.226095021162061,0.447448768026189,-0.026812988605998
-0.0344546876102498,-0.15739082038816,0.0713301273310171,0.409122256256237,0.0869276552380698,0.102380493537306,0.0893924222187657,0.543923096349939,-0.0364133180500458
-0.276220476968972,-0.139994447441758,0.0998015718014682,0.255824867612702,-0.0726840568485431,-0.0108857596224065,-0.101391313814827,0.374889324219558,-0.022626323529065
0.0243448880242007,-0.0729662698273162,0.701764365995027,0.184664007862464,0.118682901615905,-0.112090357710091,0.286434651894152,0.119025576456061,0.0353477503262847
0.0138719441449891,0.0188855745330283,0.71342816053426,0.0134215373351504,0.0197860146621957,0.000169728372475587,-0.0101649589926156,0.0333405589459553,-0.0116100593760685
0.126567799418003,0.11869391624337,0.121171597180543,0.249997917649515,0.0225789103142831,0.0351091399787754,0.0478487189132105,0.408355592079059,-0.0531389088041408
0.0853761888153187,0.0456010073219132,0.047682938307148,0.181294022627971,0.0606279734776113,-0.0192277143209638,0.659781515661987,-0.0131004458529566,-0.0487898689011255
-0.0613152437011197,0.0848919495342893,-0.057202957082313,0.707572889124367,-0.0231998092962653,0.0762353390517902,0.00854416305887964,0.077224817757472,0.0574424590932799
-0.0737075928296981,-0.0319467615905265,0.0508408444987493,0.612286797040161,0.0594271694473033,0.155625395717223,0.0631179837911406,0.213383434887759,0.0347651003744277
-0.0734779278572874,-0.0997272658149905,0.676461238330356,-0.119034902392982,0.0458329267749992,-0.024140249270464,-0.00681720330810551,-0.0741617863781965,-0.00155189381749449
-0.000173070816930063,0.0177186390074587,0.701029400266779,-0.0108033067599982,-0.0528605530375434,-0.0758997602005819,0.0226722196044711,0.0230139053342261,0.0210611385510026
-0.0203315187061874,-0.0209914094992953,0.703460168893264,-0.0154222318347341,0.0215066906729945,-0.0112194369545953,0.00590529805332989,0.00323960233269399,0.0155997340518435
-0.212164845639713,-0.0672210614519426,0.0492743568825866,0.143151646836285,-0.103132637053408,0.280261892063853,0.562182536545238,0.206955813028831,-0.0371138354357659
-0.165067224367306,0.0699367404300909,-0.00512817779820286,0.350979922063839,-0.0121905522741055,0.173743894177263,0.396814672612881,0.605982020136763,0.0151336392040992
0.0896633932224828,-0.0498847243875149,0.701102327430227,0.0478073689953089,0.10580101331384,0.195970395388864,-0.0650871403169509,-0.00293091328547622,0.12687098218156
0.0841070186609388,0.0953580396872423,0.0541066845891649,-0.0550398452668099,-0.035953679530182,-0.0425362539507675,0.556578237690682,0.401760269787479,0.021257734855627
-0.0249890394539996,-0.04094585941242,0.4312365213706,0.403828236623796,0.0284550929016413,0.00321277519584066,0.146656456548358,0.329332520864344,-0.0948788559563787
-0.0411562843411799,-0.135999340320271,0.0207108208615134,0.331512337372458,0.167837888579587,-0.00740346541246708,0.39359432688656,0.33981706352222,0.000455446142820767
-0.402290665814598,-0.116363595058964,0.128619997017705,0.0558455730929246,0.0416310459717688,-0.0177465441307682,-0.0163779312194977,0.387481413628623,-0.143847967295561
-0.276712744399062,0.10082797352776,0.00442708058231982,-0.0151571743677249,0.122381512822079,0.0764885189204006,-0.0202049633766269,0.639729849620893,0.058867161366518
-0.0569025416327877,-0.0804021416371203,-0.0480042213150969,0.0945021544505737,-0.0755539336273855,0.32353539882567,-0.0148898815289451,0.110389315872196,-0.0700970984146483
-0.104055347105636,-0.0385078842410016,0.623146407400038,0.0536425943516771,0.120160010743588,-0.104765384654764,0.0778442464405504,0.0356749549733287,-0.0269873056483221
-0.534849678804088,0.112674880919995,-0.0583699329709756,-0.0482839447721529,0.300984877265468,-0.0437706581268448,0.0452064878827902,-0.0589308492219735,-0.40776888279134
-0.241799306195716,-0.078463239525461,-0.0521288957054697,0.448629966438702,0.118910427925456,-0.082856216314589,0.0880701873795118,0.508387515353002,-0.0760335729333097
0.00492740639258889,0.0362743431065445,0.439608501234491,0.0918419795087283,-0.0329526953097631,-0.129714876500665,-0.0773347781379582,0.206286906201704,-0.0287862615691523
-0.0046439623903024,0.015770167046049,-0.00685767456226748,0.0046673221577036,-0.0449505370935414,0.0262478803417041,0.0341067531072921,0.7109342610939,-0.0213192384999238
-0.195003096239089,0.0249711344757414,-0.0121090399489103,0.376323486638099,-0.0981054449150861,0.0040834929230978,0.058977078677857,0.270588245178242,-0.0912580983246364
-0.100054479741066,0.20024971919922,-0.13815887191992,0.169358189515394,-0.00530598325294445,0.00120984945117142,0.0928604095888554,0.56046182191625,-0.0840723721286736
-0.451075775514243,-0.182638026219493,0.171840341363223,0.260156909015401,0.150285631166627,0.0938673201153434,0.261941296395737,0.268701926884226,-0.196793033563507
-0.0306455136082347,0.0720935793092033,0.0583862154133389,0.254671908977257,0.124480943188858,0.188418071016728,0.122018530381176,0.220837395947066,-0.0752897761531
-0.181329175316585,-0.037792251873028,0.0657418547401698,0.359909599497504,0.262831701455036,0.0807603252949531,0.112519569729051,0.440153888259799,-0.175219878452194
-0.0840160723051188,0.0572729505901523,-0.0759155714456881,0.231290637448528,-0.0488812104653846,0.167541613575864,0.469507985564554,0.314918970426813,-0.0760507889258609
-0.0129398554203097,0.0356103702314732,0.0375561336764625,0.176779217183508,0.0546538842401641,0.152605104310372,0.105304568175103,0.638560325152107,0.0770049383843163
-0.51832033189371,-0.0196819752139786,0.111992521756125,-0.00550583197967917,0.343004879028518,-0.0999488622723605,0.0988783519041522,0.0236203743216265,0.0556625282329083
-0.00125504676835327,-0.00232010206198158,0.251939996977163,0.346500214396151,0.112480104988843,0.076283631085763,0.308159027596326,0.303936262038581,0.0365773562402436
-0.137412834737414,0.139736240148991,0.353425613058199,0.253467232091766,0.189931829013678,0.0274234949211796,0.351523977340167,0.331883240072049,-0.0605751425133629
-0.0545341797865078,-0.266914927728193,-0.0120244988436366,0.200605267361499,0.205552297196142,0.181086380303408,0.219602948301438,0.0460875600472976,-0.0731604987267478
-0.0284275738754299,-0.0157504852833333,-0.256472084343571,0.581595440575522,0.0867347601509447,-0.0478672323274354,0.0738920657817954,-0.0215243935289142,0.0847532664597309
-0.271472553813661,-0.0523354686643539,0.0597799392310963,0.365061419120181,-0.451113570995306,0.0806365864619342,0.481071403074953,0.268048931736312,-0.0278012301919444
0.00228082176506668,-0.0395089663160016,0.0292246836059604,0.0194945049406591,0.697782641448397,0.0187019537835765,0.479304120387131,0.109987783753912,-0.0597296094863004
-0.00587824574677964,-0.0325284021149518,0.0118988992008656,0.317769973235595,-0.0246007045625278,0.0208731022951391,0.00974647444049614,0.646946811558283,0.00882491525948558
0.0474832286174428,0.0733525309614923,0.0196256531683867,0.160407878058775,0.288408169251223,-0.139032199915025,0.00271914003925755,0.683461789283713,0.0064812470259371
-0.520530255031799,-0.0411527394079568,0.069490046601011,0.0926473341117833,0.10933891559236,-0.0279796153943225,0.186790077260289,0.0394432396723885,-0.0013989388532361
0.0110944113805675,-0.0717058529085396,0.138289411821048,0.490221126514947,0.0873349346174151,0.0858616840444945,0.1574328052588,0.578630888418803,-0.0316870029480571
-0.0668872666208477,0.0558533532315768,-0.0359795194779407,0.424696642576321,0.00188110026787022,0.0288148836135839,-0.319062263751587,0.239605587077213,0.0696683507751976
-0.658756780997893,-0.0413981147705743,-0.121172132139067,0.139019604479048,0.0167768265731729,-0.0615618824610824,0.148366372660994,-0.00237311167770114,-0.10763083576891
-0.214571142673793,-0.00959939339232663,-0.0539909605641008,0.249316415631768,0.447609534744992,0.397111433400642,0.502299523826333,0.34292427746746,-0.316293968202872
0.11516678486819,0.0513811526607252,0.0216967245181201,-0.0030743480847383,0.195373616834942,0.296797895055817,0.107558444182475,0.110174843341609,-0.118778018882269
-0.538636771000094,0.0677231381554388,-0.0427083852384951,-0.0553899676445423,0.0792193570359753,0.0912275644839595,0.516950174931808,-0.0239383369456422,-0.00485645995976667
-0.0145206663170176,0.00680958519610819,0.708113119876947,-0.022151919852751,0.0197435960374761,-0.0115518534084,0.0273650866022615,-0.0183005224820107,0.023652991876983
0.00315418760528912,-0.061571003169651,-0.0056453664554449,0.15389973835462,0.197237615558681,0.302957202041004,0.444637200186625,0.258678204630215,0.0679423511349638
0.0066284258906426,-0.00709384697338701,0.706064204141649,-0.00804090517939575,-0.0284574959613863,0.040590277864187,-0.0329313666575876,0.0184068254606525,-0.0158482365112535
-0.0578605048739176,0.0466140924904012,0.0628680199806132,0.0284784629818039,-0.0644863344290127,0.00663911400439107,0.0628600632060669,0.70919897673783,-0.0359458965498218
-0.0210246125906566,-0.0218606519462378,0.00553044602812777,0.742060807470666,-0.113127751690961,0.114044519435308,0.0747942301947761,0.0207762146672153,0.0684370139570608
-0.0240351822148447,-0.059303569682189,-0.0355586180728382,0.260107936108587,0.00650767828371625,-0.0448524188445636,0.210894503227269,0.55826453067287,-0.0237921899111521
-0.0611526986177217,-0.0561912579755798,0.108711734955504,0.382306121932563,0.230442712961527,0.188460258372914,0.229280836404899,0.408963079201226,0.0170739608829883
0.103005033402328,-0.076489522471273,0.28487425385955,0.236410429173743,0.116742609192755,0.0285155690514121,0.0343951399881114,0.317838402006666,0.00698088449828372
-0.0926873035137927,-0.0162321158609199,-0.00497084653741318,0.0753829523974107,-0.0654253625632448,0.102182511655814,-0.104976958952431,0.71209783911094,-0.0771397126560852
-0.105633819565095,0.0390654237883041,0.0196980705084693,0.178341458885615,0.0764800541069177,0.705099490979076,0.0801885543808381,-0.0446763701509716,-0.0393895458281795
-0.468914994356323,0.0182112123508516,-0.0548251262176557,0.0269597328491359,0.0250455083186032,0.0911723541473384,-0.116214223974338,0.513181050116345,-0.0453085113424623
-0.588007917768513,0.0139302302581541,0.0809333955283523,-0.0614878261744262,0.302208162906791,-0.0362211891790897,-0.0405723473076606,0.0341691188960994,-0.0841235433862466
-0.0421980856894651,-0.0318719326033384,0.112180656846562,0.14020146803624,0.0266253233363693,-0.180851334623635,-0.0237635170134679,0.704426390810126,-0.0394079569590736
0.0323076329114944,-0.084135088838617,-0.0908455688310627,-0.00457121821617193,0.115690117015226,0.105535233138533,0.078636066103739,0.64157955475513,0.0607086271836235
-0.545081758040863,0.0166187238200686,-0.143372806743791,0.28051668668091,0.016480653753967,-0.23314142633338,0.00101239034955598,0.299558784287261,-0.00301711831728885
0.00643664029287729,0.0270022316075559,-0.0139900220118032,0.276995933835179,0.180900354360801,-0.0878266969297636,0.591153271413332,0.122269562544499,0.00431292046420447
-0.0864033918735766,-0.0973345295148659,0.0685415985443436,-0.0150559443655251,0.727670984945711,0.119965148359109,0.0105864775303473,0.113325072288307,0.0337506834541989
-0.0370522300064655,-0.165023117875395,0.0828216186206588,0.493360598783782,0.335283186254024,-0.0533094658162352,0.0363576708605371,0.409230247915986,-0.118519342974336
-0.511080939667586,0.0604762296004869,0.0340332336759262,0.135277535345172,-0.0565477742215668,0.0349433610567879,0.006762973117953,0.377293848096987,-0.14074513440517
-0.276089971224275,0.0531276974392418,-0.0400972657762172,0.491192281966364,-0.0310182167381967,-0.0654871553096749,0.00222307750474993,0.445724159918265,-0.00492159552340578
-0.220252101512586,0.0794892185645117,-0.0140480173052094,-0.0185702527961425,0.0888524714800249,-0.0519302294517816,-0.107458437955535,0.46990884194591,-0.0371743033969644
0.128340004435716,0.0265319301949787,0.0621804773211381,-0.0320434243762722,0.630792849458378,-0.0147012876691015,0.459110646905847,0.00223338875860241,0.0609543027116209
-0.173397207282078,-0.0928383316339567,-0.0311608433820178,0.0310009807633216,0.235243358072511,0.024764621888886,0.166727127219736,0.491202545901631,-0.170156440935307
-0.291776185078153,0.0730482299605033,0.157150824892596,0.23149807900682,0.0909198464909531,0.127532780449351,0.0934916373595947,0.411249253949804,-0.0773161195035394
-0.134139619889871,-0.0850972747682559,0.161646120613017,-0.0192473877940663,0.125850802726692,-0.105428449644585,-0.0377536880864556,0.00501777401449828,-0.48610821246142
-0.416217599662092,-0.0354116429995885,0.308158433815223,0.0359632133082183,-0.197399726803122,0.185431986902901,0.410151454069857,-0.0705214668792682,0.029603634477739
0.0165745623915171,0.0107380532525491,-0.149888165198113,0.00624427126375378,0.396515968940118,0.037294509782281,0.599204859222887,-0.0181172831631099,-0.0797154871254242
-0.11217081418967,-0.165768194092483,0.165628111222854,-0.00961612839731743,0.437350012965633,0.0305679797383891,0.605634525877128,0.0332264262021438,-0.0527911949713955
-0.0880310560547735,-0.0110267584077095,0.0857128756806566,0.115963023495364,0.0395958992412849,0.334829090307557,0.592005165345832,0.168923673541741,0.0206675712102125
-0.455509657193038,-0.451599031563443,0.108300349724642,0.125865645923237,0.0515844345288795,-0.0436462265793376,0.0914275137202023,-0.0848211963711017,-0.0909272802343268
0.055035430724218,-0.0585681732622701,0.18637712955674,0.392763199559677,-0.190754584323049,-0.275248858361158,-0.14910672861342,0.467553563828022,0.0774717438571082
0.00339508061726085,-0.0123611135633942,0.0221665397841494,0.31123792761761,-0.0722233937934649,0.0187044312775165,-0.138963284618455,0.636503755445541,-0.0459418020305303
-0.120310780694446,0.0351947611862278,-0.00858424728171527,0.113637811872669,-0.0230817401378543,0.0465544788456875,0.671469563465919,0.153332342605387,0.0490319169958516
0.0518678050322389,0.0557357276455095,-0.0227011246759012,0.130720237537486,-0.12085343219874,0.647710927584019,0.417390345218871,-0.0425294004461257,0.0807223713202722
-0.0944987256829721,0.0609267449184296,0.00190710044576183,0.257538103557828,0.0360863946385922,0.250892722557636,0.465830605448453,0.315760664967808,0.0128038002493421
-0.095958445948795,0.0318766594024346,0.155591550613662,0.567015757627163,0.0311940815085267,0.0352523226055128,0.180722516722608,0.337773355539279,0.0095621679151671
0.0199453912526244,0.13150800812857,-0.090098852983681,0.18843753153787,0.11942520658458,-0.089466906910041,0.0171290271769759,0.645395306474086,0.0465440597257275
-0.0688475542452664,-0.0686752721109219,0.0851929783597958,-0.0356763198266133,0.103802873069056,0.375585303449189,0.331256588717267,0.0776742416914102,-0.108739594442137
0.131727324312815,-0.00919723401698047,0.0370316201713278,0.483364646763795,0.0555590399644836,0.019432513590535,-0.239171826614921,0.174712955949679,-0.021575087877958
-0.0144636120492786,-0.0401023436569852,-0.0227110712121886,0.487973099405242,-0.0330715996960094,-0.00575855369467536,-0.0230079595526123,0.405137162157925,-0.11562760665807
-0.0917890165091521,-0.0138873862362524,0.385490373696716,0.110302905897903,0.100854257222762,0.155235064125356,0.196135408567239,0.607450112338564,-0.0076953825101016
-0.00945553494331152,-0.0292642526672652,-0.0322985793567127,0.0926940417982517,0.20283309757049,-0.00788143374722324,0.575295650224618,0.0642537521040774,0.0423242639443521
-0.0279173250615949,0.0540781996684496,-0.00784458858578737,0.183926066429275,0.0806364872608275,0.211971993240197,0.0951150339688211,0.607577922586477,-0.0290515558313334
-0.0316447017295192,-0.122367094369287,0.0677261083724573,0.119085672609869,0.0559936786724984,-0.0334578832605754,-0.10345961579156,0.634217725441539,-0.0575976324909062
-0.0536963807655732,-0.0600478092756261,0.0584089265081947,0.0981239380404083,-0.178163544926686,0.0253889336282019,0.00990734130270935,-0.0539865007773847,0.00456021436691662
0.00811236805432578,-0.00384150141454415,0.706530432075259,0.0117269216320674,0.00325557507872796,0.00682998824064564,-0.00861181351923319,-0.00784372870534398,0.00402424282236251
-0.084724313490128,-0.147638966225235,0.198109580181731,0.241403462595556,0.0736871283709963,0.0506486219201845,0.207634548653063,0.603823548542308,-0.100363308969651
0.00102012482696011,-0.0116879993067193,0.712489715795532,0.00546828874276862,0.00674381810455082,-0.0285075842541835,0.00664521522773336,-0.000699394771931494,-0.0271529806175567
-0.022605583960292,0.0604771468542308,0.324834357665337,0.332095431560253,0.00592270686533469,-0.00824118413423368,0.0111151599723704,-0.0168334021496764,0.00491064044461581
-0.0332534438647289,-0.0502903205100888,0.168223527449795,0.25326547546446,-0.0188148515095404,0.389044171279256,0.033876675209609,0.305422310299395,-0.24338825523409
0.123143931728427,-0.0470039524584196,-0.0356525886007927,0.262279621461876,0.0427737019519953,0.120530606712995,0.0574569125144414,0.432714780622038,-0.0369527281019016
-0.0414110966124088,0.0842039611406256,0.11841830626529,0.250714667833464,0.0676540966223965,-0.0509872594952512,0.623563436399729,0.432152538322671,0.0362734038085856
-0.0184193235217019,-0.0217126127575245,-0.0834757824753256,0.24259840816638,0.00947284527698731,0.188995810162657,0.545105411199333,0.406574714888047,0.098979368968995
-0.232755636578466,0.0372733191774349,0.0315837131461074,0.469020484980147,0.0255998268872038,0.0843734397316384,0.0830090619280994,0.518388659509831,0.0457282655232406
-0.017265033447306,0.0691889043624819,0.00347989210386443,0.120288660762397,-0.0342800560812823,0.0233797891502933,0.206757401760568,0.190490444412175,-0.0100620555714922
-0.0110155839023615,-0.0192004357784434,-0.0243808742826095,0.0154804179848449,-0.0255719017459444,-0.00313449483764897,0.0262037606460806,0.706480588934714,0.0302596844841994
-0.065505604317009,0.00783504788595532,0.0837965453764444,0.0832223853287066,0.278532799395652,-0.0374064494225559,0.630890082430144,0.279342526312921,-0.149555651884851
0.0107133392128098,-0.0199493665370737,0.103890513195853,0.0836758884310225,0.103615547785448,0.064678610930591,0.388183138426016,0.0133561224497539,0.0165332684423601
0.0336735390600253,-0.0176257230170529,-0.00673192102747947,0.0303817389643421,0.00225407640775444,-0.0170966170327244,-0.011870765557235,0.706363318333641,-0.0143497526606504
0.0685038783304236,-0.0212895529933543,0.255329508541439,0.373113020488058,-0.0883190377549193,-0.00307560001983857,-0.129543398897471,0.601645750091437,-0.0617961795222822
0.00667930794991032,-0.114743303396993,-0.00571628476238486,0.053076766001883,0.13386594507643,-0.124985404897172,0.0388054530775905,-0.0513546611010513,-0.0331758966881905
0.00141314752486934,0.0494240136760223,0.62028694642439,0.0640924877307826,0.0963858910471469,-0.108143432616825,0.28897766450411,0.0513672517449881,-0.133759256653473
0.0130251397963534,-0.00178489884119856,0.0151457420931776,-0.00977560777010131,0.0348699204679938,-0.0183945441653785,0.0109157898891491,0.706249429989127,-0.00557533909893901
0.0169733142675316,0.14628758128633,-0.026212677254678,0.118108949242769,0.0460837343314306,0.715580893838496,-0.0387128126065221,0.0524608043498202,0.0174265683107655
-0.26361942514606,-0.312671666598791,0.337442629858503,0.218012216614044,0.26019179763609,0.286819014050295,0.514502125032483,0.237459878602082,-0.266100972128053
0.0509520297881486,-0.0658375618418243,0.0482663411839249,0.357017807012033,0.0199688056628068,0.457156493567789,0.420990212012397,0.233333973596693,-0.0415786585204658
-0.0861470313757894,0.0158758449703412,-0.00269875890092974,-0.0216369360880977,-0.0150592739569327,0.138317274004232,0.0468295719805893,0.623920409419593,0.0769340835696528
-0.0850070320361986,-0.163437327875568,-0.017196353063316,0.162394148433323,0.241032305480198,0.449628943810814,0.259098385034599,0.190486435469921,-0.108192481089012
-0.0290475496734427,-0.0556576165185011,0.151233014282972,0.0590710404709785,0.00101781936536939,-0.0554745814498813,0.162142023693773,0.140390096226193,-0.112160557040373
-0.022165460389196,0.0657263179392344,-0.047545351019742,0.0745110471717099,0.134604390319291,0.728855669055249,-0.0310808086929596,0.0555834114487572,-0.0141501374118722
-0.662373458051419,-0.0512984643879891,0.00428532817382873,0.180605981886437,0.0294110180367715,0.176781762705076,0.000823461646979432,0.00753351883662963,-0.105865042838201
-0.021262744132737,0.0213924738590557,0.0908495748831843,-0.0707923782278458,0.075528769464603,0.193910513684935,0.544468729243864,0.139552727257842,-0.0539290898841821
-0.199438318074589,-0.00114898652592878,0.0429330147683457,0.281133913358322,-0.0692172015523616,0.117208172324637,0.303722379147792,0.441217389400391,-0.100766011255039
0.0462185963841147,0.0386120500227054,0.0974504627018432,0.119374972593541,0.0522968205728286,0.184866311104211,0.314034808534083,0.144219419791799,0.0151266952945675
0.0776507509039365,0.00983986233875107,0.0481297458233034,0.063394851771591,-0.126660165597421,-0.128686256109538,0.0487003682601209,0.702719350350711,0.01654678883336
-0.1203576150417,-0.0586708035532317,0.133412768817459,0.322556036426415,0.262423651786425,0.220864012959652,0.653962948764542,0.430083278993753,-0.180216509560208
-0.0392461871224147,-0.125053508877408,0.122794037042431,0.300386802090026,0.0961566673497708,-0.0210934691407522,0.148676566608565,0.389059487222714,-0.191546351751233
-0.291809449983034,-0.155363933689556,0.0322561605734124,0.329762921142965,0.0695879305033168,0.0750525026284934,-0.0501985191548846,0.584386733054977,-0.0837970953599757
-0.166342598190688,-0.134324572028805,0.197096354147294,-0.0854854900807946,-0.0232491948825981,0.0270109965620648,0.106386243371256,0.336493403508184,-0.0555033270704396
0.062756163254751,0.0557787476859524,0.393360553396667,0.0546939621541265,-0.0277867925310289,-0.0281495853144333,0.509380605722591,-0.0377314418611527,0.0319858044358205
0.043398531824941,-0.0286803960464325,-0.0375805965507321,-0.0307816453851189,0.486205689054612,-0.0243365669857643,0.066557399673905,0.0607822483299305,-0.299223279427866
-0.0749363934467069,-0.100217800006126,-0.00473907946227581,0.196553669797038,0.12412107839708,0.0336159997676791,0.106380770977038,0.702918321986852,-0.065548349080737
-0.0660434718171156,-0.0588338867329958,-0.0846703192809896,0.382911630967705,-0.0735802994179166,0.0394009242076092,0.0572501687324746,0.32964422115874,-0.0522336621475596
-0.0376624045068381,0.0414306955208336,0.196244318933415,0.48965605152583,0.0241902346125654,0.0845023234999833,0.351418764942406,0.095983555005732,0.0887959648234999
-0.197020369265879,0.0835093903841311,0.387458667440276,0.350286930296373,-0.162759414976058,-0.110526945251602,-0.0754077083912412,0.387457326797256,-0.0783860533340626
-0.0645457600468526,0.0439063948286309,-0.107511831848848,0.270635235469901,0.0589596151893341,0.000177169918110341,0.646890324274532,0.0485867870271249,-0.0915739864413775
0.0926380926090057,-0.131372975123394,0.0281403157682077,0.333643566854772,0.021522922137151,-0.122998428527489,-0.0609061696545634,0.679316228142391,-0.102578285069663
-0.11672582707979,-0.0751843765535759,0.171521571663488,0.294135996538771,0.0606748530133425,-0.0203775242864506,0.11144369020205,0.355571322750393,0.00408313188738549
-0.159433939451302,0.0534075907344703,0.037361278926219,0.652413425792355,0.112968263740065,0.0607316593552294,0.1389770771945,0.0686910354614288,0.097050639075061
-0.0356545374343569,0.094084979860317,-0.119258823274976,0.578648210218534,-0.0405111112710412,-0.132187208013461,0.0112784233111395,0.217735721552162,0.0232608264803373
-0.138601724371555,0.0482734051159615,0.0420054172285147,0.200372059837256,0.0570315054316121,-0.0954602769584128,0.116293476913798,0.47761556137381,-0.0505940072692582
-0.0260722020766619,0.0498572876092509,-0.000233764272334371,-0.0564082582133926,0.00342772178308745,0.0896209944939213,0.238108086121648,0.0207603834394077,-0.0173368201749617
-0.0276822863283064,0.0705738502259578,0.0892470278041348,-0.0501228555349624,-0.0138388987566388,-0.0180377735661641,0.12359423487518,0.367231437429582,0.00931672303362054
-0.0661778800839321,0.0637786458082645,0.0613454863676518,0.280557332278934,0.010523266490159,-0.0551248636704307,0.0856801740560839,0.535212845513619,0.0941184989612773
0.0558433924250835,-0.0959182179046317,0.121148433502326,0.202638874479231,0.176442378643556,0.0736415933899183,0.0649089416532156,0.14450021722601,-0.0119083604500666
-0.00542207039211629,0.00970116509212209,-0.0419180769716405,0.350023476443404,0.402841507216146,0.231607071537645,0.348126895434757,0.0765073230003328,0.0338293376782969
0.0824577872510148,0.048850849177403,-0.0725953149135507,0.180396420078863,0.221999026883022,0.257298248560778,-0.115042199172669,-0.0159840069345473,-0.233188358110325
-0.0233253961724702,-0.02033758242226,0.269704944245438,0.332912188162272,0.0269137343175616,0.0638057682817393,0.131482383364008,0.426516719723389,-0.133309824411572
-0.504595508807513,0.00110828143799325,-0.0139096370758443,-0.00270341773801464,0.341731798545012,-0.00252515906763013,0.113201495333422,0.096289043609099,-0.00849411263591266
-0.0836625197233764,-0.0779276503257736,0.112930358924794,0.0633921544811244,0.180353672583338,0.0754575217295827,0.21420255976622,0.128019210775181,0.00704500729387281
-0.00321313180827692,0.0244089333585673,0.0133228671197409,-0.00150245310681216,0.0141051217760848,0.0167505566581114,0.0390894537542742,0.699432253743681,-0.00857667868151857
-0.287415454686706,0.0321065915432591,0.0685392460550329,0.342189791416491,0.548428157139925,-0.0873668150618998,0.0214760967885141,0.350890428300229,-0.042670233238332
-0.235126222994029,0.0798350528931683,0.431612617041589,0.0863874614205876,0.0686257663420778,-0.0569162975344652,-0.0598516593284392,0.196836187038896,-0.187825849933328
0.127622832438927,-0.0338615315290803,0.0419740999598872,0.498476033782035,0.0353594612940567,0.0692688956557039,0.44243018000634,0.00242365233603663,-0.0334807437482643
0.0185960386352061,-0.108374573441599,0.0173311959487466,0.166452267359022,-0.125019752105975,0.155238321659722,0.110211738128701,0.560204071180729,-0.139567566942701
-0.244448285953856,-0.13472126569768,0.425421907327604,0.29819528448746,0.151457100668669,-0.0225850318575479,0.151377857891875,0.184879706396192,-0.0837892636229132
-0.497189014865681,-0.0882924452110331,0.020636330163466,0.0261759193362338,0.128760740181238,0.0592473361649074,-0.0685635890782262,-0.079926484450201,-0.11939112126105
-0.221781466224262,0.0450559413264965,-0.0469171441861036,0.274920211079226,0.281738488491375,0.0171691725493374,0.688085553231859,0.311467598942943,-0.1662639680467
0.0653732946088367,-0.00712206350424686,0.0340270152456252,0.0109714459040487,0.11707626306354,0.671343117443001,0.0931804727740943,0.049474677803817,0.0586468276249419
-0.0605159951780837,-0.00829973746339289,0.0748346648694726,0.031564552609105,-0.0240149228961576,-0.103123499934175,0.0284708961796793,0.678613455513255,0.0502072726001676
-0.193905445538833,-0.0272419473027888,-0.112733605159012,0.524765311985968,-0.04450197101017,0.10173494340381,0.0594014893301699,0.0543567241549416,0.0602619971009598
0.0358213551551003,0.0518378194349311,0.118958179807134,0.0801460998400546,0.210017868719592,-0.0350819354963346,-0.0710894820140622,0.606690557451327,-0.010891906645816
0.0524791140119183,0.00630160977619933,-0.0612567431803871,-0.0298908101984968,-0.112576730505277,0.049167807451579,-0.114436239712628,0.708230813091716,-0.039794958786451
-0.0847324083383938,0.0411429649721515,0.598935918034626,0.189640348900322,-0.0045316956420536,0.153495485692657,0.171479699129188,-0.0365356048647269,0.117174898823329
-0.00285393115693839,-0.059967812263366,-0.00273445889760543,-0.0408377391186753,0.0500381829370776,-0.0145271100004295,0.76211381263117,0.00496265690189219,0.0196425443003736
-0.143918365135618,-0.0782283616746054,0.0047154501731638,0.264576140972376,0.287453134312078,0.111958713123411,0.181345838091903,0.636228071762471,-0.0734288216599626
-0.362958042958443,-0.104400304433952,0.0867928552331455,0.025764663763316,0.144177031662896,0.0251418979535888,0.493742472857354,-0.0387053966847181,-0.217179097762652
-0.213791149510272,-0.0670591763533652,0.130509890005296,0.565957829584256,-0.0297223536692941,0.144504976184806,0.29087698347053,0.347245995802207,-0.323292526594485
0.0227669001306255,0.071953487834194,0.00984923106266287,0.558798133221065,-0.11327578501475,0.0526666259359347,0.0382932159533865,0.609738787105043,-0.0185916311585466
0.0247247602026056,0.00615159375822567,0.00964775081535484,0.00215857406108427,-0.0207715656679401,-0.00338542874494481,0.00762607473053927,0.706944834278516,0.0127393782317823
-0.00715145122820506,0.0150419854103932,0.714986587772001,0.00136417641749807,-0.00942478376721339,0.0146144855430991,0.000165682015532718,-0.0120750940427206,0.000388165646384826
-0.0221143978841255,0.00876254045331505,0.0228362197296745,0.546332590794892,0.0600557323943853,0.23348890958398,0.389996399404252,0.024025777757478,-0.0160924297684693
-0.665061975586708,0.00998488051368574,0.140842256659155,0.00871742601714453,0.109380996174996,0.0530373467894634,0.0799064969737246,-0.0414581321681188,-0.143498025293166
0.000344698453906049,0.00566950423447617,0.01397457227645,0.0354848664839386,0.0133842600069001,0.00430973700171858,0.0600108225039256,0.70796273345711,0.00249738300780878
-0.0116271593683025,-0.0657593815656691,-0.0030466731594976,0.528003974468003,-0.0545763680068437,0.133197914765576,-0.0120875455030875,0.325810222577879,0.0111233065398906
-0.2266547052613,0.0374470250141132,0.0764165865183461,0.0702251909584627,0.345807732515626,0.153206177332301,0.52769442485212,0.0470399334744297,-9.84540688491815e-05
0.0286435065791961,0.0361573556292428,-0.0228307871650981,0.251958692406413,0.0902597879775382,-0.00992866940746912,0.144509834717515,0.638149498228062,0.00633269710615055
0.102078958876841,0.077389025369041,0.557737918820623,-0.0452950928893365,0.0390724273344338,-0.107330260199961,-0.0601372132823424,-0.0406807667014074,0.0725069134337532
-0.128912382838161,0.0633065254862274,0.0680215175159144,0.496314242373574,0.0814466045171078,-0.00458086521461092,0.049303081749785,0.375065305869169,-0.0969148816137485
-0.193730415395352,0.106828731566097,0.0253015657637864,0.301848765558722,-0.0757577540966506,0.0112209612147698,0.112949805843668,0.588552644063141,-0.0175605035615723
0.00744762628012161,0.0710028560948103,0.146328635514015,0.303866835836252,0.0576580418807672,0.0154358196860355,0.309217087239067,0.539800867254974,0.0224361341275619
-0.134685507127829,0.0225775972721393,0.277841723561228,0.213011282060337,-0.151577828188868,-0.111059892186995,0.0546939377949674,0.156321590029664,-0.0605514218669767
-0.0289514121128036,0.0458964386973405,0.0155557670936159,0.288123190050739,-0.0423557778363957,0.500678256732117,0.064088695894481,0.0944682499229098,-0.0443843891604696
-0.147511229804335,-0.00773337064101379,0.144795150792901,0.413237898360554,-0.00420514051746238,0.0428398841190019,0.280926203064874,0.520169239588559,-0.0364462155807944
-0.1973194613671,-0.02296791741898,0.306699580982703,0.285010046429066,-0.0730953485546546,-0.00299800187184544,0.0596005261253955,0.366005454562191,-0.161881870166813
0.0109554679479537,0.0150277356265207,0.00599913721211204,0.0307979981060739,-0.24067532562498,-0.100801811179445,0.0853937062520517,-0.166176052290981,0.0473884552430565
0.0224050853416238,0.0882524130588144,0.0667504044596574,0.275458956556797,0.0342690582112112,0.595963158992378,0.0581317829793478,0.0435804625382341,-0.0570949443509801
-0.230560502037566,-0.0306605789841082,0.292826683205621,0.00791036499226182,0.219087736855887,0.246858114460326,0.11075964825568,0.0151038921073502,0.0434855322812862
0.0466161645944131,0.108076918103792,0.0133831103754539,0.0539239128656221,-0.0423512097340536,0.740251031081705,0.108675220648112,0.0878294758676622,0.090749758228719
-0.0455398108252178,-0.0942173146957307,0.0398027379823868,0.0189566107298626,0.16719297138105,0.429778976416174,0.187035319872683,-0.106405785159686,0.0550268171738584
-0.327134349287509,0.0817465373091656,0.0450329591049687,0.343622822968328,0.216736129994323,-0.128094203413906,-0.0551107908906279,0.371254472759872,-0.0502671513339484
0.0086369184561322,-0.0455133864802184,0.0826972641341068,0.237875115614086,0.0771390526654891,0.0714821468493024,-0.0985748530334472,0.141513107690947,0.137920233170375
-0.0595883201620993,0.0278909594164521,0.00013908801968403,0.257640848855593,0.0337155172427013,0.0544133741602203,0.0867812385050329,0.502863722271646,-0.0394549936650242
-0.0112273828484572,-0.0213732635583658,0.0049231842491649,0.708760760229449,0.0434519715540645,0.00622597579098136,0.00704450266897752,0.0040647425267432,-0.00875948617130588
0.0200671073987445,-0.0243935335706211,0.649642271291741,0.267286411019349,0.0849821277111597,0.00688586900547199,-0.0287839633640814,0.360221471224071,0.0175285662827156
-0.0394400110007082,-0.00912281025039246,0.431512851369562,0.00359402061827028,-0.00941709268144258,-0.0489872335044086,0.613559116140856,0.113521494935411,0.00843846165269108
-0.0948085956208953,0.0933786588393999,0.13011083973781,0.0421243294621889,0.0265806630198984,0.627287619178774,-0.0153247471112986,0.160312255147209,-0.060394313210338
-0.0141407529162715,0.111465319728523,0.0841423965175953,0.57689080043315,-0.047855340492651,0.164928710273613,0.17285129681544,0.279178150674304,-0.107810566839906
-0.47727346743704,-0.153073294927742,0.0449835499255532,0.00539940894538498,-0.0263367014700694,-0.107757348628655,0.0185472363657757,0.53737618717943,-0.22816517943873
-0.524037986986416,-0.0156784428841435,0.0205246069900583,0.153604929029264,0.0459207834293523,0.154681735569019,0.105074137574881,0.171358025045432,0.00374411357949098
0.15595157866548,-0.0238007689371867,-0.00421591544996395,0.511048984658678,0.0154446792276952,0.11381614066101,0.521938838929193,0.083625012574135,-0.00451684941877167
-0.166497679720456,-0.107128335980903,0.568453513454698,0.256293738142938,0.0543571257214396,-0.0753389333307343,0.0130714306991214,0.197568934060286,-0.0601725956567982
-0.0862550328628942,-0.0365588026952975,0.140112804710082,0.184870158404129,0.065757071247474,0.00349658093527579,0.103756689600804,0.451523586567337,-0.0745942001715081
-0.0574422529614542,-0.0165380950178887,-0.011462832596081,0.0800842978555783,0.0838499213879885,0.0422083861870471,0.44024294891195,0.0298312566381428,-0.0301348135297155
-0.16614835056111,-0.120862404670232,0.0339174529744027,0.50414657610908,0.106772965262503,0.0537069664401977,-0.0110479371433698,0.351172538029056,-0.00947432544678452
-0.36409256157846,-0.037767794823962,-0.104917293366243,0.0744286748117803,-0.0161638270271323,0.483106316060979,-0.0377258339137694,-0.0593411590719533,-0.0343477665583016
0.050813548948544,0.0492857181061529,0.508776219320946,0.243668047528545,-0.120287094561805,-0.133737759247797,0.322676102945153,0.257222622325811,-0.108633998904488
-0.0508141720678935,0.0585210871775193,0.0512222090270409,0.0375523404165529,0.0439624112658614,0.0668777794161772,-0.0225359164785645,0.708555283411237,0.0276085599543503
-0.107541254917881,0.0406913712411963,0.288187634794061,-0.00950785092729716,0.243671598954126,-0.0221222545555505,0.0846955362929066,0.579389529253809,0.145860854762203
-0.0167301465984423,0.00980322923611139,-0.0125597045270016,0.516444889425,-0.0429959212214982,0.195290655744355,0.232683682889008,0.358508151232323,-0.149307539522138
0.00121160534668699,0.0392239080457572,-0.0364425388625082,0.611989348323907,0.0290992837461913,0.0374288937639404,-0.152755135488666,0.320386395146386,0.0608613491541497
0.0656878963559054,-0.0067514486241618,0.100136281687738,0.542693155470983,0.0535308841135194,0.0180559663259258,0.265188419274853,0.148324423695053,0.084893708070038
-0.0553286734293978,0.0328169051610048,0.170491288909597,0.487987364880906,0.0534092467001874,0.0164670454629713,-0.0727999790882408,0.289873387177955,-0.0104639688593751
-0.0562724309621735,0.0302152961863871,0.0287953905653269,-0.133435648790772,0.132272290452986,0.435482846174181,0.0110514603928301,0.579399810601454,0.0998022032757405
-0.0110084065916209,0.0774841887673599,-0.0635963019867286,0.367237510016416,-0.0821207190873982,0.0671337428297314,-0.117039578914044,0.561094278919253,0.0756543075478597
-0.0214623235108534,-0.378179102339258,0.0800717477193102,0.239799652292151,0.294131180901566,-0.0964858899225079,0.159368097392308,0.136584592970868,-0.00884074817940504
0.0112878200867611,-0.0857938833758172,0.127793889712182,0.330697295183557,0.0175012696146877,0.14298428235196,0.138733373934311,0.602105535345881,0.0403985082441868
-0.00944284798836081,0.00839697534519021,-0.0308850388639513,-0.0497964847210361,-0.111761511431657,0.00691225605125846,0.0564422970927608,-0.069261794487367,0.0338944128530801
0.0586770389697694,-0.132264175734119,0.14097427548477,-0.117093989918847,0.0332256499804442,0.118266092098165,0.381431981824468,0.0458128546926522,0.0496325784161262
-0.451751605285381,0.120298562331332,0.103593343053926,-0.0721091918991396,0.154640340355056,-0.000108401821583195,0.330359121393757,-0.0141987731960598,-0.018615949961207
-0.0987086124546219,0.117779601068826,0.116866708657771,0.038893365502135,0.0857805212566094,0.251247966035691,0.2678665322912,0.462210850938066,-0.073731578568118
-0.0635435829983876,-0.0489557922877803,-0.0306175662781959,0.0427518223739576,-0.0312258114611815,-0.732841964209958,-0.014194497625914,0.0268547387531957,0.0464358290520397
-0.0843771414579067,0.0604913534858265,0.0751370879637322,0.191825016349558,0.208287892527129,0.142683979360308,0.0303311947533002,0.689508792524158,-0.185110851143537
-0.19191696024595,0.0177716737480784,0.275145964622892,0.332239924289114,0.0685322497472025,-0.062899374056015,0.493237588423435,0.263142612650251,-0.0490588908406183
-0.00669548299678139,0.0460292789887127,0.672623005545529,-0.0769293162424345,0.00610357209552098,-0.0606947878394292,0.0195927562020272,0.119745596866173,-0.0581462208031707
-0.309407378184557,-0.0458363496308861,0.00483071692125452,0.394811529597357,0.299128384624211,0.168901464331273,0.0958615481093945,0.0183453847064668,-0.184676996058294
0.0196791836886318,0.0533278277634141,0.63599816288283,-0.0155818560288839,-0.00316953780100418,0.118655523460324,-0.0184215614182217,0.197589252583754,-0.00397388790302258
-0.381535999656638,0.0413031315825104,0.113627701607121,-0.0521244736104674,0.200322985816116,-0.189882499702608,0.0297903088090401,0.110127292780998,-0.127108449421696
-0.0493329236252578,-0.00942783616697077,0.0972364288910369,0.164685639263035,0.168295920927775,-0.0426425179647699,0.671217409794714,0.0919200411192066,-0.0823307698722029
-0.200764967275377,-0.108957212858844,0.611698670084197,0.163556985568431,0.154573615734915,-0.0855861585091408,0.205628783443159,0.114202691145889,-0.17777571769494
-0.0330789910948046,0.0737192175695633,0.196778186138223,0.424637581886746,0.0552859464483135,0.13358855349422,0.0849017706700556,0.424987880087669,0.0508168565094486
-0.284425678279166,-0.025655274259578,0.255251217354102,0.144752811444937,-0.0255182788658942,0.00905164040316335,-0.106145069526869,0.491327211091046,-0.208710393360489
0.0819930258678015,-0.177513576928951,0.261326804448651,0.149310305569051,0.224735501491448,-0.133569549874484,0.574665984491425,0.0858390072359177,-0.0991799097345059
-0.107641796048515,-0.0157614688811879,0.22167118796402,0.01583116798211,-0.025995325569764,0.0764648301935867,0.664537913553191,0.146933610747209,0.0253485174711657
-0.301912570396789,-0.0259789308699886,0.124412177017601,-0.163448304838902,0.461177277197073,0.0200545000830571,0.155507683024909,-0.0115431423335542,-0.139051524330365
-0.431961345304215,0.0932236850028839,0.0496841029366787,0.0561375267607089,0.0934987334267541,0.0374886111611393,0.193333010754578,0.0280835319301827,-0.20085355999942
-0.0410758226786318,-0.0292331254513647,0.0324138734940912,0.00178351635056366,0.280581227670646,0.0180342015844664,0.464888774221277,0.0456359651631555,-0.0771195219670535
-0.0106591364860453,-0.0963339907923756,0.0268858658444956,0.645018899611277,0.0412549512320836,-0.102885727111474,-0.0352543171585468,0.239740538237176,0.0396486341263119
-0.110946104189632,-0.045722126855178,0.058536208640222,0.202694825289136,0.219795563496083,0.0434495969636315,0.530242622611816,0.22438018942567,-0.00383293676492492
-0.695600510908508,-0.0164697459636629,-0.0117918027024157,0.00298743803642628,0.042050345625917,0.00607491505291862,-0.00589627814542878,0.0176039753466151,0.0253965493243344
0.0196197899683522,-0.0470515563743049,0.272633944576826,0.0185598504165169,0.0148434828776982,0.10286324575994,0.508947823630196,0.119621581922284,-0.121617723479978
-0.0276844841252993,-0.0136085567988474,0.0781791755052211,0.118010601111457,0.055698726010361,0.0377102148730765,0.486009894859432,0.0303419822512675,0.055042157940043
-0.0436853594916315,-0.0212734963716559,0.0150829123415486,0.312672899675959,0.0233987358245544,0.130130983220283,-0.329795650202723,0.53664420826748,0.00625853873964407
-0.0935605428168377,-0.0422920775275883,-0.0132764482701886,0.451548207538067,0.0931232945882353,0.067285486331874,0.223935571609783,0.36122373493144,-0.133255136086994
-0.383086212982107,0.00879978821017296,-0.161141240707227,0.505666186335977,-0.000249286631101364,0.215212646179838,-0.153367744863055,0.324313370638457,-0.0246058451428661
-0.551646303409451,0.108481481679334,0.0730791717604158,0.244206336420883,0.00545420687092227,-0.0312865790598122,-0.162351046574788,0.356247069193313,-0.236746335975286
-0.0864380808946936,-0.0426011664108624,0.0574840122722751,0.415505760521566,-0.134915772604128,-0.0308247883759887,-0.226269653181109,0.571138186578463,-0.0316997103140563
-0.700579417283159,-0.0265363240671752,0.0454801800761492,0.0895990600268397,0.0464779065257083,-0.0400642232524742,0.0158113077904477,0.0798622128936779,-0.0837180699217594
-0.0974551480723184,0.046064368679631,0.670029448453807,0.319364708178461,-0.098356997664275,0.0365516124872103,0.218733730840435,0.135623526368215,-0.0596820369603578
-0.0623488885393143,0.00577180987971206,-0.119439061165094,0.455257625679831,0.0306146173159747,0.0676637307643398,0.144062581489147,0.38019466452216,0.0401065089173518
-0.121086853235601,0.0125048784739517,0.119142278013487,-0.0247780385293925,-0.10343277920935,0.0540650196253085,-0.170118693944675,0.59458537889896,-0.044707372088945
-0.0766330205821572,-0.0745045201185913,0.0712161949677683,-0.0398178741804386,-0.0411847429883739,0.00165249211632073,-0.0763863883321437,0.707418275959305,0.0505988857523306
-0.179573609644501,-0.079263102816628,0.413801845975431,0.0368382000370016,0.0593695301172709,-0.0249891795967542,0.0438119831843182,0.0277263918261533,-0.192657451318752
0.0745821789953175,0.0399506239427768,-0.110032778642518,0.243497733668823,0.0290008079599312,0.00652597017338045,0.0207591882676387,0.5962046732018,-0.0231801816680407
0.0238111473571477,0.0458948225073737,-0.0810088624460287,0.232692131620031,0.0534716918521275,0.159421905207761,0.20672768329964,0.61136587460222,-0.154229602905741
0.0678277298747681,-0.162170346525746,0.14133875307863,0.108610465484305,0.0523083410327988,0.21703009712183,-0.0588214605847779,0.429932296282712,-0.230251025440359
0.0603323673458438,0.0347843603379567,0.0667881644066972,0.130674349283754,0.0169925618800396,0.113438197738506,-0.106671256947147,0.670079764571329,-0.00302285122415494
-0.0766792792664813,-0.102613681555886,0.0304526634935857,0.467388539105106,0.0990975404584281,0.221594389253033,0.0804338271811873,0.490409272615776,-0.033237981458168
-0.0786355274558313,0.0395363942444091,0.373302334634737,0.257969148029777,0.149850384455699,-0.0486175271926015,0.340539549115796,0.267731521829696,0.00202132809770929
-0.387706897358117,-0.0635206852969359,0.0501362064807436,0.276225089833305,0.0919963041927724,0.157440859557419,0.283052736139024,0.168294435872163,-0.159916742502997
-0.595837643326117,0.00652501553215302,-0.108718539645547,0.109260239058015,0.100432253948178,-0.0511434103516091,0.465575197306866,0.021387083938497,0.118237377302856
-0.489385042326094,-0.0109116817879397,0.0675463360765418,0.219869809324138,-0.0149850863420271,-0.00676099770733614,-0.0521643663479191,0.497701658656246,-0.188243878559305
-0.0256351431854038,0.0568709720462584,0.0198788415022671,0.354607275701399,0.0481809926800061,0.0385547209698858,0.154168185396896,0.526132464682528,-0.101171532741183
0.00640953125698183,-0.0252145598949692,-0.00714258819315584,0.712352959073029,-0.0225471192651962,0.0153701025620342,-0.0137438964016352,0.00502564673085396,-0.00877723397715145
-0.554768721426772,-0.0590678881047075,0.0456388103632352,-0.0376062420815073,-0.0695238192896359,-0.0921567802733851,-0.0201156240397844,0.0743005636019127,-0.150272787138024
0.0276145073426005,-0.0521794639001875,0.085438079183846,0.0491377795837405,-0.0271698615359155,0.0160879502703776,-0.0321343584933447,0.682533453941306,-0.0727694413139612
-0.0830955554568365,-0.0297072065301435,-0.0404123531376807,0.289299487627245,-0.0141040839877139,0.0569004216455281,0.000114428374102374,0.626136157514846,-0.0725954322303506
0.0332524728770894,-0.00759864430762405,0.149437384245811,0.00137669875629809,0.0426865313709615,-0.00320614263891809,-0.0558010749235461,0.65312390992613,0.00184823906920993
-0.269308696686808,-0.135289677294211,0.0226320550229266,-0.0214244506670355,0.0876323900117106,0.111783594648023,0.132225823221636,-0.025049206656147,-0.260751299494803
-0.0351514448268632,0.0432965584143775,-0.00204524201696663,0.0109163406893797,0.0335811532236536,0.000663840915454237,0.0310096959273522,0.698789424096938,0.004357798223765
0.00219137340656822,0.048620413458285,-0.0276525582609595,0.0913688799934988,0.068517445145599,0.0153992713899684,0.118768714941161,0.600681042021238,-0.058383220401935
-0.024671708490888,0.0373532667467982,0.141731318551329,0.125373657019356,0.0925167210410921,-0.0389596964528302,0.0924085789700429,0.519919540906142,0.102165310631435
-0.0693219113595306,-0.10980448647725,0.0524602200294801,0.292658751339423,0.018639200984919,0.0502697529404074,0.0543475280138611,0.573511266462675,-0.0595019256160043
0.0843516546071216,0.0533260877820572,0.719344413756522,0.0273285930060321,0.0392825262539561,0.0476718220958484,0.190952579538147,-0.049286521789387,0.0509853285116212
-0.0326440297017048,-0.0135084610996336,0.195959153798826,-0.0344689361001567,0.0664223025121398,0.0818100634275768,-0.0296534963824108,0.690497235850994,0.0147437510842484
-0.312252354804616,0.0332391822688431,0.0698437126098197,0.450180095728899,0.0542152540916831,-0.00775289849375321,0.636252998091863,0.285733908659163,-0.144831565211391
-0.0285751501536872,0.083685857633899,0.639013414076295,0.0505214738988086,0.102186849450402,0.0494521176710971,-0.162475717377768,0.0918553384443136,-0.018237738131845
0.0539330502927481,0.0349054318671551,0.070609983631812,0.523741763813232,0.0682107060415914,-0.0230361951113336,0.110872984904944,0.596889951859573,-0.01754213804792
0.00524544843339555,-0.0694166469606976,-0.0421631697448684,0.300887465547808,0.0531546316531827,0.145638981532659,0.101649652049586,0.342940728942491,0.00115984887094026
-0.160082340177726,0.107604243766053,0.0298594101157334,0.0878085104166489,0.153659182610242,-0.0855146760119408,0.1719908146666,0.637251001450644,0.0203783315393318
0.0310206240992561,-0.0621871015081648,0.032027656584857,0.373183307369529,0.139107316994741,0.0377102231273768,0.227358692139353,0.467414348115646,-0.0483835974550031
-0.0872163201844505,-0.0509083679105427,0.198017537206804,0.0978681458659082,0.118550563052129,0.039258622908034,0.565961211584255,0.235327846191491,-0.108652916240562
0.0424675780464008,0.0153365425778528,0.247828614293193,0.103499999306774,-0.0470709980420997,-0.0628586662880602,0.050121008261825,0.253594567365414,0.0136094905229206
-0.13322223831208,-0.0933603673083053,-0.0645641193769373,0.215125218258854,0.108750645283688,-0.000967634745607166,0.213562899039167,-0.0586381266830251,-0.414968851312841
-0.0340580720570387,0.0145569004401395,-0.0444043637178251,0.384207215659414,0.107772602607328,-0.0111557654053342,0.0254366592438703,0.512606454323012,0.0176594929267078
-0.181594700966879,-0.0236640731547272,0.00907369026777249,0.139132649720175,-0.0885288640194859,-0.0657207267485072,0.0107660099122722,0.327461701475623,-0.133086042463526
-0.275945541714513,-0.063926547279384,0.34317806351928,0.165460827849041,0.251690368488636,0.0474625814908869,0.323085267719892,0.15770081652352,-0.180111392867891
-0.0467287499660435,-0.0508149098700982,0.00802006814167395,0.092898340394064,0.0568764113883276,-0.0307036125941214,0.133160580618064,0.707500417803945,-0.0259098489138466
0.0246150506000735,-0.0279494236706208,0.1259286063875,0.261672904444674,0.232165689360778,0.178210137730896,0.400380282560047,0.10441179592975,-0.074552055193304
-0.11030246179764,0.0200536006314486,-0.0535576652905623,0.169401130354745,0.138694016746788,0.00507264350071126,0.130509318067665,0.40426677352699,-0.0603937713709643
-0.295180619306979,-0.0314469348198107,0.106753659413817,0.568988430203642,-0.177447499027805,0.0282357334713623,0.351457297858926,-0.025804875131299,-0.0686550167725703
0.0888758959582291,-0.0376838875844513,0.025823318020322,0.622707692030861,-0.0664090973032968,-0.155273934961236,0.293582822522176,-0.00941704778009905,-0.0677807984554316
0.0661299219561057,-0.131700714222521,-0.104335991107166,0.620695290067482,0.264643390714239,-0.021586607347245,0.219976863413464,0.314529074494823,-0.0219166433641989
0.0279771183958479,0.0590375912442568,0.014722537718276,0.158893639773949,0.057898850961887,-0.0512261258743075,0.209250954753519,0.66856343855787,-0.0815880105289111
-0.0105472291648624,0.035443839123568,-0.0615150472123917,0.484462965643563,0.0538406234478892,-0.0153516815578122,-0.218930644217691,0.370121809069717,-0.0243598123085978
-0.00269756940946458,-0.00763612237265439,-0.0406307836791913,-0.0339998143339499,0.00261852741459127,0.0328133807870759,0.0362351006077769,0.705509975785489,-0.0212123261261526
-0.00375876068159294,-0.0878176719028454,-0.0230294329804237,0.114551994876818,0.0796347337478184,0.541700439298066,0.164192831731522,0.088140440277576,0.0826988306945133
-0.178152247537415,-0.148655712728307,0.0245898473408615,0.616177248467167,0.100468518475489,0.139810800420052,0.205099122538014,0.402608734311331,0.0335987898351495
-0.00491794078030547,-0.0282861953672867,0.0521906340181552,0.00303356654304496,0.557960360687247,0.131407712282146,0.302588306492167,0.0411070333512179,-0.0225155720784604
0.0803278190638172,-0.101749331558399,0.171182120585213,-0.0487259459364053,-0.0852392675508843,-0.0607521234121418,0.115374445999194,0.0740369071697438,-0.0342453074226433
-0.0695945905444433,0.0720981459464707,0.108129738818883,0.238103525254748,-0.0360961143274635,0.581351459980126,0.112814249226831,0.328195277933364,-0.0315698905587449
-0.0415347428477313,-0.0791509788625011,-0.00394130977555868,-0.0231469943811675,-0.0377766580295002,-0.00149596907215272,0.723045826658985,0.100117366095827,0.0368513761315028
-0.0439358370115781,-0.00334769941905097,0.70134581932884,5.5066911211834e-05,0.0175121970024641,0.0301341363085105,0.00502573194396789,-0.0174350860103538,0.00295451142400981
-0.0499263010268418,-0.00261587299154437,0.710004494136089,0.0134165168975226,0.0253387085900385,0.0284612295133811,-0.0188924324673439,0.0136166894343966,-0.00988853823149085
-0.41880339848525,-0.0817984508557264,0.0812737748328991,0.464018024918552,0.0159596651893357,-0.0310284232356814,0.00141679808402245,0.594998519881984,-0.0272928170489093
-0.468916900162706,0.100672150610593,0.00474393782055116,0.31316508987682,0.196058869871137,-0.0348620099008308,-0.206564564728313,0.336159304133488,0.0441550907885797
-0.0145461218442141,-0.0782840099078176,0.1055218165495,0.126984212162088,0.0241006395390441,0.0048397175527537,0.0816137246854376,0.609302942998051,-0.0473989237079867
-0.0540857436547551,0.149481439858472,-0.0283823431410058,0.0363145100751847,-0.183344204946904,-0.130707591047323,-0.12782474906891,0.704338389201887,-0.135958058248534
-0.0088505318470236,0.0289389231479046,-0.0505026278770615,0.485850642354998,0.0959116117480616,0.0522395856479803,0.450942457061985,0.178472081438739,-0.0835464803666474
0.0209604806277725,0.0229810056816493,-0.0444024441437769,0.629350196115975,-0.00440653969615984,0.185228440077589,0.181856416079521,0.232849469537442,0.113492907018948
-0.0715370237565074,0.0339366772060044,0.17248099698043,0.20861270202872,-0.058926776084522,-0.088521856193988,0.14202474202619,0.712737598003899,-0.00231227829434164
-0.0924195983545936,-0.0524352825589911,0.327061800061563,0.0509228916679321,0.111014206073776,0.0597359680267473,0.331151538136829,0.127136030796592,0.000955600603574985
-0.380913619249253,-0.0903373088364682,0.221410330245659,0.0775934157541035,-0.0611976139036097,-0.00118826874375292,0.068781726093263,-0.00284545131032218,-0.255307806109595
0.00743248574347597,0.0416137899544961,-0.00512200892712306,0.0209702631730799,-0.18138722488984,0.0739017187136691,0.192178701663613,-0.0560532402063918,0.0457523164507472
-0.115787564140183,-0.0531962171670435,0.0803606818488624,0.566171160144151,-0.0817219993558626,-0.287671853573504,-0.0710113702463939,0.281469171831297,-0.111060546003216
-0.0258125871971297,0.0737636167851817,0.256557380930896,0.00595208063227895,0.113888299747842,0.14445114321606,0.401839553860672,-0.0233489491975969,0.0321915908275397
-0.0741215618581144,0.00473556630549565,0.639547759523569,-0.080881657795682,0.0458812050976722,0.0324648890245955,0.187521320210935,0.00109229448731112,-0.139409926776584
