-0.218433871621696,0.029831070360278,0.0321598068935369,0.100123617654642,0.012330196597225,0.157639004993195,0.23701860353386,0.0384690756162173,0.0385276269251686
-0.33717477000687,-0.0567342661901353,0.238681022213305,0.221514400643631,-0.0397346212672972,0.0727973791040007,0.0165524637469875,0.282045269443189,-0.172274342811257
-0.0414941343710691,-0.0253498350408242,0.312789590155551,0.36113589357922,-0.0382552688563619,0.0337217588760381,-0.0558085444966047,0.303341059890534,-0.0340169430408717
0.00914579621689869,0.0156065384730467,0.00155813721379744,-0.00599903638840204,0.0111655953412703,-0.000899710497150927,0.0176428469388867,0.620528194339689,-0.0061085247193052
0.0464390791686424,-0.072851615054942,-0.0270906226644141,0.436656552138671,0.101465516888909,-0.0217160962235942,0.104326591988915,-0.095733649128949,0.0548248701407798
-0.0759902235855222,-0.0311013753220915,0.481644624522693,-0.0942792864676339,-0.0670324392775166,-0.0213259240170926,0.264583539734921,-0.0469867428432583,0.0580137363173358
-0.195657157691012,-0.0313738984450998,0.140166440114495,0.200777742923709,-0.0689021843195136,0.106988399018379,0.0231875512310468,0.275956619925137,-0.132556120752786
0.0374244708712612,-0.0314117659148608,0.0604815165640713,0.0551991984081786,0.0376786794606882,0.0809189673063246,0.0349218941797341,0.0803596139940936,-0.055977340651306
-0.433739638584225,-0.0603117456952638,0.517791088674444,-0.0756709119849925,-0.0671200024263368,-0.0295345513960238,0.0561392083446862,0.0347398609489151,-0.429091013176777
0.0119294312233796,-0.042306402605574,0.204547600795347,0.0172940592944652,0.0403757216353245,0.0720768921698513,0.438823000475553,0.00462713054255296,-0.039104131173426
-0.108336164047045,0.0429591817629221,0.321732472042233,0.22183422158482,0.0742433811964881,-0.0123613059395084,0.0250619739983451,0.00905857688942682,0.00946104341968367
-0.128909197621065,-0.0274949803277305,0.529050704890177,0.0731510143361,0.102521355563017,0.0777068748806418,0.0924730277664274,0.146058916580919,0.0160015200275547
-0.0806847061248823,0.0539457027758894,0.0904819031865107,-0.0391468849172591,-0.0521194869190841,0.083100401246962,-0.014324292467002,0.257677411778873,-0.013084176454622
-0.0717886621243895,0.0397074318668685,0.0430241542034856,-0.109229145418505,-0.0289773559875381,0.04261800672723,0.204971925407966,0.550980264351236,0.118846920272968
-0.539036820933552,0.0441693596224771,0.110044202259648,0.0270310641407138,0.0485293448711046,0.0507268718368431,0.00102819721749894,0.230955599268319,-0.0801319441706472
-0.605411747598088,-0.0432250329515025,0.0248103847666787,-0.111235397189965,0.173900017344918,-0.13405106900636,0.0351856007662146,-0.0641510231799679,-0.0993029733645427
0.0395522063417468,0.0396191615634293,0.0977470975295731,0.258173043644964,-0.0491441238481265,0.0304520187917405,0.00741602224081779,0.522727135657253,-0.0680595347785432
-0.0185739714299096,-0.0171234694484738,0.520291600952841,0.215531007445655,-0.0182564314849836,0.046801430012755,-0.0227324208089615,0.060194474359061,-0.0546278181817037
-0.146753962628809,0.0177877014551907,0.176312302910052,0.255175388507922,-0.124935919104698,0.0671448449924016,0.0912477713491785,0.327962060657945,-0.0518879248773035
-0.0155787145089299,0.024086700756463,0.010905905433442,0.321716117065627,0.0495783262571243,-0.0833193530944321,0.047688454286394,0.33630502770735,-0.0150959904346782
-0.195175515351348,0.0229048040580993,0.54291639050128,0.0459134933743676,-0.0269764425820672,0.0930368606943649,0.101937179779804,0.0570946857201253,-0.0376704506532438
-0.033865141970569,0.0557206004213527,-0.0487153885446094,0.481273224822386,-0.0377638884482853,0.218761143896132,0.15658954475055,-0.00406603143303174,-0.0724394441872327
0.0208867138200662,-0.0542964299322454,0.0379104021562616,0.0754372884148292,0.00220191438378107,0.115314582453789,0.218114619472808,0.355780387893678,-0.0227147063167117
-0.0923870534652971,-0.0312959585257534,0.032668959705813,0.151907129340676,0.137848997270138,0.0425353748448146,0.313462482479796,0.029766599506703,0.0304130232850684
-0.103152389843881,0.062886536075358,0.410296320502496,0.0604818574897203,-0.00449704850851327,-0.0194205372143198,0.193963615515708,0.114818699334631,0.0608932491849951
-0.207339971987022,-0.0389745485940545,0.146272518154217,0.0218909184236013,-0.109287408402469,0.00414986283769495,0.0383844605179646,0.479656841492897,0.0478091208898961
-0.0520388215405704,0.0106403586109457,0.493743140382308,-0.0506330456590543,0.123136053925947,-0.00731427187683638,0.133098535276506,-0.0696330416719393,-0.171252553458907
-0.0337584062037012,-0.0391947122691269,0.157605456621383,0.261120360361132,0.0373062312508456,0.0655226714468107,0.0285201820365047,0.103051441900069,-0.0825205384375628
-0.0105942419218303,0.0073656837076014,0.619920931593351,-0.0205020537667269,0.00481133540239883,-0.0001956655481832,0.0125949341766071,0.0108758526094916,0.0178752028996364
-0.00122946131771329,0.0144127474216874,0.169847550542408,0.0901100677599903,-0.0103911550953666,-0.0318611077897486,0.0250250372357045,0.542504495200287,-0.0144780354687592
-0.00680469991189761,0.00552332836477696,0.0011235495285716,0.192342951439739,-0.0527136023920409,-0.015427922104904,0.076101663228952,0.454035697281686,0.00846803677630075
-0.43905500732836,-0.0543664028504252,-0.0431403586028734,0.0548782635806369,0.0518245649112739,-0.0519018223288977,-0.0563605751830409,-0.00440249525905237,-0.117634715111539
-0.0100890340383161,0.00286717481128098,-0.0110853212075226,-0.00141542326436433,0.0299032824548347,-0.0282883961983023,0.0321361821628665,0.0482433225438294,0.0357826379689045
-0.0364790118314169,-0.000735456598450108,-0.133822391114506,0.333337450452157,0.153349141817733,-0.0278260889979598,0.0626750983894753,0.0365757998515061,-0.0226269683767525
-0.00679366214966411,0.00867790066420854,-0.00127568071812628,0.466677920721377,0.035102203466471,0.0372567495008424,-0.0668534005330122,0.146130981341736,0.129493466400587
0.1337553685722,-0.0253714012968416,0.219021830359625,0.38335668463276,-0.0862666867751189,0.170640226873115,0.00124197515942303,0.552523945840097,0.00727725105101915
-0.00907626560827205,-0.0270799480130043,0.278788829429158,0.130386269503716,0.0596263847018365,-0.0551575797153202,-0.0292709316648988,0.182494439774743,0.0804172714850056
-0.00840745301800033,0.00821561392848668,0.0182168866184318,-0.0130492114033655,-0.0141509808140539,-0.00345071120520634,-0.00877998903158198,0.00773979026584577,-0.620272325701895
-0.54245722582206,-0.0575822934723194,0.148097911826967,-0.0260582275790485,0.0861026916620937,0.00185408670653322,0.088339030064439,0.231616744947921,-0.0447030762756244
-0.00206143825344336,-0.0124033275077915,0.381219412799477,0.0893661666924397,-0.0776009382077404,0.0666843013547665,0.274302058727122,0.0219803537980241,-0.0118908737196062
-0.551926291819951,0.00176369487112196,0.0915820495631064,0.160881480850189,0.0599276977875567,0.0936841982430807,0.0737672813243891,0.0949289500974872,-0.0172382618913659
0.0363015499635098,0.000975781445934028,0.0604604088958975,0.270279316575505,0.324377052799383,0.00402189289622595,0.159014737563518,0.125221088543934,0.018370013115967
-0.071762831314111,0.0174609823535049,0.0709352166234242,-0.0184596486628654,0.141895788737807,-0.0320973792309257,-0.0767512111542686,0.0651121230439401,-0.479715829724955
-0.0758970145375193,0.0656276382812299,0.0362812480912369,0.109963116616674,0.0666248796348279,0.159022422880157,0.435648904356548,0.104041443511521,-0.0318289926344898
-0.0647738819733091,0.0163169098553592,-0.018640164891745,0.242530893560754,-0.0949956941268974,-0.0293914239501235,-0.0595178880787006,0.511300848242637,-0.0310713855660397
-0.035824125780953,-0.0350085925525048,0.0032124192265336,0.332385874053877,0.012358391584743,-0.00787317899662562,0.179696769623505,0.0815814348165543,-0.0283049851237649
-0.00358292787399465,-0.0284732743931276,0.550041361538581,0.128643868034098,0.052372953897158,0.0552821457561747,0.189339757679686,0.0244276980170953,-0.0252896257253454
0.00962617643209073,0.0110750208768555,-0.0040631477085608,-0.0237138824253623,0.0100401689317324,0.00442367729776391,0.00734142913909751,0.619949344034084,0.0104887121770088
-0.243843520609884,0.0135299241393174,-0.0663055526336083,0.0899641858485642,0.147459195838722,-0.00424637365668706,-0.00212145242816497,0.532965305010162,-0.0345077539112255
-0.0392713672814305,-0.069158909423007,0.0303720525898883,0.0767988747153884,0.149596743843793,0.36998676443254,0.107469318312178,0.0489800437208029,-0.0589814768477789
-0.0978608145893204,-0.101048702254589,-0.07337575976357,0.19936656142253,-0.0916859364278539,0.0815502137967886,-0.112660779569544,0.616449389617106,0.164736707870449
-0.0729436719233762,-0.0692925164145882,0.0482535392451638,0.096907516761413,0.062931245591292,-0.0226270055585334,-0.053180394640171,0.0293579649586811,-0.000853486473629143
-0.174565189057484,-0.121158568805111,0.233646291700485,0.122605233611237,0.0333233047900283,-0.138102652393659,0.136781812153641,0.166796620413478,-0.0784320819701914
-0.0410675865178047,0.00318913178822028,0.0922328180889125,0.334054281881596,-0.0398687261665997,-0.0122396373169857,0.0440818720660422,0.26835772250448,0.0824834741993535
0.053724851117034,0.0525489611003933,0.0690900363839781,0.0602841054557831,-0.0569137031723884,0.0853139110475029,-0.0824200182011933,0.633612876647187,-0.0260308340268118
-0.494532737820395,-0.0654687872287475,0.0731743881942997,-0.020174192445265,-0.0148499649702638,0.0015071402601253,0.067088757880412,0.289973032453646,-0.0791605102750117
-0.0877931093860118,-0.0610051136894301,-0.109213199020082,-0.0637774669229294,0.161287118302986,0.179472495702752,0.618612871993288,0.113161522920548,0.0198842251224213
-0.129642900007465,-0.0316590656229327,0.361995501669359,0.207137911774862,0.028149562413517,-0.0113205922862127,0.105586887105693,0.34775394205024,-0.0332378370485873
-0.0149630636658713,0.0206622368669032,0.617629941953494,-0.142590357959338,0.186708498845831,0.190739897967814,-0.0543676586773289,-0.0197681416014322,-0.0662536292580251
-0.0618270664298927,0.0663196968526602,0.0658600183913693,0.0803644382777147,-0.0427498553314702,0.636572784888036,0.0866476745738723,-0.0395585320566119,-0.0770310463495171
-0.0819652709380159,0.0948030517929936,0.12088181148409,0.175930745300979,-0.00661513679337653,0.125302225542197,0.00393572518023407,0.234404119849757,-0.0520959822772366
-0.0261568159685064,-0.0804070603959186,0.626418886984084,0.0925103842355353,0.0711929728857898,-0.0766019140736765,0.0653447708389225,0.0675437744767836,0.0817954741973824
0.0155964724474709,-0.0761965588693778,-0.0277687855361068,-0.00218961156574851,0.0128919551756008,-0.00230097570985882,-0.0153798443180122,-0.015213230430804,-0.0217470260744731
0.00520008568269524,-0.102931408737581,0.0432046592090389,0.0590916426640039,0.221372959041886,0.00369313010472037,0.532047905114679,0.00156473436142431,-0.0239560648532814
-0.0388096205835999,-0.0116264410229013,0.0559404066266964,0.0570162666764837,0.0203746008021677,0.282255664792613,0.376694606907624,-0.000377875496086126,0.0341833409762004
-0.0135646610188822,-0.0572548794077509,0.0525153304009871,0.198355674870261,0.206927694834089,-0.0179218932336336,0.0125440846946456,0.210502606081096,-0.0485420428875023
-0.137395043723177,-0.088457098685371,0.0508876451526449,0.169074843639145,0.013521402244744,0.0622000139038652,-0.0872370174822005,0.438473799774424,0.00557223076593994
-0.0289786407451102,-0.00574548739419592,0.619151049387696,-0.00347960448652838,-0.00603246138386539,0.00623599260319405,-0.0167112945208866,0.0211891450396624,-0.00952994095305289
0.0786105270445274,0.0545346848926294,0.226571116280171,0.096164674378758,0.103496211750229,-0.00946664249331304,0.229363803891563,0.236258718182288,0.00949063343115383
-0.37950477417904,-0.0695374167926519,0.142774648733272,0.245540221681182,-0.0792030191177841,0.0861239188619985,0.104894493136207,0.233877994834765,0.0207294002166574
0.0018907634842919,0.0230214041331665,-0.0019511978629212,0.00298010944006487,-0.00661113086794551,0.00753793473023913,0.00176404744672125,0.620746602871446,-0.00302957909718596
0.0571890454129813,0.0529830335377649,0.0600277886431322,0.0571399136201009,0.110161234605934,0.109910243057329,0.184239643964851,0.238220723000524,-0.15759766531388
-0.179750226181741,-0.00204201516664862,0.0348306306346566,0.184141023927671,0.402137540921571,0.0887810786474659,0.140398604981969,0.0516826164903471,-0.158974267861072
0.0703836920172336,0.0262231213701597,-0.0258901929703612,0.454320014150295,0.0376527637866722,0.358245227961148,0.18863021746429,0.399511163872455,0.0101650378637829
-0.0469599993662658,-0.0804869425603662,0.0460691177680857,0.296201682438592,0.032872267818318,0.0845226678000937,0.0498405339590977,0.397566184946942,-0.0261684819858043
-0.21807827867818,-0.0740726404810595,0.0511263873290843,0.199087957696598,-0.0725891729190605,-0.00898890189114651,-0.0537838558359985,0.298201323299382,-0.0713039685666183
0.0540858377048914,-0.136821320227303,0.623997425847964,0.176319685023354,0.079864691047581,-0.0883035654857348,0.16258980654249,0.156125247601913,0.0750254954235467
0.00860368756097543,0.0166035830772362,0.62022402881303,-0.00426502635631002,0.0128124108005811,0.00566710336132501,-0.0166394600695016,0.0120588781794842,0.00160231527845997
0.102473399810269,0.0878350660589194,0.129876789382709,0.199709805896873,0.00753363915679316,0.0505564005372892,0.0232474546583628,0.328193251743927,-0.0781987505266992
0.126578318463878,0.0681998263613788,0.0421411784888318,0.197894482584002,0.0377944855266529,0.0002849574821065,0.419775612969879,-0.0028663881725248,-0.0478437923913271
-0.0620145698797239,0.0805657040953631,-0.0667378101032962,0.638194008546154,0.032407134616856,0.0695593476156401,0.0695570440451908,0.0971152193278937,0.0839074882668387
-0.0546129156371816,-0.000679528136632063,0.0209628459646414,0.494882693632617,-0.0201559272889531,0.089908868455696,0.102722172209509,0.17963474303215,0.0115087027092638
-0.109533794218514,-0.190674531142481,0.629860460549897,-0.172294603238398,0.122471284012771,0.100741416829127,0.0556602790739804,-0.0367787436645617,-0.0211031536115792
-0.00569605809120818,-0.00202804034712019,0.618648679230744,0.00319117162974119,-0.0298228737962578,-0.0311386748400879,-0.00373078045685763,0.00579239393811095,0.0068223763909108
-0.0221867989415589,0.00368904980563351,0.619876371061777,-0.00630944937553481,-0.00805213006400777,-0.00988281894850952,0.0137838828174905,-0.0115211774683121,0.0064993393278487
-0.212397052611454,-0.045323842667765,0.0667301778600003,0.127953503715651,-0.0808494013439077,0.187886895718585,0.32029711115061,0.214425354697603,-0.0729903234418363
-0.149387303780267,0.0334638219791481,-0.0283540445510552,0.264998746257717,-0.0313792412602306,0.0814770315070265,0.258304668679341,0.484183844941181,-0.013629139670671
0.146107433685075,-0.0234266735718188,0.61481156826904,0.0522373781966937,0.0679217964033164,0.153792082301857,-0.0282325368992369,0.00993433211276067,0.180571354124756
0.0807997815776255,0.0649111951762755,0.0199634402829923,-0.065131475829808,-0.0269001526584932,-0.0591091414188304,0.281258186682131,0.331383681354374,0.013679549482691
-0.0304727351818441,0.00271274250507499,0.369400076890935,0.346387107852233,-0.00394813148660191,0.0067802270242067,0.0899385503543072,0.232820817890026,-0.0849234824847354
-0.00160909022807325,-0.0999974443532771,-0.00844600944432668,0.266482369017856,0.163599303299846,-0.0157927050237531,0.255546026432405,0.265782415999078,0.0159397669418107
-0.310023497909339,-0.0632574962016022,0.0813851137733374,0.0215036496541853,0.0125343166116752,-0.0117310719817897,0.0143552605127714,0.266683283932552,-0.142069481551197
-0.255165952082853,0.10790670123517,0.0111413575949967,0.0163711725425561,0.0192592278330835,0.024194492098974,-0.0547537706631752,0.524828237843136,0.110715867353702
-0.0453897321211388,-0.065785718723076,-0.0508139187413923,0.10015340327875,-0.0472372546989254,0.208493157218416,-0.0226151025529362,0.0958574867348924,-0.0793140487010265
-0.161214446601162,0.0116416014267948,0.561495415527497,0.0363498529863639,0.101684974252727,-0.064023898745351,0.0191032935905673,0.0639396095180213,-0.034595039155548
-0.442257833006602,0.0692773171995101,-0.00949109379074012,-0.0320266342459652,0.151994474037775,-0.0170324090289573,0.0196539963864001,-0.0218013113727768,-0.377969487888223
-0.138884663435434,-0.0600941750482633,-0.00775903243693091,0.375639837334807,0.073329055285797,-0.045641832464774,0.0380445270985161,0.426922851266567,-0.0752747832553821
0.0145794592869258,0.0232908517964847,0.376811827859666,0.0921544819373406,-0.0757378560957334,-0.0587786286125547,-0.0694022795780935,0.17184322036543,-0.0373971650085431
-0.0116645995900676,0.010210606563753,-0.0190939976541208,0.0107322196104866,-0.0268497809461463,0.0252530790420299,0.00968824620632297,0.617921023197053,-0.0129782584145489
-0.174330644396785,-0.00129119445967313,-0.0186018487375966,0.317690621353404,-0.0537751389948194,0.0443695774045134,0.0747715610546495,0.22817919879181,-0.0817796105654296
-0.136641016369037,0.145220956883074,-0.0925243798977114,0.184774834235553,0.0135602729075017,-0.00437825819909776,0.0614008582393685,0.422311509198153,-0.0764673171327369
-0.373110055313953,-0.173278953460624,0.211952644904458,0.232750184010115,0.118578506876299,0.0671628277171608,0.13514694091445,0.252533093786024,-0.179016934931328
-0.00658249979014075,0.0685012403437185,0.0403765911872122,0.192796118319172,0.0470061764560707,0.135786775932842,0.0816055185750047,0.174266470437882,-0.101348190643792
-0.166234677213208,-0.0723212864887634,0.0436859980983335,0.342744557769038,0.15099284860199,0.100574323894396,-0.00353455845773375,0.363319409620427,-0.200833539846009
-0.0884716300568275,0.0446811570711384,-0.0515711768079017,0.171174609971902,0.000998320634198183,0.0662020711090132,0.21059696483612,0.228250057246972,-0.0690255604610198
-0.0220772104001254,0.0170266268388092,0.0417122048028071,0.208107590333773,0.0829197004560698,0.106510483285495,0.0498034934767107,0.54375597121203,0.0371306550698873
-0.44841503997661,-0.060336130628862,0.108540574557141,0.00295516603399635,0.180801711462489,-0.0484967590721014,0.085076425514135,0.0144823017925187,0.0523357523347541
-0.0344430148036284,-0.0203885376790033,0.215486163778212,0.287646454593212,0.0695977653451026,0.031908156177915,0.171048915223274,0.220626969427272,0.0171827376324718
-0.167307332219155,0.115165415982275,0.23602598395631,0.194850746866888,0.107999518961774,0.00543759969292793,0.185597988227516,0.273332486573501,-0.0383610964404529
-0.048764277663448,-0.220279118220693,0.0192295913180846,0.161053500913477,0.114243910867984,0.153935545492641,0.127359500832231,0.0353406975704839,-0.0709171845362046
-0.0460586048828768,-0.0148289849086866,-0.188071583344491,0.457985289438416,0.0405405806377056,-0.0256795082578389,0.00452512858407622,-0.00876071425362493,0.0629033335126514
-0.349687333571839,-0.032480627251327,0.058849321839535,0.422370030173465,-0.42265904905902,0.0391525092607095,0.379254297383288,0.364595999647385,-0.042541928151071
0.0714376560667177,-0.0868522652763289,0.0520920178714384,-0.0136936716377271,0.510407913342793,-0.000529902993325487,0.264592138870011,0.112079229651236,-0.0575179878111223
0.0219418266592753,-0.0399642651137239,0.0218231057326401,0.218800295191005,-0.0466762771001219,-0.00616175622985413,-0.0239522927035403,0.488156498235317,0.0492412838206834
0.0182847207666013,0.0109133662814085,0.0758395096283689,0.184268765481463,0.19896611640504,-0.0984367804316595,0.00297066353168284,0.590371142864063,0.0268271750263914
-0.438614015256127,0.020337539847495,0.0519929333860002,0.0584177577811991,0.0890276242926278,-0.0105285444535014,0.115027858722941,0.0284564904239514,0.0192282261007946
-0.00440503656610963,-0.0142933858539098,0.154188575436592,0.3741316788081,0.0459221138571563,0.0593070257056023,0.065770451223889,0.459762519643867,-0.0505411174127812
-0.0697451397823274,0.0674081737917628,0.011171990976556,0.344384591205641,-0.0150792279408001,0.0187860679562561,-0.131115737098678,0.178817722459141,0.0611391776727461
-0.611320510635028,-0.0370984720611139,-0.163504118384281,0.179463976657976,0.0403048249485102,-0.111521613615856,0.132247274797875,0.00389899830087187,-0.124205406301129
-0.163543554784456,0.00555356917137735,0.000231418405893363,0.325948573413307,0.342040665179473,0.260290654464424,0.3626568338323,0.329811472198529,-0.274567743204067
0.108290084778668,0.0513596305328077,0.00989246572063932,0.00762412901091805,0.131158893918269,0.200146459632445,0.0884289385837207,0.0593924671611895,-0.0973443127725485
-0.456850245374822,0.0178041469500812,-0.0698508332509023,-0.0320316377052982,0.0243085930811213,0.0575584300364195,0.329794233367771,-0.015503000983396,0.0125043988010743
-0.0143738624351301,0.00533483539802861,0.618755315384083,-0.0154761541946801,0.00327811708700999,-0.0139896880081991,0.0177140866841187,-0.0108407947558527,0.025007042277644
0.0224416954019622,-0.0368914669838319,-0.0308302298668134,0.102143255196381,0.102866630347199,0.17147476403911,0.204746794855918,0.181898860301482,0.100706848908421
-0.00269684370896959,-0.012701351131469,0.620479985213717,0.0104622021209189,-0.0191615105756008,0.00422088445194062,-0.0130436447975887,0.0091908778863141,0.00317586394268839
-0.0647704352188348,0.0331251165520631,0.0673160252815439,0.0742606535448356,-0.0701354177027279,-0.0316444792435988,0.0746983869711193,0.631408019952653,-0.0348464340398376
-0.0538923992509668,-0.0578264131375685,-0.0623936398792036,0.660668538369468,-0.0537103441023934,0.0545450094378853,0.0602869135910439,0.0362952241160247,0.0714840226330242
-0.0717705446773754,-0.0828378768186802,-0.0348552821050383,0.172299069765784,0.0108898093326002,-0.0309535967556828,0.118298021722766,0.439130671516775,-0.0413646566202158
-0.0688002018102291,-0.0343264235123702,0.0721738593133769,0.352982106197903,0.121196157043652,0.0997120190339438,0.115020168267473,0.363501313936262,-0.0267702632386576
0.0829910536212032,-0.0938019206422946,0.215470717856088,0.19017359281017,0.0332556898368702,-0.0221906050393898,-0.0316439660711585,0.217194270435139,0.0154278519678854
-0.0629369091332659,-0.00353398926840295,0.0413163405934008,0.135556189776713,-0.0242039991857653,0.12268237582202,-0.0845555828531757,0.637449839200759,-0.12307608981612
-0.10807642809685,0.0796792384057761,-0.000890302609041737,0.19925547625834,0.0190741164413734,0.571885948634057,-0.00916679538768973,-0.0534733598412494,-0.0952816314793652
-0.401072147251162,-0.0145529119899156,-0.0588241812886055,0.0197285833012681,0.00681705955123709,0.0651536968157477,-0.0607719959494827,0.40381029997629,-0.0761715863832831
-0.507709295498186,0.0534445382174692,0.0849236188793337,-0.0376407112782907,0.248218398024129,-0.00723949344368753,-0.0282343845048818,0.0329893092692687,-0.066833052339262
-0.090722659025255,0.0376247854469484,0.142681137916971,0.18510674563485,0.0141063872318904,-0.10719153966591,-0.0786067669830684,0.625061700927954,-0.0490734652503364
0.0453596155063366,-0.0776854383664095,-0.0971684343581713,0.0348098561959911,0.10527707754633,0.1040167159084,0.0710717375774887,0.578371896138641,0.0944658029137397
-0.478199585350055,0.0462677894694145,-0.0748612898653442,0.314745833720523,0.0140892849161013,-0.179351367879224,-0.0167071192025475,0.217294468681365,0.0301259583135242
-0.0324636884102539,0.039868973340492,0.0525213430020056,0.344805975297786,0.0850285773188114,-0.0508252734339318,0.445895074127634,0.0407819301032829,-0.0394491205597912
-0.0967435709811321,-0.168908977579149,0.130464229511547,-0.0753223792799505,0.63923978792026,0.113893951293368,-0.040686172533361,0.160470452775156,0.0779644551872235
-0.027100539218022,-0.156231910350085,0.0958376444061449,0.407305899409391,0.271695622060808,-0.0456975057947156,0.00152055902914875,0.404862210964894,-0.109120782677844
-0.402168651496835,0.0230441775334707,0.0164160872016274,0.122447959676723,0.0306395643533848,0.031167750318709,-0.0107179748820446,0.281013740692178,-0.12908749511037
-0.237444341805191,0.0196840018835694,-0.0141718809165605,0.458641536211373,0.00453886382837384,-0.101787961474923,0.0315259190878816,0.38530979550337,-0.002737693496011
-0.175294891247716,0.0622165323498644,0.0109530525284573,0.0338409865616016,0.0370184449981821,-0.0697157081024724,-0.0376753763460337,0.347491413563813,-0.0350468538798559
0.108731524321528,0.0512855229229313,0.0219781964627736,-0.00983596242278842,0.449777341815318,-0.0250886360377707,0.299467907805384,-0.00075870390964923,0.0477173839559566
-0.135977505363724,-0.114749324763518,-0.0176180692847991,0.066023674728159,0.119471888466499,0.00624985649995701,0.0713841740993311,0.407848072647585,-0.149745261167225
-0.239710457358991,0.0480724552106578,0.123749888920473,0.141858821746931,0.0505740333197749,0.0445117315705332,0.0347094831943796,0.303467979763871,-0.054786276298255
-0.1160265532437,-0.0750964449630001,0.136199832665623,-0.0105899876461236,0.0390603238042967,-0.0332090237552992,0.00943396710574235,0.0234331774930511,-0.412328357798163
-0.320529438795246,-0.0017135748639885,0.234619000922502,0.0464112504595397,-0.127167631797474,0.132776096410935,0.227224799700535,-0.0539632525174418,0.0295691080222823
-0.0074025095640974,0.0213254251324021,-0.114024396422513,0.0439996188897291,0.260462600322029,0.0518894698570401,0.38531672939761,-0.00694765059480764,-0.0758088920160256
-0.0799698329094849,-0.0946772955356927,0.173634907962993,-0.0186527144188041,0.37957297621781,-0.0121999009378017,0.418329662437029,0.0233203676914619,-0.0631051919701493
-0.129511437605817,0.017684833367018,0.0686094515459139,0.098769625831592,0.0625977220619204,0.27147119166733,0.374574635399721,0.182492537538482,0.0312533447468278
-0.420752894305153,-0.379868645828026,0.0824260366059151,0.0982541104778599,-0.0306789545307865,0.0040741174745469,0.0614426984593597,-0.0558829955634667,-0.0901003020829533
0.0405951849346444,-0.0309181071096356,0.157748167611488,0.305574348382926,-0.0833816898178068,-0.133019594381603,-0.0600292090208258,0.376213178353888,0.046478670385047
0.0350010240961104,-0.0242868562284304,0.0251741440601256,0.28515616328531,-0.060900274598968,-0.000841185130904995,-0.120601956203525,0.506662268205682,-0.0813832585199973
-0.148916124449359,-0.0167368884004705,0.0332305586339258,0.0714748378104704,0.00981544908775056,0.0193395067531836,0.394350452102212,0.107301974204503,0.0978540647467567
0.063916867001729,-0.0241345956641308,0.00839514164751009,0.151095388549399,-0.0909915112041513,0.518871035611731,0.307920296376667,0.00215517676388979,0.0943634598466905
-0.106659005668842,0.0407433496824884,0.00976563494942458,0.24605512771992,0.0679359901530394,0.166145191985093,0.242389607871183,0.282586537336343,0.00848315236081636
-0.0958084818291377,0.0514395821838151,0.140650555110035,0.489758065550503,0.00071355475033552,0.0102987532421862,0.148546073863002,0.338932028486638,0.0395120453982982
-0.00504565105427646,0.149923422224334,-0.0556122531147579,0.154589480150379,0.100404353308727,-0.0378939392375452,-0.0267649253547378,0.505075126938327,0.0112900127036168
-0.055687381480299,-0.021611717159892,0.0643356258903124,-0.00524189321957651,0.109297939383267,0.309544350533533,0.209601418085665,0.0511055754351726,-0.0679471978391332
0.112661152954501,0.00427008447406237,0.0202271791209762,0.371184154895641,0.0477333458610635,0.030711011014154,-0.133976527571839,0.145773477789285,-0.0288526394021704
0.0134356821137229,-0.0134901095841905,-0.0188073040509422,0.450026267030579,-0.0574984959952135,0.00664131622079737,0.0437134429017663,0.34850418758079,-0.0864170838502551
-0.0783310284629486,0.0412122697938487,0.304414605051845,0.11628777643657,0.0379402597065537,0.060413122665646,0.131412269094909,0.474435121019029,-0.0132271868748812
-0.00978180707502519,-0.0196650033383157,0.0172689281920737,0.091872406731245,0.245691446438641,-0.00931786243516418,0.409617150904191,0.0427145439927517,0.0149193766931341
-0.0150559600864529,-0.0166185505810491,0.00981900640201806,0.209508776816324,0.0371267048073267,0.201380806795394,0.0917723617637284,0.567965353218484,-0.0296208597371055
-0.0371191339791687,-0.11441298754006,0.0563809992253059,0.114883257242893,0.0432637848042514,-0.0461395176464248,-0.21232631568483,0.559199812396073,-0.00506264317513903
-0.0161074634161575,-0.0851299615647145,0.0321054192441437,0.088041439116227,-0.116497818324044,0.0148633500529263,0.0303024616008116,-0.0367070853250949,0.00238448159544482
0.000344111350000324,-0.00830279559157549,0.621220131926041,0.0102609995565198,0.00509747946582477,0.00572610200653339,-0.0101141084017986,-0.0117873270085419,-0.00422947240521637
-0.0708432312765472,-0.0851224244704107,0.145763821043432,0.202775726496964,0.0223283517957894,0.0871124046844046,0.118600348573577,0.523711815862584,-0.139259947748744
0.00989809725750112,-0.00639977346191311,0.620689037757377,-0.000100954943672094,0.00822038223746322,-0.00481026450497511,-0.00514458767664044,-0.00600731668475801,-0.0182446704891455
-0.0236191711844081,0.0365650940177571,0.232161089485716,0.262494082753257,0.0105047175010077,0.0170761741837834,0.0228593196808601,-6.96024084417423e-06,0.00478001504216035
0.0243775985727888,-0.0475140677973882,0.159067265716941,0.201932818966878,0.00133789977764615,0.274345973462125,0.0369874643148824,0.28510504983021,-0.19749220134379
0.0964462814710745,-0.0796364127091103,-0.0461894576747449,0.215820882434279,0.0449471815432952,0.0389400547147571,0.0115619314651271,0.328986563626934,-0.00990107454899181
-0.0729328404096512,0.0938989260742155,0.121477443612162,0.194716978680057,0.0352355536868963,-0.0298323905113321,0.375673267860527,0.396543035698199,0.0197304323026485
-0.0774270895262341,-0.0193908894664938,-0.142519041278951,0.224997938642213,-0.0312623172099248,0.144025945644596,0.323542129879498,0.395081450089435,0.107027318631627
-0.214331388824257,0.0651094553540643,0.00645721825497034,0.422563738367128,0.00272078933125863,0.0370157136488943,0.0774259161742203,0.426904631829252,0.0921574600596802
-0.0392175404363548,0.050060684972115,0.011679490669746,0.105597055497113,-0.0183130517733274,0.00795693619420834,0.132115812454012,0.123190298254526,-0.018909026487731
-0.0179123570764834,-0.0147578917780277,-0.00984982946002231,0.0187673321822265,-0.00873504874273836,-0.000480106814090282,0.00701100831078218,0.619880065647893,0.0175829042717368
-0.0345809339257317,0.000555481896114592,0.114008708542843,0.154902058586436,0.245946337515603,-0.0585525051279327,0.440809326538991,0.307859962264485,-0.225874066135739
-0.0103171259287913,-0.00941272481360474,0.0639318995353136,0.0524180410400214,0.049855114828509,0.0436544208266509,0.221412119031127,0.0272480516000594,0.00891594845673142
0.0184071533819096,-0.0161288500668772,0.00116192592350296,0.0262492730999334,-0.00372685518856414,-0.0111090266701679,-0.0052547411088488,0.619347788754905,-0.00649431647453276
0.0127073456159882,0.0321143697366306,0.217386327454699,0.351054352524808,-0.0109308208217377,0.0505746180706495,-0.0713095098851066,0.483093508519184,-0.038175216448483
-0.0110429741179877,-0.0915965862482755,-0.00359484282969603,0.015612191669705,0.066122294400035,-0.0605224785440744,0.0185995646885258,-0.0425955719978836,-0.0348508248266767
0.0102717462503306,0.0270340910819923,0.544964930621084,0.0502154911796317,0.0917836814086394,-0.12375882844826,0.273410925649459,0.0340401140627924,-0.147636538076835
0.00765019054709624,0.00557023231013167,0.0188871326703262,-0.0267664177040373,0.0123061980524196,-0.000981091413759177,0.0109122438547229,0.619195708813263,0.00308324474003224
0.0576541954408587,0.187144385533853,0.00542066864365567,0.170367021529947,0.0875254725209676,0.593592925003967,-0.0278216830462041,0.082840828230987,0.0896320576680236
-0.263718724546768,-0.304000176944418,0.295570439121265,0.210673552450307,0.265332696119986,0.259494234605675,0.367727799725592,0.287893949461362,-0.295673764635371
0.0757513728019335,-0.0535694459895031,0.0649947917730138,0.331357809613359,-0.0294225569076721,0.377875095240773,0.218915688224993,0.274326189488981,-0.0690294152485827
-0.0510931359158718,0.015693516931601,0.0443374447731903,-0.0231148869090939,-0.0481415821038381,0.111716322407678,0.00828977756127602,0.502826794191077,0.0566140408756986
-0.0795969559482185,-0.133958463610274,-0.0179127088417303,0.130212414640574,0.143335448363761,0.3189835579081,0.160390134392227,0.173925921314534,-0.0807099871775104
-0.0462978858801769,-0.0525074496247336,0.132303347429026,0.0289865855794494,0.0150072207171659,-0.0207678727126534,0.0431414496570907,0.114016090274353,-0.0801219180592183
-0.0476092525827142,0.125372989406324,-0.103463616609004,0.128652310224742,0.163754354970593,0.639771706690473,-0.0130431284649215,0.103601497821374,-0.00926462454290274
-0.553636066009308,-0.0316267208635426,0.012551019643111,0.184328630219334,0.0441406880268023,0.0714847105342817,-0.00671796560242739,-0.0147493149842439,-0.106092452410969
-0.057365490813649,-0.017303475588014,0.08529430845217,-0.0385623688275848,0.0308330012432713,0.117164057238332,0.352217223189194,0.0919550368374517,-0.0538839733971764
-0.172513612169838,-0.00207422827901622,0.00135284456334206,0.226360985624955,-0.000798006305140832,0.0220792352918303,0.190349027846893,0.355890663736492,-0.0830581235520795
0.0369424051590931,0.0124701125193596,0.0674644208128046,0.0984270465250228,0.0478654163048869,0.122804001845333,0.135444641192411,0.101081562101846,0.0102140863212085
0.0539881535628991,0.0562090332947934,0.0629316859872615,0.0497098074797715,-0.0952311740279631,-0.0964184471165715,0.102572441569848,0.631598629197589,0.0912072343057834
-0.102771547903927,-0.0519551550480897,0.124381251071606,0.303430083581858,0.186422644104919,0.165616970485167,0.424580079075656,0.411860594825283,-0.216114349382533
-0.063683565755949,-0.144111050332096,0.0973597301984155,0.241226888456473,0.0934861782579717,-0.0455877335907156,0.0918957840144444,0.290840415644136,-0.165966571367927
-0.293471209243,-0.141238542687935,0.0216493416887313,0.284814599974557,0.018280278870937,0.0887574651293988,0.0174763011580346,0.494016056774835,-0.0834111148217986
-0.123903843787073,-0.0855481741474923,0.163048574244763,-0.0534384894034391,0.00587657705146075,-0.00985846322217311,0.0759728175622288,0.227656996822797,-0.0673888721421088
0.0304718695687314,0.0194267032180668,0.341961057499352,0.0173051241956119,0.0323581959239182,-0.0129464726409818,0.312994980718863,-0.0014687447827321,0.0421369936341074
0.0429156652501313,0.0177796939052578,-0.031131494899218,-0.0350011897686201,0.294071222117036,0.0167999445583532,0.0489421193975984,0.0316421432520295,-0.281181222286241
-0.0861698269873,-0.0806838891480147,-0.0260834597394978,0.187551560026406,0.158417224250689,-0.00340323165819047,0.0966089540639424,0.599237819859144,-0.0799385557907624
-0.0368241243972497,-0.0823948031225363,-0.099991678180002,0.308400240383755,-0.0693235712696846,-0.0145864496033063,-0.00391993263237771,0.256485854405039,-0.0578091117982022
-0.0199951065654498,-0.000135349068764991,0.153294115391194,0.386502014246386,-0.00534197058945798,0.0450482704676411,0.171850799437129,0.0842396586637003,0.0928407172587488
-0.158121582776145,0.0877505312210111,0.322399394948463,0.317046373648061,-0.112980338153691,-0.142913285943139,-0.0181387023345856,0.299838505809928,-0.0193137478298373
-0.057941025744447,0.0216319151034436,-0.145836560480726,0.257891357882768,-0.0204005234767279,-0.0397415059791055,0.434509171806789,0.083033681384421,-0.074210588548392
0.10538272820113,-0.105381396636405,0.0456833896237395,0.302362776362122,0.0173227115206732,-0.0820913663073217,-0.0426006109750787,0.536317971222782,-0.133688657130711
-0.125498706201697,-0.0654517602942087,0.126709759855733,0.224083730235389,0.0744093837274483,0.000896347970477249,-0.0260520546950891,0.255322637005277,-0.000782922412125199
-0.132949684270493,0.0485095655162694,0.0101167320722293,0.537931496342122,0.0749690567812952,0.0571371731475847,0.0689563761871725,0.100002269695275,0.103429289540546
-0.0764064751778796,0.0252881400658647,-0.118787987083471,0.454370758629645,-0.0212651946683309,-0.116484322228559,0.00523467968709256,0.180691448757647,0.0304208783822266
-0.105145236039197,0.0200856929103727,0.0270184740017065,0.165270875114474,-0.00255453039837523,-0.0244186528691405,0.019428916765723,0.406368775367496,-0.0468568084402682
0.00659567429038549,0.0384625229946615,-0.0105443597018854,-0.0466189252552284,0.00771301279614567,0.0340022614690027,0.111563729606552,-0.0117185305107423,-0.00487183746614886
-0.0352743158275399,0.0395113202702023,0.0600779500573294,-0.0480396314583248,-0.017056145444673,-0.013642492587876,0.0727466692016603,0.265467210047082,-0.0030443212737342
-0.0567572801252955,0.0763338280942992,0.0430230873777352,0.25028579890136,-0.0385995522510582,-0.0469324487244174,0.0410019307158225,0.416750580022225,0.0969008592818941
0.0466246239576737,-0.0981539348009648,0.0807749279839918,0.178004295903157,0.109072226208488,0.0640842355753492,0.0459861240894302,0.115130035014315,-0.0117966065468764
0.0166565389316046,-0.0234962616193783,-0.0329161453615377,0.283346866238119,0.275754428150825,0.147952583213269,0.179174803174113,0.052155187974669,0.0306779175032015
0.0636641207547975,0.0483647384307072,-0.0727190402400248,0.127185462508223,0.0970942089852375,0.128611778861957,-0.0353120658657018,-0.0302982202162062,-0.188106748661188
-0.00644023461751623,0.00435013029552678,0.20799005760428,0.32573191100957,-0.000588212597500594,0.0723552062989043,0.055687130346444,0.37527589942906,-0.0974046006508416
-0.402254723500684,0.0203973770706045,-0.0231483376513047,-0.0161853850702816,0.27932775914885,-0.00515778429687077,0.0846272847072353,0.0537207872438663,-0.0192148828912815
-0.0703896561925659,-0.0576739729587058,0.0966739723749671,0.0564021956193395,0.0879995560597683,0.0751702899458625,0.0780457110564575,0.0945824821805443,0.0202761692469127
0.0078652149890638,0.00198026416528312,0.00570433561584892,0.00779822699041047,-0.00144293996500759,-0.00269052437097923,0.00860103476144733,0.621164275721128,-0.011948306271983
-0.19372616644304,0.00744438748089486,0.0428543289617078,0.369749704974449,0.387821546734138,-0.0795041185154683,0.0994987277224719,0.351417777085229,-0.0842178122487777
-0.200754668113186,0.0472615974033468,0.350340179512848,0.0977246509852732,0.000686675108380933,-0.0561893795907817,-0.00330129215190917,0.213558940388028,-0.185828084076791
0.113630611153837,-0.0562172402380594,0.0391059917441076,0.464975554110156,0.021055721681657,0.0459723514405043,0.314118195356754,-0.0279343296820248,-0.00948831508985427
0.0158909858722689,-0.105979337836052,0.000266012450625174,0.14752957836611,-0.120165756648409,0.121818149132709,0.0563338668774141,0.47630401255977,-0.144541229559662
-0.16873005752513,-0.0931534987621065,0.315731963159089,0.239611064601911,0.117237399423686,0.00673071581943907,0.107055705060587,0.118684861125147,-0.0775360050990169
-0.414451593332323,-0.0743694363106486,0.011521200012024,-0.00413296835302576,0.0573535600752904,0.0279900432493851,-0.0207024284126829,-0.0793425013252047,-0.0910890063287867
-0.282128431552318,0.00328917605339881,-0.0155443509834159,0.295832321613925,0.290638946299812,0.00151930899173338,0.586450405580547,0.307578208529839,-0.292071493383981
0.0666785387112147,0.00171831569298896,0.0308593949284711,0.041758230464002,0.139571040892777,0.504762522610735,0.0585401279493516,0.0499695621218925,0.0605657042278691
-0.0846300408591602,-0.0440802060183301,0.098782853020537,0.0764830136020001,-0.0731622801372103,-0.10162980129198,0.0586733808558309,0.635531557373529,0.0522638363043443
-0.174722936464766,-0.0250202309021965,-0.0611070410005489,0.41384184131594,-0.0259823093887793,0.105543784468499,0.0363694507794522,0.0546201024779375,0.0260686649439915
0.0439632136001299,0.0367578840054669,0.113109270939363,0.0985079582639077,0.109782993140692,-0.0992244004290318,-0.0702066937070864,0.491865064122429,-0.0146633405747393
0.0648075172750628,0.0585838113414471,-0.0757830389881627,-0.0424713023769899,-0.07689049340903,0.0551667512068203,-0.0951913955390678,0.633152247073544,-0.0947738904232682
-0.0678836766441226,0.0348445296926975,0.455912923536868,0.179028066361541,-0.00557924603438982,0.0881716140252879,0.0489855481109132,-0.0243188330506184,0.136735900227072
-0.0188488887007267,-0.112820467048527,-0.087403615430198,-0.0508219046687615,0.0510088647632543,-0.066181657292434,0.634982865084825,0.0805219095462936,0.0780504556482538
-0.121405291262434,-0.02290253627192,0.0931669055342596,0.309674331245111,0.173969452992861,0.0500978875877191,0.0833164366472553,0.545533302694509,-0.0770011653013521
-0.304409741028846,-0.0969139667219221,0.0420449427964278,0.0195966771777313,0.105883094258838,0.0303718102439537,0.285407161467898,-0.040412328278618,-0.185289749701368
-0.255494605259243,-0.0491615341881982,0.183066481879375,0.497117922023328,-0.00979410944019923,0.0629650715398531,0.253860595008384,0.341833716217983,-0.366668313066609
-0.0289660057720073,0.0817393195806847,0.0294794324091627,0.361064751495192,-0.0755065353984244,0.0405352549384735,0.0471038878053522,0.416498390615663,-0.0359156229009662
0.0166664554432944,-0.000583417778624313,0.011544856877052,0.000533747863839208,-0.00869335747281635,-0.00229514468926031,0.00823198707565508,0.620851560044406,0.00670292213514215
-0.00248287789899329,0.0132463875987382,0.621121800659804,-0.0117920234350676,-0.00683097399953614,0.000931527665072695,0.00781977553090519,-0.00220838594336619,-0.00605654616762761
0.0174794195515309,0.0153941843781686,0.0865631596920666,0.455775220229204,-0.0192362097569245,0.153339197807655,0.188160990877125,0.0245577584875976,0.0208466117155006
-0.554222460842442,-0.00880008198970473,0.120131061224612,0.0186147786741455,0.0728798541091088,0.0260092953012842,0.0169697288415922,0.0120568108225372,-0.200661404570789
-0.00973522978014879,0.00980632770056433,0.00187112401799379,0.0197202035114381,0.0128861375474669,0.0114475471130783,0.0308999906490139,0.61925010778693,-0.00482073476103351
0.00106915387484017,-0.0075583009270991,-0.0147215611216025,0.45072476745069,-0.0153832979876873,0.0955468458608703,-0.0458241193915002,0.348267405136978,0.00576510937133452
-0.210405754666081,0.0241069012671961,0.0959298049493757,0.108129448209709,0.214668366820855,0.0935175163499988,0.283125249312734,0.0417205062509338,0.00707105869587037
-0.00618962786957511,0.0355047903864865,-0.0258525385207404,0.269340388224568,0.0579497002771863,0.00900244842687834,0.0780433281543125,0.503867100369514,0.070487128758393
0.0799519473980595,0.0556445815427112,0.455489779087332,-0.0218672342560372,0.00403058707967344,-0.0209064524207507,-0.0408576472792179,-0.00585008747948692,0.0582031076164067
-0.121331480726761,0.0604418420447985,0.0499709663745071,0.452152014106957,0.00622883284978409,0.0304320279398312,0.0249986638087132,0.369299078231174,-0.0925289055235991
-0.196839050080141,0.0743767553075256,0.0318002728017308,0.309271847576337,-0.0855639478238901,-0.0244379332851532,0.0616420921974239,0.508578196850902,0.0164289582926883
0.0212595747522583,0.104875043938837,0.107765755705445,0.304387585217261,0.0417562287374499,0.0108598626430824,0.262979484920109,0.518112716595853,0.0513073972954457
-0.0760496371617323,0.00358976272021471,0.195741905742483,0.17227510839074,-0.0988915003138333,-0.0693433445553077,0.0244498506124151,0.121697839014334,-0.0522346200282433
-0.0332552684765457,0.0375528229145173,0.00141294535536083,0.273021813505437,-0.0245640551018917,0.354971555441459,0.0118970098994287,0.02520446855419,-0.0151744782674363
-0.11987916930841,-0.0622298607732871,0.140432015580469,0.316362868254688,0.0162551576674512,-0.030994401839583,0.189673623021083,0.451841117258324,-0.0110476690370519
-0.126591033939132,-0.019025694597508,0.246625581997932,0.236376475684632,-0.0608643185797349,-0.021012237692955,0.0409717905022274,0.285859889774457,-0.130300373043929
-0.00288577590103345,0.00270191489408658,0.00351845143391113,0.0166996112923486,-0.141422680617183,-0.0855426910573548,0.0474622924500232,-0.116959603247841,0.0324225763790118
0.00867972411158742,0.0332398830200125,0.0723249318981372,0.257276430404505,-0.00981515474908214,0.409507309476046,0.0265766392537458,0.0439448211272938,-0.0616089995447665
-0.189371513677293,0.0144317160209476,0.22407381406977,-0.000877076055414889,0.144396758757233,0.116124673931119,0.0395227394943892,0.00854552248750147,0.0444014939642943
0.100865572299493,0.155731455985654,0.0156293888058128,0.0868161765100209,-0.0912968929638123,0.662193569663818,0.0796046712145291,0.174862127622473,0.163955667352997
-0.00279733863804029,-0.0852240624321562,0.0184172023027553,0.0206646423837404,0.109796392212937,0.25727726675117,0.074182759539864,-0.100852903522357,0.0669494016102355
-0.265970969385342,0.0923271398760518,0.0492859591894635,0.344639378864566,0.188016318494544,-0.0456527927739003,-0.0576686614146176,0.369644917940663,-0.0607263476530892
-0.0185995987284956,-0.0504287055587959,0.0605474497073436,0.164901949111656,0.0203707397669806,0.0525687910828824,-0.00977994663189513,0.129941581230929,0.0853142826974306
-0.0352534853089302,0.0199682843071372,-0.00918448388228618,0.197771236227603,0.0186831428271241,0.0362426039055737,0.0830372448996465,0.383292367174171,-0.0057098053825163
-0.00071233513727283,-0.0146214605945609,0.00589223675317517,0.620317080782172,0.0170536343697545,0.000583931582188417,-0.00186257365932828,0.00633155823684382,-0.0186841166500789
0.0127500196587265,0.0634721251504095,0.519144906544888,0.215341448928281,0.0345487212628607,0.0652816800984224,-0.0271297947292612,0.311910258142969,0.0629347819192043
-0.0154021737628926,-0.00170198332527117,0.371751170875401,0.0128061053810479,0.0157685862510379,-0.0351611422717734,0.409574456087135,0.0808489404243115,-0.0117411140487519
-0.121715789584106,0.0618515063461183,0.117209414838138,0.0400196237074766,-0.00429692170000135,0.541217551123775,0.00332604845763198,0.221958332911933,-0.0844395484816824
-0.0165484434166461,0.111407352985162,0.0909966365351897,0.481899165702513,-0.00943397502089503,0.0901962897166205,0.101736649944521,0.26847023923094,-0.0912955105405917
-0.341067577262859,-0.156835747997649,0.0442200065457476,0.0394383527133037,-0.039169214344714,-0.0541789819073441,-0.033914625258985,0.404769976449998,-0.159355016930568
-0.450773292120142,-0.00467604870608597,0.0353814613977602,0.105723561565258,0.0299548291567732,0.144090225525136,0.110563845113947,0.178665485120674,-0.00690411870328601
0.121689263753379,0.0136071541734767,-0.0108856555268335,0.423311904844911,0.0106038691621208,0.028952732864674,0.287345981919552,0.082348169106281,0.0358975980146257
-0.143249248613218,-0.11707344550091,0.47016153992837,0.214276005561501,0.0498213856271091,-0.0328304566936168,-0.0356595658851937,0.194087589214525,-0.0284139563027499
-0.0981039017076963,-0.0497855553174996,0.125397346253499,0.182661819138296,0.0659871927316858,0.0286483224456032,0.0540517835528119,0.376051575554952,-0.0439460873528436
-0.0241260717363386,-0.013329652065574,-0.0135992840088755,0.0660882166854268,0.0508640674159156,0.037678416687177,0.295765583651412,0.042051266470155,0.00592180770075833
-0.132638492313629,-0.127017147209382,0.030181925321553,0.408780060798049,0.0616383726204989,0.0343029224621425,0.00604424260295187,0.310260616084822,-0.0293420092028914
-0.334452957895489,-0.0984090317141438,-0.0502491973808571,0.035144792963143,0.0245068955410067,0.34258152942005,0.0522328779284507,-0.0425075634934422,-0.0424207724007673
-0.00694284449394051,0.0671101613514288,0.392237604109452,0.169253839771922,-0.0656148855740813,-0.0891093300678627,0.153152579060767,0.205649554931499,-0.0690151579781827
-0.0360794401756494,0.0595817422750736,0.0749232496851961,0.0509823297688198,0.0666722657194319,0.0668448326219418,-0.0444070744381601,0.635369000402713,0.0606063202234124
-0.108627826235281,0.00251255988150452,0.228088834207083,-0.0159246365323059,0.157445830223822,-0.00768496407069651,-0.0139549439172809,0.474947792117246,0.169690012529645
0.000776005003637362,-0.0683731052041241,-0.0347837559793655,0.481596577389859,-0.0438253566212603,0.145570719699432,0.126051568844988,0.335705605843464,-0.133164057986922
0.0165805992218319,0.0664062172188613,-0.0405456174440214,0.463324377631512,0.0324953164371205,0.0344556584601872,-0.0908460344690941,0.30976547535084,0.0418460204145222
0.0844791366635278,-0.0262757706526891,0.0910942721490481,0.46570807015805,-0.000149595915898694,-0.0368095468313889,0.199300991899479,0.146175794891896,0.107164043698497
-0.0448431708927009,0.0320537340674439,0.129031887142041,0.369584718423742,0.0386826790959933,-0.00611753485382283,-0.0555035859721492,0.206802194069516,0.043877194912366
-0.0734020720856548,0.011372493278237,0.0834042181717467,-0.153670361812889,0.113293375058551,0.297634440465416,0.00705042905997711,0.518544860017822,0.0883015872014279
0.00530006379146365,0.0861381213193091,-0.0649949228251542,0.333376635843829,-0.0775573442428165,0.0470432911468957,-0.00297345646059014,0.475917991690364,0.11158949825983
-0.0492542058143631,-0.28062452808596,0.0579160699137666,0.147631764326139,0.156289806886044,-0.0480657576039145,0.0971205508206922,0.0985578963082908,-0.0285324036016732
-0.0195652800070652,-0.0459075829273891,0.0700214400123748,0.312816369830686,-0.0360813746833379,0.080758256648402,0.0780798716047045,0.465412037978502,0.0768440859455409
-0.00779787629188509,-0.0103448860490949,-0.0338859292701011,-0.0441394725689753,-0.0436376177675614,-0.00278751425347196,0.0179248965107817,-0.0429359785092194,0.0262791593044764
0.0560549479232006,-0.105553999189198,0.115437275052521,-0.0798053878824297,0.0339871880690481,0.120588433939021,0.237905359412853,0.066244222480946,0.0349995033059134
-0.34069202388503,0.103284734723056,0.0517737651648401,-0.0612642262605163,0.0731151786835048,-0.00150181877514297,0.172765559980352,-0.016889254055818,0.00208158196563302
-0.0970323980691453,0.0684294117775035,0.0774398614071314,0.0278367227731647,0.0486619114472141,0.148261023245058,0.279891312805532,0.480784067169301,-0.0639575254722004
-0.0748939169883149,-0.0805881981822206,-0.0968600834165002,0.0475943612923471,-0.0395885755092724,-0.629528584743578,-0.0935825625852712,0.0565223654397222,0.099382838820721
-0.0830105627643083,0.0493901701973782,0.0795294192473848,0.197256489301156,0.0998873543013236,0.0653771249578862,0.0392128897104165,0.558140907351003,-0.151775048634914
-0.163204863871534,-0.0178746423291796,0.219215303628979,0.276806701313921,0.0211538920833595,-0.0699453550473388,0.245957591254569,0.196610331804606,-0.00280494141427285
-0.0143227920471142,0.0296921805337882,0.600309216531545,-0.103178875018261,-0.0269001925857674,-0.0310004556908093,-0.0211797142222896,0.148855198131588,-0.115568765615869
-0.268994062111971,-0.0989782925660517,0.0717177615928994,0.314092971193672,0.176704099292709,0.0384070483387256,0.105272913836598,0.0608749512596914,-0.219793363227477
0.0110803992895288,0.0355838864044586,0.5373798503964,-0.0170668986372627,-0.0410902733173694,0.0783832824976202,-0.0495371809370568,0.191256749964554,-0.0106357027460979
-0.296486049217622,0.00490325636688552,0.0474091221741626,-0.0329141715800622,0.0881372929516458,-0.0858113534547393,0.0441008975885579,0.0989281435140766,-0.120267866895326
-0.00711092163980734,-0.0293846123868222,0.172145799814376,0.190328395627695,0.110914746565585,-0.00511191864386305,0.480558573428025,0.0993525970721608,-0.103769740117973
-0.178528541065306,-0.0965158499661735,0.475747099841763,0.127016128220291,0.0648480167262551,-0.0207298298885775,0.165912898049485,0.0675570755161931,-0.203791300566454
-0.0700814732800089,0.0547059426716286,0.198062588377724,0.326118562274175,0.0360386709048365,0.100656703051463,0.00699588643987898,0.333248909227835,0.0136863110513154
-0.18940395969189,0.0618066717705016,0.206624469327406,0.0812797069973,0.00757692264838745,0.0048567597951387,-0.0807090128746363,0.359471269767982,-0.143515940986397
0.0392863694792827,-0.133817160250237,0.226078579380933,0.0975074268241648,0.144850198969557,-0.0626941663297632,0.29247499515839,0.0325482945353179,-0.10377459088465
-0.0756506412210239,-0.0576533615648875,0.182664459377513,0.00511772516847372,-0.00595381098590966,0.0714100684410784,0.444561146420991,0.210319930992607,0.0745232679072103
-0.243885507766937,-0.0439825033522614,0.102288805928252,-0.137897874012251,0.27715015864315,0.00784140711690552,0.0572581436297834,-0.00231255525893332,-0.108726306531854
-0.34338081996524,0.0633769175939983,0.0513759513926674,0.0685444182661388,0.0898101760511109,0.00527181939464596,0.101168231719718,0.00907405430656932,-0.211331796044807
-0.0608031659128969,0.000193981384888592,0.0372521447280633,0.0211607365781971,0.146499999737441,0.0255503208436126,0.249321142510252,0.0241013668665269,-0.0664221346287429
-0.00830285054467544,-0.0764739502256611,0.00121322971423231,0.5183720353529,0.0282188317206697,-0.0395378525200593,-0.0303161363090924,0.234762386305302,0.0539141857817761
-0.170009862787524,-0.0137935729284238,0.0433013718275009,0.205386328181131,0.186241443440046,0.0765225267713742,0.36332379625874,0.199088848973108,-0.0570352470672427
-0.620942551041093,-0.00826966648104368,0.00163335701690056,0.00910068809470068,-0.00688805226760191,0.00227355853722652,0.018829585550438,0.00961889611037178,-0.000564140621848929
0.0333910315970415,-0.0201228844238151,0.228236261417965,0.0241670404863123,-0.013810015508936,0.0932080061454398,0.332046636790856,0.12201022080645,-0.0666866961987418
-0.0487474401413743,-0.0128991687624733,0.0712362790476781,0.0740626768663436,0.0521608887311442,0.0256993895542014,0.289911910653952,0.019436804733368,0.0652937503954573
-0.0280136512882977,-0.0210632131970371,0.0376026484636212,0.28067929673024,0.0499992736213128,0.0877161420918646,-0.175197262036781,0.413050881175576,-0.00319527728009502
-0.0988216731177101,-0.00891731472103657,-0.0557325705664153,0.37352239201102,0.0698621766723041,0.0752986885214399,0.168655729997745,0.312214434564706,-0.147961831282744
-0.358575868742671,0.0363227602126566,-0.0932753673219866,0.365580232353424,0.00952517600529926,0.149642593473612,-0.03430634986961,0.206640891652134,-0.0193132065792526
-0.470243518953347,0.0710285154448743,0.11733663690453,0.228215432486673,0.0174978669016424,0.0121362419902496,-0.107811100412034,0.30436268193378,-0.249225790745111
-0.0653271163938852,-0.0921583372546559,0.0354425278235884,0.361966040624731,-0.0246295012519444,0.0542492903092208,-0.119021022022849,0.479844057510186,-0.0543781738602546
-0.622867546792234,-0.0798974262449189,0.0458110618817288,0.0810437231552361,0.0520779766547414,-0.0723590238202648,0.0495381586107812,0.0714511261179864,-0.0741908462077014
-0.121879178795216,0.0195995956206014,0.548234958826758,0.253060369722016,-0.0721810241590811,0.0222110780826163,0.110801780603908,0.0968283485768313,-0.0441239640922217
-0.0607744804904144,0.0182282681864297,-0.101450654331673,0.363836235926587,0.048021949925337,0.051704896090649,0.0874468819227866,0.331336822996758,0.0174578680437749
-0.111174206156464,0.0548435722260858,0.154824752780614,0.000236124822701327,-0.0623848679521687,0.07436467936079,-0.09698508249279,0.517487537470152,-0.00148600779143253
-0.0438127909467634,-0.098164344353366,0.0803263599505926,-0.0876161401865124,-0.0460953392845569,-0.0331767630763963,-0.125167209309495,0.635064267681323,0.0679821301495655
-0.113595198825058,-0.0499821251942488,0.320862694086225,0.0309110244632809,0.0905851745352296,-0.0347727345416673,0.0498567965024367,0.0139553714725489,-0.150226362147637
0.0408327208145953,-0.00596333458766173,-0.094582714744306,0.18978854613158,-0.00695083956448504,0.0194699932057216,0.0196963920519542,0.476693420310282,0.0155513637581982
0.0445199653796199,0.0475654927316174,-0.108118795017612,0.202495062421432,0.0136789360435901,0.11105439745095,0.132387478031526,0.470718029472325,-0.190004424026073
0.0354089900884914,-0.170673726149765,0.131131203857204,0.0376117737684326,0.0289494982891387,0.151753891406065,-0.0194052430911129,0.33809858290145,-0.177152860434105
0.0566622562041178,-0.0151118170490374,0.0818617978196723,0.127940823373894,0.0139462586383032,0.138273068617273,-0.109664222614437,0.597937226951673,0.0262394260926384
-0.0670376556293143,-0.0650519547623029,0.0485318987995014,0.39733082754312,0.0142757635678769,0.169425577534233,0.076431632603237,0.429125534615878,-0.0471652106589166
-0.0517984179202411,0.0391561308581712,0.237530931810488,0.202136227366014,0.0678981926601536,-0.0327543592608068,0.23494853642326,0.221645624749126,0.0362855416383917
-0.332434948602243,-0.0576281022190241,0.0176376709565475,0.237874385887342,0.0565680571589839,0.142355985329511,0.120208117863609,0.128899902114885,-0.147277866462342
-0.506331776844317,0.0455396027778954,-0.0872016241094314,0.073489011483039,0.0933274683958433,-0.0638687181141413,0.321617084728159,0.0372973698519925,0.0641014957679859
-0.439406442676103,-0.0358541457514429,0.0584021377451328,0.189772430215842,-0.0509688772291948,-0.00136851676745579,-0.0284140517767635,0.44318936708995,-0.191795954858253
-0.0291474295123738,0.031822122291587,-0.0229146762107836,0.352733116528869,-1.05865091613451e-05,0.0244839431647363,0.0246596270999451,0.447381376955508,-0.107977831720121
0.00280842743478989,-0.0118668906662608,0.0141108118845377,0.621034307035944,-0.00827075855838449,0.0116119069729707,-0.00391434368899037,-0.00254139150151247,0.000830871871686508
-0.436667770775697,-0.0489704019606313,0.0524449803160219,-0.00104054551698622,-0.000914560527482079,-0.0358071098115623,-0.0211799805474707,0.0914884653021364,-0.165592598434089
-0.0285335233884783,-0.0207771677058256,0.127724733793547,0.029412273537365,0.00199284415204575,0.0104432841546163,0.0120660573653256,0.583455677225153,-0.139416081087798
-0.0403223088494437,5.81017201941255e-05,-0.0465622848753307,0.275270120278501,-0.0447327791928914,0.0519551609683635,-0.0273740620358527,0.49161798388148,-0.128316395632868
0.0418193544253091,0.0243149805376512,0.167356699722009,0.00079569876814028,0.0269046538280924,-0.0370556853645256,-0.11878930384661,0.566850978647328,0.00988882111598483
-0.250053409549466,-0.109812137729724,0.0319770334688191,0.00867152179113345,0.0921739149451774,0.0932859400593442,0.0800569588464477,0.00711650001162942,-0.219489169431086
-0.0116361999740438,0.0159255515587035,-0.0063511293644976,0.00166225736114602,0.000898854314299142,0.012859910021282,-0.00266346312687846,0.620512596064152,0.0072990045094092
-0.0035503615835086,0.0523998229705052,-0.00389132276459983,0.162718180280122,0.0456938368171534,-0.013596162878298,0.116695587022095,0.550323830260806,-0.107543417014732
-0.00802723456105781,0.0220884359895995,0.121971593379164,0.125543722211598,0.0889909296822344,-0.0114723321297522,-0.00257988067514847,0.413696969874484,0.0857432933357402
-0.0588827765237796,-0.107615816898731,0.0520181305605056,0.287486069567064,0.022166501333521,0.0668937932424452,0.00869209596049765,0.501391419593445,-0.0392401520079491
0.0939380362803331,0.0776821375443585,0.638013950021749,0.0370315068426429,0.0796904537885117,0.0771653204428618,0.111676410492403,-0.0324841473817533,0.106275417356162
-0.0195055799859975,-0.00518381442292153,0.154340757520039,-0.0310805165011606,0.0455810112002156,0.139800754257534,0.023403038197306,0.58635347776054,0.060193907952526
-0.289710598272222,0.0127490848039335,0.0191052730052352,0.462484392458705,0.0799934342599829,0.0242084630665994,0.406737211150904,0.245748081964763,-0.191915674626647
0.0102688438474928,0.0669965249472135,0.527188359489941,0.0587182130004094,0.0860310951328739,0.0694340565129223,-0.0858463286319329,0.061856269413754,-0.0101984088990704
0.0429531056684938,0.0110210422489936,0.0360910752260527,0.373555476949691,0.0148501935511624,-0.0156085681319169,0.083606472057325,0.423093890976321,-0.0180671792558267
-0.0301963755653594,-0.0251243886224251,-0.0345914727234658,0.233694610647913,0.0196443546903338,0.130087398846985,0.0609664810874588,0.265144914666688,0.00647943359353039
-0.208163805302493,0.127898451385342,0.0345248605979588,0.118302242447368,0.166126657572461,-0.0286689030648464,0.118642097179423,0.57027696121527,-0.0365799844712324
0.0375881649652198,-0.0449618585443749,0.00670027907526792,0.256063264464371,0.0708522809680364,0.0505422663219983,0.117925106287554,0.350643644400828,-0.0486133284537686
-0.0282096797860985,-0.0923571613071827,0.148597870872487,0.0686746142440969,0.108475543997754,0.0659903092848545,0.330134534200175,0.200353732771104,-0.1305732321366
0.0201639282508711,0.0390122049483297,0.212914275545503,0.0709636838719535,-0.0395679749985752,-0.00765585633371584,0.0563059070299288,0.18597604460523,0.0236170693708519
-0.095310888978026,-0.0518128313994221,-0.016539923906883,0.161304467718095,0.0609691144788755,-0.0314356527402807,0.0853537424573991,-0.0490047183544611,-0.350627142449921
-0.0452500955721965,0.020431380789034,-0.0416987148848936,0.289689018093369,0.0488873535055195,-0.0357201098060639,0.0114600448025119,0.37242667987853,-2.12794188060108e-05
-0.147047409859498,-0.0023274520634783,0.0648660185685392,0.112095093297269,-0.0768222737518302,-0.057491063661772,-0.0372204808454488,0.228921002317735,-0.116875710807952
-0.228822126355662,-0.0636336846945141,0.295626694877644,0.111010536870579,0.223695817482978,0.00663425571821979,0.113096272742879,0.139884964927088,-0.169255973896691
-0.0877403818524211,-0.086163747653975,0.00758516737669323,0.0886188090873726,0.0856243197908889,-0.113800253788181,0.0588606398938253,0.628666903362593,-0.0377873738818574
0.0381083981771258,0.00656453539934508,0.0839614766363485,0.194745102944293,0.132292346187776,0.119830798741871,0.219350558567813,0.102083158896946,-0.0766211461641296
-0.0799451111296501,0.00851814064976818,-0.0319696174718588,0.134316071572803,0.0829896477652672,-0.000424122446802559,0.0422765266399724,0.299550322610883,-0.0493378175078958
-0.188101061175127,-0.025822018642307,0.057670498906948,0.399344885636201,-0.0892182354250498,0.0220574350671185,0.228025313452967,-0.0580848501729481,-0.0815486105751213
0.0590051423420371,-0.044273113663388,0.0341702662227133,0.511420374973948,-0.0809699480285257,-0.0998442846987769,0.244546689703381,0.00468590006138027,-0.0262618630632149
0.0533650452242614,-0.0914939679419435,-0.0879743246002707,0.524675623086782,0.181128184261569,-0.0307418722427515,0.0904129879445744,0.316605626911738,0.042904372964977
0.0252651012068708,0.0225725914109569,-0.000568173408047519,0.191761191395866,0.0287806882183989,-0.0720370873710319,0.128109446783099,0.557713911310396,-0.0595824713992401
0.0163214095508926,-0.0268156687782403,-0.0636410620485935,0.454512729526386,0.0364170120903544,0.0095364436198475,-0.105114504793482,0.346034946915843,-0.0705918304659151
0.0165563200334735,0.000824137327068847,-0.0202360025927063,-0.0130940970246002,-0.0131043201875216,0.0148166175499304,0.0204230255502533,0.619436192342097,-0.00438328504872397
0.0196028315484824,-0.0883702034893012,0.00193508283748263,0.107844801387533,0.0450533312100688,0.398122086879957,0.106703397752175,0.0458341921476872,0.0749633261410254
-0.177208420125189,-0.112553808548347,0.0212444044057621,0.502324940720056,0.0326361795114195,0.0140427905163964,0.0805117259978951,0.328319063907865,0.028212010516618
0.0623661464422574,0.00468526417511634,0.0362436736305898,0.0107120432260436,0.414365896511679,0.111257365770222,0.240347038264778,0.0148657971484262,-0.0236072880351402
0.0478861953933763,-0.0653598553909069,0.153723896602371,-0.0540779268037828,-0.0475494804752209,-0.0486215061492396,0.0556993073489969,0.0770038140115555,-0.0366426411612751
-0.0814511803881001,0.0388116185303249,0.100931644142235,0.183402801495422,-0.0423571886802643,0.391414371454342,0.0615384456096666,0.27607586023873,-0.0642118971333166
-0.0805984328740034,-0.0355726534029679,0.0152966040263824,-0.0463890963278717,-0.0657265000701513,-0.0354846946830388,0.500128769856105,0.133653500995076,0.0235348924348743
-0.0288714788899333,0.0142180148084507,0.618367217633955,-0.00285150504085526,0.0199589055155737,0.0198880577273628,0.00635054024962899,0.00400690149421604,0.00176081116689601
-0.0158758156409862,-0.00233668263858612,0.620439861077646,-0.00505520198678583,0.0182819897154246,0.0132117486115548,0.00514048982651771,0.00623251642346459,-0.0100464185356858
-0.307037557552446,-0.073617045438823,0.0011034937625779,0.400561354985622,0.000902566245360219,0.0276530701894799,-0.00212907292815023,0.477021648781918,0.00299815577480842
-0.357423939377226,0.0896673674267017,0.0152667795612788,0.273797775905827,0.134314437169269,-0.0235854359296505,-0.102465081981297,0.265421869029713,0.00327410846504401
-0.0755453866669752,-0.0618287921331193,0.1072478862861,0.0989536038646042,0.0527756912429673,0.00813811810592197,0.0647688493014306,0.49130168400375,-0.0306477908172465
-0.0352603763890222,0.143195477771386,0.0212208694267873,0.0150770341773152,-0.121500619553539,-0.124112372943242,-0.148868308640659,0.638270387639887,-0.129476116855628
0.0201087229804443,0.0273847913088716,-0.0483298802658576,0.401776618163818,0.0746009506434453,0.048259575619537,0.272887706917244,0.140065038707738,-0.0969942844212534
0.0310424929074256,0.0404118435816588,-0.0473126873429193,0.561587657580228,-0.00436025661390439,0.128483493109718,0.133503213450568,0.251773393200004,0.0999878058639135
-0.0603695967351649,-0.0329921894992255,0.128946167014925,0.186143138839508,-0.10356790714192,-0.0753533133439238,0.144351401526044,0.573154730233055,-0.00395528562615237
-0.0753770578285821,-0.0230889388355408,0.251077103914033,0.0346563032646827,0.0266145253969309,0.0622731016537791,0.162796866639158,0.0982598085724915,-0.0135812597720647
-0.285550625400388,-0.0419105385238942,0.140740977737534,0.0319670697847062,-0.0456998826026373,-0.0133629847145899,0.0311970428182617,-0.027772848308502,-0.2061028702953
-0.0119873368230241,0.00139100779999029,-0.0220434849322523,0.0272413747258792,-0.0967219449837355,0.0360292326263517,0.12414912647344,-0.0186174389559743,0.0469597971806376
-0.0919684878218799,-0.0688609595856884,0.0230141397329232,0.487805778300707,-0.0195243157554917,-0.181444771723837,-0.0329176183598212,0.257603288336411,-0.12501605562771
-0.0374875848957663,0.0205597353510153,0.198317554248081,0.0236629243517356,0.10665013165388,0.0426485041538412,0.227475495786181,0.0208328165098316,0.0291718702574747
-0.0912999430945747,0.0171659843384092,0.498647769834449,-0.0638509551077117,0.0331810346083004,-0.000960380735501969,0.111702705283678,-0.0200741182964574,-0.140758727494609
