-0.999930893433014,0.990351959077427,0.00223908828520196,0.999569565503168,0.00262189160860177,1.00209895237931,1.00514342783887,0.0012666647686169,0.0023396513299537
-1.00517625679153,-0.00485510017283238,0.999658858537959,0.998689027380521,-0.0039578827595335,0.00139145987420913,-0.00332112751250613,1.00447761087397,-0.990354673149682
-0.980080823400066,0.00175563855434118,1.00023137465135,1.01217347481475,0.000859512727471549,0.00205341226144918,0.000941666356965871,1.00485438026604,0.00440939231510579
-0.00333954871337767,0.00029285753167172,-0.00219491696842095,-0.00852628932053889,0.0100691254518678,-0.00789394590042641,0.00888875086979561,1.05422507177616,0.938050224349361
0.00411029746983479,-0.00446565150023693,-0.0042723330494551,0.999175216290487,0.0122559468170494,-0.00431359389477043,0.0061383596834946,-0.00799288848250527,0.0111227335125331
-0.00493631697961611,-0.00334898393235268,1.02171683600587,-0.0118611248317259,-0.984699278448511,-0.00674850440580232,0.99143807641918,-0.000508783611699261,0.0129164742003672
-1.00065864492543,-0.00401180199139911,0.992234700634215,0.999260255724447,-0.0046031190263141,0.00586334738998938,0.0028672565632244,1.01044284988877,-0.994525690005463
0.0165306206332764,-0.00821298176452579,0.00862913300306132,0.0178792924991433,0.0105365743176344,0.0229056797587052,0.00831109637845928,0.0213253318997175,-0.0106631686883338
-1.00352508266063,-0.00561057781596018,1.00659705956835,-0.00977241778309667,-0.00512466980602548,-0.0041613393877923,0.0023930361983011,-0.000878378132817011,-0.993236200340356
-0.00124194962208259,-0.0128554509576825,0.0368087338276169,0.00130998883118017,0.0066338127000079,0.0140979491964654,1.00021103182065,-0.000471715637533717,0.00351807904932645
-0.00627246589478562,0.000579179518297334,0.997712392840735,0.0194880237832673,0.000899814216994147,-0.000555984005415831,0.00218589257896675,-0.0008366579735479,-0.00316092073881408
-0.0181679552281832,-0.00982542133464839,0.999665035702738,0.0119108856079412,0.00497349190659701,0.00869657396322097,0.00859058227679176,0.0143273032450522,0.000207601764248898
-0.00355320945954011,0.00105051622046359,0.993134547979139,-0.00329869255121393,-0.00299355728133827,0.00319694789792981,-0.000910697832293896,1.00404305102019,-0.00066742035657573
-0.00699502645774381,0.000953091470898993,0.00343589085107061,-0.0087991966875031,-0.00132964769738001,0.00278941872051783,0.0106464131297469,1.00092949886505,0.00917097144803449
-0.999610798476463,0.00609307159475774,0.00840048064300384,0.00448650213824885,0.000780495617818654,0.00608010648539436,-0.00256923507401025,0.0170970989789495,-0.00518236282006246
-1.00080874263738,-0.00603720479721303,0.00730279626419609,-0.00626844470699725,0.00947905952215877,-0.00853205849281618,0.00123033785276235,-0.00159392284092545,-0.00706020163673247
0.00533326846153871,0.00658892638744346,0.0108546329043118,0.0237776889196544,-0.00747281289976191,-0.00114090854225433,0.0103726840191891,0.998846621899592,-0.0156021242847988
-0.00254326700707746,-0.00567286864782752,0.99970628064365,0.0131378194235935,-0.00227045986252454,0.00542484921395394,0.000905680753279995,0.00569081550525469,-0.0100674875777528
-0.00950310595375506,0.00168179948157153,0.991887412139125,0.996406793162083,-0.99956152654876,0.00278756145622437,0.00817566157787332,1.0102502568279,-0.000845869059863828
0.00121001702111139,0.00162111750206064,0.00872355052574365,0.995236464968933,0.00154849049118128,-0.00387800745215103,0.00361180699781098,1.00473500522436,-0.00541973130347809
-0.0136706361903159,-0.000912457458231441,1.00031414454965,0.004699516900196,-0.00392941460438047,0.00939875891395036,0.00886413741700816,0.00191585869925346,-0.00466881346005016
6.35263165113903e-05,0.000194421785968064,-0.00325136922883093,0.998619659922529,-0.00329004620746828,0.0180993854616351,0.012961677795795,-0.005948324920786,-0.00763714335105964
0.00191967934948769,-0.00723587366643413,0.0011924887418203,0.00578291453945744,0.00338642607373571,0.989665866389222,1.00120901199924,1.00739777707,-0.000523105156985638
-0.0205931785704335,-0.00993333095404214,0.00359194008696962,0.0289316922578087,0.0233015134881636,0.00872774985789668,0.997270565606659,0.0129276532138356,-0.00237875022389632
-0.0137724708702543,0.0023419036766464,0.998154981053365,0.00473381393813869,0.00103240227949165,-0.00338320171602559,0.0181920913852084,0.00784820430672905,0.00634318553658811
-0.0183625052016474,0.0014921520293541,0.0150188230106225,0.00393702819752946,-0.00916040729992257,-0.00170963160578855,0.00618213520533224,0.998920548579706,-0.00297133973985135
-0.00171577986567667,0.00300597985510758,0.999754067645212,-0.00344917446191378,0.00490476889783077,0.0020476177287595,0.00353077357075083,-0.00709812876738613,-0.00665169547297883
-0.00346892256187765,-0.00111786236495078,0.998650854738576,1.00559714714023,0.00201690339664516,0.0031542763502284,0.00095732639754693,0.99292335190065,-0.00777370016784546
-0.00238688887985163,0.990406129416723,1.02376836629589,-0.00725913301937984,-0.00120274755887801,0.00054027233596289,0.00179691778646358,0.990156075480892,0.991941178614572
-0.00432098433685587,0.00481932086644956,0.0100616831462766,0.00853475631182491,-0.00150331890401624,-0.00380004459609119,-0.00134139780820645,1.00048894165697,-0.0031855665458471
-0.0023186103521672,0.00625436974223612,-0.00180227050169475,0.0189878421417247,-0.00464412268057161,0.000703912321433875,0.00522464093291654,0.998861420030907,0.0042084514145016
-0.999652819707871,-0.00330499702923906,-0.000676044929606647,0.0111197554567505,0.00758174676727224,-0.00340480587902755,-0.00410314540190103,0.00210533316872157,-0.0147365787271476
-0.00184619100751559,-0.00405100983565657,-0.00178706757963952,-0.00331426428989506,0.0123214612045292,-0.0039631305771231,0.00659245251856681,0.0126547988534042,0.0156709229263114
-0.00950329538181916,-7.91334989297961e-06,-0.0153446828620734,1.00896044020553,0.989239691374332,-0.0016467809899744,0.0046967755717918,0.00574687669248051,-0.00137056815628029
-0.00539379845004817,0.00362133551779026,-0.0005896530222996,0.999200509419035,0.00425266992411094,-0.00076562898944705,-0.00149212773483348,0.0174719551481836,0.0165851519834224
0.0102016378928834,0.00817600099193764,0.0337284101884093,0.98391627527878,-0.00895324157510827,0.00815720862193061,-0.00725287288676173,1.01417209456772,0.00962153057671667
2.04316039331873e-05,-0.00206997905157611,1.00785966844674,0.997080802497911,0.994420885589206,-0.997179795634364,-0.0019637427559776,1.00086186302187,0.00500275376083988
-0.00174206557531686,-0.974676822084298,0.008576511902452,-0.00084267811747944,-0.00393872589000987,-0.000136709655116079,-0.00142709069913104,0.981736788259715,-1.03871331075133
-0.999331972512554,-0.00240644868093852,0.0133937457495615,0.00415239459319845,0.00589090796656,0.00400635597570245,0.00587481357230797,0.0225785325424149,-0.0117051125019776
-0.0037152465575722,0.000892708609431981,1.00446636564517,0.0101860990933058,-0.989435899575016,0.00147769873720557,1.00414557807169,0.00737323710185447,-0.00265446039238115
-1.00008052628122,0.00172106518374064,0.00534086836079092,0.0156755389148005,0.00260310920258691,0.00421771513161119,0.00595016323205675,0.00752548426174238,-0.00753368070751081
-0.00297345031719362,0.00602161178481788,0.0127026052905095,0.992007497889245,1.0113835351007,0.000445359842583009,0.994686705358098,0.0137754825163569,-0.00255882506698967
-0.00520411131410303,0.00239096827807321,0.00744638577700637,-0.00155495923060542,0.985129801456771,0.00255136450358827,-0.00475720624133423,0.0108508529245009,-1.01510531308129
-0.977855018772392,0.00395383216446198,0.0042835829873743,-0.000577424931156323,0.002049582152168,0.0122968708546283,1.0190803745149,-5.8816454241157e-05,-0.000777024635607169
-0.00608788757932911,-0.00302874549452404,-0.00799132626591561,0.0102821332806199,-0.978570616606243,-0.00415614866272574,-0.00535507260706987,1.01940986843359,-0.00242781824978659
-1.76836129450051e-05,-0.00878440840810723,-0.000390057423689755,0.999563518807759,-0.000828713272611181,8.39758892626874e-05,0.999015493604456,0.013415044240453,-0.00460898484561055
0.00136601192173496,0.00419164873367426,1.00036755422635,0.0086558704925493,0.00459386038619692,0.00720436351318434,0.0119223308339032,0.00631468518163913,-0.0059290900411636
0.987667374505004,0.990200030138948,-0.000506629559646805,-0.989196389539468,0.000861589981491237,0.00298378616471976,0.00139520825286951,1.02917508590274,0.0061687784337499
-0.959247228635819,0.00724365665267074,-0.00194301160034302,0.0181218256238904,0.0076122298688587,-0.00311554307808256,0.00255414317122095,1.03795891508095,-0.0029978659522683
-0.00640400773522247,-0.00462656679380786,-0.00133004658906903,0.0100009633557653,0.0165283429266322,0.998871825985233,0.00947670084168245,0.00902053766125234,-0.00622483654430586
0.00222704990678722,-0.00843982249575328,0.967679256393008,0.0160349387571177,-0.000670301371148978,0.00367675574409638,-0.0145945141868103,1.02833991917308,0.00415263769195637
-0.00191304723242829,-0.000993668187717981,0.999019300526841,0.999316570093666,1.0002249953763,-0.00055604756847933,-0.999309647606272,0.998622480533647,-0.000460283795557337
-1.002558924653,-0.998072100258325,1.00353680885594,0.99941039286793,0.00128007272518375,-0.996228154090147,0.998668034598134,1.00343540019329,-0.995193784518299
-0.984250495847093,-0.00114438938638917,0.00503964206622278,1.01039063172785,0.000162620380147939,-0.00127305442147849,0.00351232980296327,1.00252376265742,0.00441568637459926
-0.00519621464933992,0.00139963033990673,0.00259635735319208,-0.982994610146202,-0.988974190254222,-0.00113129554586268,-0.993972705787913,1.03047434398419,0.0032593377810843
-1.02310696038965,-0.00622389651927398,0.00978671767874928,-0.00820385648749495,0.000205082240753613,-0.00637296405456223,-0.00290567315872969,0.975311348179971,-0.00645102199643611
-0.00154581866100505,-0.00140759520700038,-0.000623451582262207,-0.0023969458378385,0.00063124070333644,0.00167031833208743,1.01484482482469,0.994195181503939,0.987491925402291
-0.00749293361159455,0.000661096227655475,1.00884069055434,0.991944020674461,0.00633083774694894,-0.00166278670224215,0.00916429737678442,0.997478149582429,-0.0047725173488757
-0.00367998769548414,-0.000489791190864364,1.00113926421767,-0.00912525585534325,0.00811295935457492,0.00956771205899915,-0.0022312484855895,0.00488401873947555,-0.00767278235894846
0.966269623041739,-0.000228214013534615,-0.000278638508487892,-0.00586226463022614,-0.0013129964868467,1.02984394022171,0.00427842453731278,0.00854182782170527,-0.00589475528520698
-0.00510860041827091,0.00778342372339105,0.0106998052691098,1.00163545469651,-2.62294644438708e-05,0.997417501001335,-0.99501957292042,1.00302506209149,-0.00420533714714494
0.00119073441915241,-0.00202416613380692,1.03812668328944,0.00780595954662764,0.0081116971996216,-0.978978389976338,-0.979360750561242,0.00186543582456355,0.00149837888722453
0.00750493790899197,-0.00993530067245747,-0.00491403733078179,-0.00119046613005544,0.00923496665821953,0.00186045235355967,-0.000342159354698723,-0.00300969740470035,-0.00550715514261814
-0.0048338322069414,-0.00739921560282612,0.00252502346563145,-0.00128805984033263,0.00468569714701443,0.000303061747555278,1.01506205866359,0.991294983091605,0.990184965659858
-0.00791755620925161,-0.000853067296778935,0.00486136246323456,0.0123626005983277,0.0064141717383611,0.982968778235178,1.01569804443082,0.00699295551021115,-0.00429522889169523
-0.00369671500105643,-0.00107386703633349,0.00416821259778484,0.999836156446746,1.00398701984723,-0.0017564566670058,-0.992940110446032,1.00045396732897,-0.00374852441060915
-0.0129626529441731,-0.00600069236315166,0.00210612549457285,0.0174911807212403,0.00226105401804317,0.00148577166870918,-0.00580254866483484,0.99873184473162,-0.00214128215472328
-0.985538583605518,-0.00409678238790698,1.03005008060075,-5.28332421423782e-05,-0.988579590287307,0.00174385092030208,-0.992685230661659,0.00390840721612374,-0.00155686875925666
0.989672524609488,0.00406268296141975,1.00338472940194,0.992608445558617,0.00688909437271156,0.00200859140798897,1.00824051132244,1.00348202908275,-0.00147173679163007
-1.01134802922742,-0.0074119549349501,0.0119515757163426,0.995729640972788,-0.00246245509364535,0.00658616357911755,0.997586281207461,0.993090415714468,-0.00182180698485756
0.0021977861185917,0.991095396127357,-0.0014763259594344,0.987622971144393,-0.000921901802143971,0.992189650543883,3.05783721307576e-05,1.0255036390331,0.00144079658534848
0.998162527526646,0.995644053317771,0.998127394660542,0.997640525847757,0.00266563496697006,1.0000429061064,1.00342791680941,1.00460700972942,-0.999040552259763
-0.01657024646264,0.000578581074164344,0.008140764578917,0.0226714313242377,0.998560326835252,0.0112707456742737,0.00328141259358841,0.0065793925188158,-0.0145252346094963
0.00637320635957057,-0.0021425803864846,-0.00373146879375241,1.00258565425517,0.00967942846901854,1.00366485257373,0.01827083074728,0.993825404687799,-0.00395443940423879
-0.00330258824300387,-0.0173840840110996,0.00855089331451586,0.993609848891764,0.00287867747728617,0.00783079264837838,0.0054160281593856,1.00550845522351,-0.00752452248250247
-0.998107060106214,-0.00920607926181856,0.00694205590796392,0.99376868182167,-0.00254019477201422,-0.00245999491143028,-0.00349698008964902,1.00585286131548,-0.00271919678504593
0.994951003374746,-0.00470199408713288,1.02059966343553,0.998120695355832,-0.00180440601913544,-0.995032164238387,0.00290198271280355,0.997593338840141,0.990258131785673
0.995939262182802,0.997780817699081,1.01834011566073,0.994239657217348,0.00136581222729378,-0.000847238864059324,-0.998763288776324,0.998355203647767,0.992899702800497
0.00870230697847127,0.00894308761833922,0.0095323361491391,0.988792612548413,0.00382213027563839,3.70773878220515e-05,0.00355154919633092,1.00865963290999,-0.00601675900861161
0.983951712184107,0.00661899303412014,0.00574769090659313,0.00808747783407979,0.00155188976481901,-0.00439293335307798,1.01306313313797,-0.000138392088824008,-0.00650901366775338
0.00260687322850845,0.00722388187360183,-0.00595029931898582,1.02556743563263,0.000133435283096529,-0.00155005424483402,-0.973987211465439,-0.00502544734718004,-0.00573317414279602
-0.00649337770334373,-0.00544154658904387,0.00373462508521072,0.999571909838895,0.00182684793964096,0.0127471458480008,0.00428303381978771,0.0171277389906981,0.0011018024580038
-0.0110079414862631,-0.00227924238240155,1.03557485726777,-0.000882510954024382,-0.00155444096846238,0.961718975251354,0.00594635630009779,0.00532090740820216,-0.00272213018687741
-0.00191097104242794,0.00346776179219065,1.02521340154745,-0.0055359264895403,-0.999375810747121,-1.00134635253936,-0.994299267560982,0.990941562461017,0.985275946747977
-0.000942773889413346,0.991220166234263,1.02687863148101,-0.00302970480641378,-0.00297774938509542,-0.00337878713201971,-0.000659364561609041,0.987866719895644,0.990115495976827
-0.997808758325059,-0.00354565985357699,0.00268667681949864,0.993421781428776,-0.00488230501728366,0.00984219509176994,1.01057222240954,0.995547132257469,-0.0030856074635795
-0.0136439645593715,0.00751127911664539,0.00232591297127938,0.983570678380071,0.000516850374256344,0.0106150012540567,0.991716276126392,1.02248811418158,-0.00672098897946518
0.0107305491288444,-0.00473461432126589,1.03314787720943,0.00384570980001097,0.00458028734735175,0.00528393076248046,-0.964495174374093,0.00114752708139067,0.0152121109250671
0.00705748543473287,0.00923919511383328,0.0115323515968427,-0.00856321099663741,-0.00118228234750492,-0.00559141525591087,0.99573921984134,0.052067231967297,0.0101184351856947
-0.00553538984877871,-0.00538795396796615,1.00413042026306,1.00189865853032,0.0015402261149089,0.000932277816899831,0.00923460809556977,0.992232225157607,-0.0165966691938969
-0.00214207608669648,-0.010400582467903,0.000110402379351887,1.00389243294177,0.00600955579196802,-0.989098232831626,1.0028230252827,1.00158891962755,0.00045423182077593
-1.0018647775531,-0.0110484351624645,0.00966545471229084,0.00666634629599872,0.00411268098717492,-0.00114111423872687,0.00194757083974955,0.995742779268682,-0.0178868586728453
-0.0241188596087822,0.0113284394259828,-0.00205621126208683,-0.00420698774518191,0.00454354159490641,0.00157992076771697,0.00132549170973594,0.999218792451798,0.0118169411893897
-0.0171698111375618,-0.00445796083458404,-0.0125601761510166,0.013149313884045,-0.0135965865981051,0.053733056330044,-0.0023266347161983,0.0233205636849368,-0.0178290153655411
-0.00969482158432424,-0.00352786978982738,1.00050501504139,0.00529338106774405,0.00490838140692145,-0.00702254555038396,0.00188497032786979,0.00421090986551624,-0.00100632136278233
-1.01528795784028,0.00977895403927397,-0.00215847036430531,-0.00778541787285979,0.991305951598721,-0.00328377360131592,0.00197162914392803,-0.00755636572350492,-0.991576760996989
-0.984696923976721,-0.00435828750575075,-0.00721305467958083,1.00455100696062,0.00542246036676722,-0.00517268672709618,0.00276978823086928,1.00901693842013,-0.00840719187696892
-0.00126218578917543,0.00773215894362591,1.01064865045571,0.00454052431306817,-0.00179871329131344,-0.986829673263956,-0.00224536945733281,0.0133989766786608,0.00192149168040089
-0.00151058982064403,0.00501182954018235,-0.00487891275919517,0.013951048310425,-0.961601963436988,-0.00227394941021655,0.00231729406354248,1.03664383203969,-0.00512347324464954
-0.992816685810368,0.00247925570776314,0.000250832398803572,1.00745669152173,-0.00405943471835851,0.000627363080768026,0.00113523447441771,0.997219342244634,-0.00515044618215958
-0.00986469788247018,0.0191145824278877,-0.0128262463414312,0.0160447771847285,-0.00382225038660565,-0.000721217541930759,0.00716174658142607,0.998471944158409,-0.00464900446379603
-1.01382106548717,-0.997427520071001,0.998180065457984,0.999407569151625,0.994935441916833,0.00412400960326744,0.999096327455752,0.998681302127191,-0.996075942735141
-0.000941876883861631,0.00351320763255327,0.00349023926091708,1.00165771661966,0.00402884851695066,0.00655475455534603,0.99689458909645,0.998811985338176,-0.00557073686110855
-0.991799909219328,0.000475415790077145,0.00411292886312303,1.00594586167444,1.00065143876845,0.00381541785746934,0.00325538961248218,1.01110730348789,-0.988021032462545
-0.00813598003629432,0.0102922572011207,-0.0108492826782108,0.0260620348600888,-0.0048014219145604,0.0114535999961069,1.0063306371492,0.991024651030537,-0.00670719351035732
-0.00240550856964944,0.00792784027766677,0.00280714006918404,0.0164239769804666,0.00273241839389521,0.0101599241116292,0.00349501237205584,0.999922041791819,0.00543877663815886
-1.00872307681927,-0.00287578413810221,0.0112734517952841,-0.00103466138248563,0.990264687513837,-0.00669875254006614,0.00662245477729359,0.0028928241703641,0.00230800674985616
0.000845605288029488,-0.0026740558107182,0.997896371168382,1.005681279273,0.99256162886471,0.00378773141237124,1.00076431899554,1.00080388168198,0.000758370597372742
-0.994928711799663,0.00488337187825291,1.00233296708413,0.999948558060587,0.00646488030561597,0.990664794968966,1.00301956838425,1.0064327130859,-0.00403359704627007
-0.00228697208898087,-1.00058359859943,-0.00222396948383022,0.99785722421754,0.99932715741247,0.00641395223198907,0.999402634361735,0.00371524051940066,-0.00543313959845035
0.00268675077377713,-0.00289582047554718,-0.972209338116912,1.02600298706728,-0.00155880315531375,-0.00704045482243153,0.000693178689453864,-0.00141885753330898,0.00912469602909089
-0.98878192168821,-0.00616774262428386,0.00678286053748849,1.00334927362908,-1.01230881040886,0.00865994475624642,1.00866069991264,0.985339998703508,0.00244563180318799
0.995026718075162,0.994272674037893,0.993923180561109,0.00499028917211038,1.0131884839074,-0.99706987844587,1.00250433372431,1.00059073570102,-0.00311733063425684
0.0014535342611053,-0.00239427699232387,-0.00282524054358407,0.00889898265201163,0.00199062461156375,0.00282831286250471,-0.98511824102602,1.01302454832662,0.0040160270798699
0.957963577552345,-0.00260385487514288,0.000990545685345844,-0.009682120590048,0.00114341197457142,-0.00530254771148707,-0.000925563165805914,1.03816963843276,-0.00298480548283144
-1.01222013216803,-0.00508690138131834,0.00936898003905388,0.010367255263882,0.00460065818893341,-0.000182546666045284,0.986013041425841,0.0082466954334616,0.00830654433750884
0.00366612607078174,-0.0100462238124766,0.00897772029287626,0.987535840960984,0.00937770722406795,0.00642007287270565,0.0167940806434193,1.01301667267208,-0.00978699636858693
-0.00261015286875823,0.00331684858873197,-0.00346627829960031,1.01219818062267,0.00041692988703458,0.000947959381770066,-0.99807780767099,0.987679118785428,0.00636104026514133
-1.01881036441605,0.000508809022902653,-0.00719270370002854,0.0153197576773013,-0.000509252465655276,-0.00613574546030309,0.98034432140135,-0.00454900760303175,-0.00787222073461921
-0.0165502272672982,0.00538030463272208,-0.00659991191173209,0.0197186514124604,1.00667742249753,1.00840017143225,1.00495343949177,0.997134170524276,-0.981146711352839
0.00657719893076335,0.00511492424751993,0.00216291354706019,0.00159297152556381,0.996969686165515,1.00026473774675,0.00411061675136525,0.00681758324268281,-0.00852295485914694
-1.00062132074133,0.0115852669515098,-0.00261766357473871,-0.00846902578894496,0.00778233785306875,0.0101945516908627,1.00002806245351,-0.00361778583549419,0.00205598829970158
-0.00369866975257871,-0.00135474686344326,1.03369974462193,-0.00795055693451806,-0.00221046765007799,-0.977198113905293,0.986297090926671,-0.0129414433792045,0.00533038880284616
-0.000617413932848043,-0.00351001855810346,-0.00531863600204151,0.0141928691309844,0.0111539467358935,0.998267938947231,1.00745469916,0.991707060362918,0.0115221291376665
0.000734831292427894,-0.00469086423818785,1.03352178229012,0.00153354828107341,-0.990137400448969,-0.00011896377587638,-0.993096371662036,0.979596779043677,-0.00107530345946014
-0.00436424219408702,0.00330279171364428,0.00547610403787623,0.00372930537721187,-0.00367414517006846,-0.00229037776940203,0.00197983185725243,1.00304991430558,-0.00410597784421495
0.00207250913434744,-0.00309485774255929,-0.00920615491784185,1.08666547767435,-0.900293580309688,0.0178626306882688,0.0173400957382942,-0.0166516365544155,-0.00943782599139615
-0.00455785080109755,-0.00583716205747558,-0.00538316781635753,0.0238811368454761,0.0027349517117466,-0.00133132386384713,0.0122800324995203,0.99844769368094,-0.0028285127006021
-0.985454109823338,0.00106223612726806,0.004566034564072,1.00819599777064,0.00746990696049959,0.0080502386489595,0.00989606401807812,1.0034705601285,0.00405938541879936
0.00658796305442872,-0.00525108487767852,1.00020042708046,0.995865211835022,0.00393255063854742,0.00309187729355456,0.00146948073426293,1.00146250782155,0.00025793881925548
0.981964123871669,-0.987428624014827,0.00350957425487808,9.55183567744982e-05,-0.00336903850249336,-1.64282131804266e-05,-0.00749474957204933,1.02679780576546,0.00331267505396749
-0.00995710238498465,0.0070038019670285,0.00427953775376902,0.020662408957378,0.00371182125793057,1.00103330707962,0.00344128988460773,-0.00441724914596877,-0.0115049654469284
-0.99037054730029,0.0102789111658134,-0.0114368486831785,0.00953659118080072,-0.00128040672911333,0.0136624058194508,-0.013643927791698,1.00930264451819,-0.0143406807210293
-1.02602664876216,0.000558637858080111,0.00636737353548161,-0.0155442671023165,0.972576367380227,-0.0078110744895595,0.00329697505625441,0.00643423287775366,-0.0238719532344208
-0.00610086560215699,0.00260874876013641,0.0139363614340828,0.014836721022335,0.000459569125011756,-0.0145731279663111,-0.00547015436452082,1.00060384936768,-0.00665361356967148
0.00304976979334909,-0.00565814095203705,-0.00731680188312096,-0.000598247190339212,0.00460520467496639,0.00673624022951034,0.00251162668157712,1.00054480822236,0.0101978931551366
-1.02008870008851,0.00374640194416403,-0.00707485827808392,0.987233189971401,0.000995435561562695,-0.99263807272686,-0.00373607287208772,0.998030763114828,0.00180231005412002
0.00274969115953562,-0.00188424954198776,0.00539262520464745,0.0358907024881814,0.00989884730026802,-0.0108320486195706,0.998354350396825,0.0193061630754549,0.0041794722520647
-0.00210254828682979,-0.00300606225312872,0.994111117261146,0.991513065892649,1.01599771092309,0.000617778562511109,0.00205000834292364,0.994793563664762,0.000939265163221604
0.00137653267059809,-0.0124739304115271,0.00565844041864434,1.00896111035325,0.996444858720521,-0.00361285196411454,0.00241001352721561,0.993461204656894,-0.00806570406744876
-1.00547250652306,0.00863920410583838,0.000176337125710716,0.0164896066406357,-0.00528575453502363,0.00444523167513997,-0.00257944631999541,0.993242336646791,-0.0158564156676892
-0.984339797093431,0.00145745174157164,-0.00435743436422944,1.01077843929479,-0.00379685152124311,-0.00565389433943435,0.00213884191909346,1.00352882225581,0.00554813849676133
-0.982620554649552,0.00444692750256098,-0.00434346201151776,0.00126968726514615,0.000413711225371692,-0.0029158048927546,-0.00758096029280136,1.01512146835921,-0.00246285420125296
0.0119293585182788,0.00488758579563827,0.000665745771760763,-0.00112171799721914,1.01269809041645,-0.00141928986169045,1.00281230123912,0.981522654402724,0.00777780277262138
-0.0110722144453994,-0.0090020692044303,0.000840228154797401,0.00497208114976266,0.0150763514171086,-0.0018061188112434,0.00918262568126946,0.998102348361671,-0.0167465300253767
-0.998498365733343,0.00645219007533836,0.00911436730965499,0.993894130657407,0.00204659429274916,0.00276066690208593,0.00520804650613314,1.00534022224491,-0.00259129905769131
-0.0102276364840177,-0.00575228104688344,0.012837865955448,-0.000321983679069725,0.00714148630779763,-0.00341373219398065,0.00098047927581236,0.000625227471441696,-0.99839934384861
-1.00793773335831,-0.00248853493138145,0.997169770083332,0.00115344891404167,-0.991052774550068,0.0081910814709242,1.00233606063641,-0.0044131368249832,0.000971107352877529
0.00785841722497835,0.0026354160696429,-0.980466444749132,-0.000794530532774534,1.00247686432141,0.00531223339577069,1.0145459493277,-0.00643028283078855,-0.0136160248690824
-0.0267390357092843,-0.019030832928047,0.0127907372834018,-0.00573761946291471,0.985499677383662,0.00496191935552028,1.01327264607709,0.00658115202175274,8.49224487357937e-05
-0.00539548292552455,0.00444857013921383,0.00646005602386246,0.0133852297046293,0.00588058185860354,0.985582769001824,1.01257803142476,0.0224540760069212,0.00868727961834907
-1.0025783870579,-0.996428249414218,0.0118621276874008,0.00921816139499225,0.00301643664441331,0.00020293287951205,0.00510945555165729,-0.00935707401789968,-0.0137457147968939
0.00376580350767137,-0.00349125374241089,0.0108893693101507,1.00168412093599,-0.99190577433306,-0.993141271260113,-0.00273041399302834,1.01124764028063,0.0100285103438606
-0.00276456262885299,-0.00823941069786428,0.00276120998316285,0.0278452507629247,-0.00342101519288833,0.00304417594001989,-0.00984549933130959,0.998532423175117,-0.0128686776554715
-0.0283759817665196,0.00136786882061455,0.00252407143643255,0.0185023984360128,-0.00277609534259054,0.00187459506994261,0.999394232705781,0.0217412920125236,0.017268109480586
0.00287867886425243,0.0170601813625831,-0.000147255025145287,0.0149048972688597,-0.0127524480708776,1.01451246196529,0.985200840877042,-0.0147829038294666,0.0108622374481291
-0.00845971871371581,0.0049488241127188,-0.0018900751475735,0.993052455930874,0.00539167874708283,0.995235170980452,1.00914558018685,1.00063741888577,0.000805775012977025
-0.00778657459289159,-0.00156818915635453,0.00855788456226109,0.998418422958404,-0.0012149715150047,0.0027056569792797,0.00429527329506579,0.0270796270860966,0.00164611193410496
0.00329588467820658,0.0116602407751199,-0.00155325443466658,0.0112520755546457,0.972588769583529,-0.00657821997894282,0.0013388564861996,1.02518874971351,-0.00227497183527424
-0.00483930110382766,-0.00781263188281557,0.011572854246122,-0.00274845945774595,0.00525980873332398,0.999347471715415,0.998441949143265,0.00943714626044858,-0.011322857158549
0.00667910731098525,0.00285090910819456,0.00685662350697335,0.998493761663579,0.00153824924744625,0.00266406355867696,-0.0112629320899487,0.015027898221162,-0.000582991009343218
-0.000194032912725231,-0.00295436964026156,-0.00244725531593487,1.00664000886033,-0.0029197537793365,-6.06627328611368e-05,-0.00411905123578532,0.992289738045749,-0.0186002864724642
-0.0119477113514137,-0.00962585735861182,0.978172956865035,0.0143052700366425,-0.00112757063561007,0.0221902950104759,0.00843988188427435,1.02050803517866,-0.00299691397361526
-0.00561474372261047,-0.00247837005833519,-0.00315005813107632,0.0125682501495675,0.0230405941798936,-0.00020282258808921,0.998942341048402,0.00810182710895056,0.00900790393552593
0.00188154030952144,0.0029155782294159,0.00119695028307636,0.0179090920418485,-0.000666469971520844,0.0132020775765966,0.00507665541046921,0.999563706783509,-0.00533802704846911
-0.00353858298460214,-0.0115702354414451,0.00849258921030084,0.0135317039712538,0.00499489840473847,0.000190560555083564,-0.00908808976703259,1.00003743998035,-0.00892043535177763
-0.00739299147105867,-0.0117763936427822,0.00865244259957803,0.0103202463726938,-0.017045464800443,0.00380166255375287,0.000146967458594675,-0.0110150540079335,0.00348408646079674
0.973779566286005,-0.00546852350463398,1.03620171138149,0.00205028586402864,0.00132412459846179,0.00776494007271079,-0.985680900957837,-0.00626099325009664,-0.00288002880113312
-0.0094711011460042,-0.00799005120603549,0.0193564096041224,0.0199173171239254,9.30078744985811e-05,0.00409323547644363,0.00938810791413658,0.998377370648831,-0.0157660294725868
0.00617424790232905,-0.983416865123581,1.03005977553099,0.000556053612022224,0.00401846993684293,-0.991860542275661,-0.990927723100265,-0.00341178580021306,-0.00593534802679052
-0.00170636230035125,0.00608712321479894,1.00435209250477,1.00480710862776,-0.988063426532596,-6.77819383941517e-05,0.000123313994981626,-0.000309784842370919,4.57870976820299e-05
-0.0009428049916121,-0.0025841657343369,0.992883014279278,0.998734318631462,-0.000845000428794826,1.00550566223256,0.0026367392843897,1.00171469595689,-0.999132282158957
0.0105175626253896,-0.00695595377160075,0.000104979813487145,0.989012129122396,0.00227887108319382,0.00584901917481559,0.00285839971847791,1.00897934859668,-0.00303377885286751
-0.0059088768501594,0.00746571330431161,0.0121730615601898,0.0156089183041132,0.00169626854712497,-0.979658248921904,1.01007038149891,1.00736500211553,-0.00156081750743295
-0.0017701636723321,-0.00380646442809707,-0.000389763529994865,0.0276809924054314,0.00290682903411375,0.00811770256818333,1.00772849031707,0.990083938478813,0.00816727099711248
-0.986967867131568,0.00484831081417672,-0.000843426902742606,1.00288525935503,0.00315466260357901,0.00302519515113365,0.00437715256009342,1.00869889799819,0.00992629372369376
-0.00105530727997305,0.00375913404671669,0.000631873799117512,0.00648041974339657,-0.00129086545318087,2.20816446401642e-05,0.999819184808193,0.99711984510164,-0.000680247381899381
-0.00978441205228551,-0.0102384337903295,-0.00162664588673963,0.985525471969152,-0.00273554121545771,-0.0025867543868311,0.00386479219984177,1.03377769938365,0.97675184259005
-0.996048026030352,-0.994543907208133,0.998893649251122,0.00266645464608777,1.00281807500841,-0.994313155384918,1.01175085928662,1.00488707790331,-0.993733939789433
0.00295374315205464,-0.00126667761280892,0.0118376871629923,0.00748631205574235,0.00596166364225204,0.00484344038296895,0.997946537702015,0.0027022593541097,-0.000610168972713012
0.00937595749512932,-0.000539380519659497,0.000263120990181705,0.00398013955433478,0.00470174703664496,-0.981376642691327,-0.982016887853653,1.03332000297904,-0.00433589130073615
0.010848434850184,-0.000560491628251947,0.026391524130253,0.977596028007701,-0.00232409994550179,-0.00834354567153978,-0.00468785089476258,1.02063187903327,-0.0160210537346238
0.00169508885037325,-0.00493286854042729,-0.000884760021408456,0.00186750289849482,0.997029891055857,-0.00462573667930766,0.00135217525726947,-0.0034503048312927,-0.00177446960318865
0.00430926718912077,-0.00433261920059951,1.01994983081646,0.012501351367255,0.0135908012111114,-0.00377339370936777,0.978950343704127,0.00850905406662207,-0.0153036805730698
0.984693768780952,-0.00629819144930892,0.00641698128579975,-0.011071525854504,-0.986365815367413,-0.993105480355354,0.00122368521585738,1.03158389637304,0.00136755406577313
-0.989260704953055,0.00800970661073633,-0.990136857061369,-0.00182118049023195,-2.56488254406922e-05,1.01948482490936,-0.997763287916311,0.00452305950611291,0.00222046626292901
-0.998292209616309,-1.00182213207715,1.00257648357608,0.991973706759932,1.00149746099545,0.998382831570123,1.01149668799798,0.993403512773667,-0.999118819079229
0.00153404966278989,-0.988102587849351,0.00358836528291999,1.00933551763385,-0.990088342272408,1.00688105279615,1.00276042258416,0.0111796362324196,-0.0041366809211784
-0.00758377689049302,0.00265016699994522,0.00250362931868911,-0.00530530912273296,3.33122525370978e-05,0.00722105351679108,0.00250050224356618,1.00047403439639,0.00828697070073745
-0.996806112556748,-0.999458021900708,-0.994815006448313,0.998778952186541,1.00140052941843,1.00849891734988,1.00234895891868,0.998724216952263,-0.996130830739862
-0.00149852624930197,-0.00294408287993828,0.999942785308457,0.00185064376533924,0.000217976329718709,-0.00164749767664062,1.00028597886302,0.999088288026376,-0.997477451655211
-0.00757416516006723,0.0102813413316243,-0.00827794078434419,0.0074723208924913,0.0118829166572425,1.00312800806041,-0.000601300554637326,0.00865247406963105,-0.00102281066807427
-1.00052128315494,-0.000966254087746234,0.00333071845013788,0.0156635667400727,0.00034370428531661,0.00672030756974419,0.00270684988154027,-0.000899251632038037,-0.0107578073335045
-0.00335570944914617,-0.000365286437907615,0.0139331929892014,-0.00772389673749532,0.00520066855951195,0.0149623172702831,0.998545185643553,0.014862190467963,-0.0101687433101396
-0.990253005422309,0.00198781287467952,0.000775009017197092,0.996449126140693,-0.00121437817944255,0.00411020056220887,0.998306394798153,1.01255250081253,-0.0113393094127431
0.00186803130850813,0.00254916189126026,0.995716169801967,0.00529009009320064,0.00234820543253154,0.998062593382056,1.00315475482579,0.00571706733392875,-0.00184085259115448
0.00774219399639425,0.0068863937663107,-0.00762575688377993,-0.00253897430462008,-0.981701682214133,-0.977784060769244,0.0142303038663397,1.03723336827721,-0.0056526633674543
-0.988546331168334,0.000671537143113493,0.00834135767062178,0.0174450992181971,0.00524480529932357,0.00868619549086102,1.01050950173685,0.997837838267512,-0.00978895270546644
-0.000960357534241131,-0.994004826952958,0.00610127443704513,1.00407762738095,0.00156752917183085,-0.0020747021996101,0.00548076056632329,1.008441106149,-0.990766507353351
-0.98945591010114,-0.00711625268350165,-0.000818434512686057,0.995318533345154,0.0035805157579026,-0.00168925182409,0.0016676224012599,1.01431106341235,-0.00477901630828616
-1.00089853107801,-0.0051035726694048,0.998984452329032,-0.994876165389629,-0.0011265196209752,0.995490364454724,1.00057415900856,1.00610847555139,-0.000295864987027453
0.00597409265814841,0.0078627880927812,1.00358670460295,0.00789251911675925,-0.985734854557197,-0.00232011622864479,1.00806117646083,-0.00513324347956399,0.00526026739023922
0.00400812390201512,-0.000599058543952757,-0.00189175893579961,-0.00349451366765161,1.01004020316033,-0.00132288004714195,0.00220371510936349,0.00437238955243574,-0.987968025192095
-0.00809902747422698,-0.00452096944540991,-0.00235342774929933,0.0166542177525581,0.0110555692623961,2.35081248023656e-05,0.00716832814521692,1.00086422913859,-0.00860777829699957
-0.00446548445249659,-0.0051678525165354,-0.0052486562563888,1.00125486654498,-0.00270192237776499,0.00332224884360247,0.0012082038899825,0.9969087804742,-0.00258424524834195
-0.00255309238794763,0.00815749959398178,0.0149959672821502,1.00601422361131,0.00179299817286875,-0.000495142277286074,0.992690642546038,0.0104315676105304,0.00834799576318845
-0.986665441970129,0.00285749993834082,1.00672016109395,0.999191356429285,-0.00659928844144839,-0.00485206965067929,-0.00544674967514467,1.00547405929235,-0.00660052111909255
-0.000785784859115621,-0.00327114977833981,-0.0154424521009686,0.9720732136182,0.00357558225231327,0.00163783245440336,1.02533783314298,0.00682652171092965,-0.00845100061796794
-0.00394743642373522,-0.00978160948787161,0.00280185059124287,0.0269504864975492,0.0106288245209847,-0.00495901752478337,-0.977434174201849,1.01971719240047,-0.0104769263818393
-0.992806826814333,-0.00391904334941416,0.00769249809651757,1.00012100056344,0.00499421576510194,-0.00118493890995862,0.00305710870595533,1.00436394047657,-0.0015404447212046
-0.954898838543126,0.00124644274163549,0.0110609342263565,1.04092959368331,0.00447378268889212,-0.00401097411935909,0.0126206880361188,-0.000449443921298473,0.0140460128434548
-0.00143707932150019,0.00410290737375265,-0.0092555993333009,1.01374167357045,0.00422097725640785,-0.984220499971028,-0.00098224207611481,0.0120730125697238,0.00254551076507701
-0.0146098445842904,0.00583862499217171,0.00558698000554449,0.0200881785447993,0.00199875495731418,-0.00715310694664688,0.00243442646278203,0.997982798368415,-0.00510569013336617
-0.0021142315852347,0.0044418124181172,0.0017392667285971,-0.00557993106750691,-0.000386956630900282,0.00492578854681722,0.997341774226785,0.00235975286044436,-0.00202403540627029
-0.00272413450166703,0.00526114990114176,0.00603327295031034,-0.00344282377427004,-0.000985381117167841,-0.00197571649772562,0.00349412095317614,0.997895144540733,0.000973298908855
0.00335385741993295,-0.0017345316171123,0.00394605754092085,0.974569238175068,0.00141580987134295,-0.0037538034571234,0.000179958231274594,1.02326045787061,0.0182791962455707
0.99682248471428,-0.00234426529899294,0.998591044740721,1.00107112535093,1.00067060443926,0.00132389847104273,0.000503648903273276,0.99962464655159,-0.000748975406153416
-0.00152328349916192,-0.000478518238100809,-0.00308271362605126,0.995916463960702,1.00228904817899,0.0102927158406217,0.0149379835948678,-0.00141576656316351,0.00342230011019438
0.00266471775512077,0.00211771140930463,-0.994111264044464,0.999139191176405,1.00185562285544,1.00128583266131,-0.998378751279213,-0.0016105647846123,-1.0022500909245
-0.00212517821957571,-0.00351108644420703,1.00024912384149,1.00084978062575,0.0030531270543224,0.00334651911556564,0.997277764308974,1.01177401122523,-0.987272141641744
-1.00898383107061,0.0037117558225374,0.00219175850420832,0.00261448400312902,0.989921359359938,0.000906423467572941,0.00742314372543982,0.0120344931504127,0.00242971209837977
-0.0200225054571437,-0.0122936132270527,0.0289195642720138,0.0117496607831679,0.0223924266668981,0.0132335487603054,0.0276382565967815,0.0235174816606101,0.00473989764708778
0.988469726317824,-0.00280103692086721,-0.00205550629131586,0.987561496198194,-0.000955290245753011,-0.993277306259403,-0.00107143907560002,1.02698159388622,-7.28870309367121e-05
-0.987183861675538,0.00717690070148534,0.00903727219196726,0.991974193677921,1.01676364356158,-0.00243270666336634,0.00190343251639244,1.00227383029708,-0.0124386552233833
-1.00032893333118,0.00181069794516968,1.01039816884319,0.99472563707569,0.00144231157508617,-0.996060521026846,-0.00104667642429014,0.997436686661202,-0.998237234900397
0.0135274142673845,-0.00370545103305919,0.00133210346093263,0.995895890606895,0.00503536450060022,0.00481451461399,1.00390428673123,-0.00158838547844805,-0.00595679490792181
0.00332357656128544,-0.0159483020010469,-0.00260850156527616,0.0180275522015974,-0.0095909431290775,0.0103453752289131,0.0025298474258548,0.997999409338971,-0.0142573703895856
-0.998002713404903,-0.99226211497082,1.01198336671711,1.00300242055401,0.00461779934084152,-0.00037248660462722,0.999171640021267,0.992998971695927,-0.00529594857974418
-0.998810918036801,-0.00605966240020214,0.00126693874429624,0.00217614683840084,0.0069576787134746,0.000674287023449518,-0.00258907468926125,-0.00591918102610172,-0.0118813305541768
-0.985193134222747,0.00967061121303185,-0.00109091897168845,0.015303159266732,0.0112166068864206,0.00177057268936896,1.01127271150303,0.0231245643873853,-0.0136302504759029
0.0118552536768421,-0.00400500846407813,0.00672669513252607,0.00648608099040045,0.0119362625931943,1.00084860230066,0.00568462441382875,0.0090333414071612,0.0101559665761639
-0.00396276851467428,-0.00194692199200854,0.00508673937611928,0.00224782549720677,-0.00214207413050362,-0.00445889772294636,0.000890397995752633,1.00223824594461,0.0042169865060391
-0.0161744597277063,0.00322458909725586,-0.0105882725130908,0.998719784991484,-0.00211891045938236,0.00301244466505596,0.00102391594883392,0.00519778515441591,0.00417089659113003
0.00167786263784156,0.00944377947966009,0.0130667928802408,0.00789224939648807,0.0134890057491093,-0.00349806831525191,-0.00368394462192024,0.999715725196779,-0.00201961451015131
-0.00187013199212785,-0.000267883568260807,-0.982411090499405,-0.000395107564678835,-0.989838925948361,0.000175380609590012,-0.990177025275888,1.03380903311854,0.00404774762799417
-0.0044994000019193,0.00304957158067968,0.999591422111056,0.0145823058654961,-0.00302166368320889,0.00711829432407174,0.00530949833460203,-0.00430746654479304,0.00753839414281028
0.00134694641011104,-0.00193020715113451,0.0008904041982459,0.994457055413963,0.000129529213618744,4.56777463356669e-05,1.01362184641779,0.994329413101801,0.994052675223042
-0.0158425295552141,-0.00163327538965857,0.000932916580184805,0.0283360333729054,0.0152975919525541,0.00615790430504111,0.00613252091450527,0.997672857483733,-0.0112108465279489
-1.001524499458,-0.0102310117366054,0.00170788350994234,0.00263940747406823,0.00577146387581354,0.000213582746160768,1.01037417229027,-0.00203337475884347,-0.985824891201146
-0.989936174698083,-0.00308643382847234,0.0104809570267901,1.01460666929163,-0.00180634443939758,0.00433790837675078,0.999111604109261,0.997438846142299,-0.996978824737125
-0.000399952744089291,0.996201914600385,0.995698643498542,1.00473613847987,-0.999776076648162,0.00066245234623651,0.00108882778528733,1.01115599165828,0.989127855657351
0.990987211675633,-0.000928476436148861,0.990478384018699,0.000168113937588419,-0.00130941854643644,-0.00113361373157847,0.00134469069234697,1.02775590008534,0.987078486649087
-0.00166533126956954,0.9958029569434,1.01755293386307,0.993652110566814,-0.00201368199512641,0.997352654895595,-0.997420809272147,-0.997007271214873,-0.997515288209356
-0.0039281174139513,0.00154954896154998,0.010489405369402,1.00405496338272,0.00268888270543274,0.0189280070512768,0.996045116884717,0.00535046203499785,0.00340699202145866
-1.02731985426977,0.00729333161573421,0.0201827278776375,0.00107819897916127,0.0082307907176214,-0.0022331818811715,0.970264090880194,-0.00375035147025257,-0.0058985562103751
0.993624046039311,0.993597079393125,-8.20813341148896e-05,0.998584370875472,0.998725932466357,-0.000398300070419628,1.00212418292191,1.01755086348,0.992048504772091
-0.00164253919453283,-0.00380328129591665,0.00438651514414152,1.01429498964693,0.000624646283662386,0.00938532244937561,-0.00085605257587204,0.984342053726165,-0.0025317253705667
-0.990250218889107,0.0036623415260861,0.00893806202055315,0.00509534804052635,1.00154181653142,0.992308303237755,1.01346414020261,0.00341264805240156,0.00448452462807435
-0.00323294898767524,0.00390410308389781,-0.00456016596648906,0.0120010479476053,0.00153063525685088,-0.979529695415595,0.00207637119528302,1.01837984209218,0.000670103991539951
0.00902643068012571,0.0106949984821292,1.02422602924734,-0.0088007443953185,0.00248055823784103,-0.973505721847111,0.00368354257760765,-0.0101921619980961,0.0020376794559895
-0.0126999522983935,0.0044510852775414,0.00722178777801718,1.01257887039501,0.0088931961012316,-0.000613832306256223,0.00283900295053405,0.98582588598135,-0.0130385859629137
-0.976748069294813,0.0161869723582804,-0.00301551318398704,0.0171717535483566,-0.00455920377740707,-0.0021417638683133,0.0023806388544834,1.02015809417754,-0.00526536558076608
0.00334938626900386,0.00850281799299901,0.0168223554507139,0.0301916326468712,0.00677348454979632,0.00580869688364788,0.989307481750562,1.00826093456917,-0.00055448177238171
-0.00629750948165524,0.00175843413240746,1.00135711274096,1.00182337759703,-0.997496677517731,-0.00251732460157488,0.00109343122576728,0.996393680264531,-0.00468118824488564
-0.00342288541082422,0.00491323641211343,-8.87538957198974e-05,0.984559574158308,-0.001072519961386,1.01326693642111,0.0035776377560762,0.0133383414305087,-0.0022238738576465
-0.9817446109906,0.000664921455096607,0.00756912021649058,1.00341948223706,-0.000765418616446505,0.0033805393777273,0.995132744337411,1.01722858304619,-0.00290042820825377
-0.994398370978092,-0.0027840507058708,1.00203593855392,1.00271098138931,-0.000931323571625265,0.0014319195129151,0.000528652123077409,1.00868897595821,-0.989761449865312
0.00207867894175301,0.000409998401493717,-0.000228008862436987,0.00196806358924795,-0.997171845998602,-0.00359712200610567,0.00275285706681754,-0.0106204691074783,0.00464610859118281
0.00137159795796379,0.0143615654533411,0.00730098245061419,0.0349153271097315,0.00212285195755056,0.998107991730083,0.00205303065692081,0.00339403913309658,-0.00754834624450169
-0.996514592187855,-0.00309066439255443,1.0018522878132,0.000748549646348014,0.998939238775612,0.00920319822816507,0.00371521549514874,0.00209654312822627,0.00299161306684591
-0.00328725513138498,-0.00111651593262073,0.00710554466333041,-0.0025221738398337,-0.962525350231324,1.03388686190518,0.00496588390032337,0.00078062596718684,0.0179909543106246
-0.00548731580126297,-0.00597892095054173,0.000607248392490713,0.00309404104584282,0.00929020602803465,0.998090888983911,0.00802494140101707,-0.0141183581598094,0.0101881798518945
-0.999288850763199,0.0061224202076324,0.00232433001182058,1.00110753421333,0.99494642427785,-0.00639100871759957,0.000297051673678489,1.00285162879277,-0.00804944416563259
-0.000360173348656259,-0.00355502006900399,0.00455742184353663,1.00051369675301,0.00180221698649977,0.00315800092872731,-0.0020041555212982,0.996454021834961,0.00820358972456632
-0.00542614761310384,0.00559090055526256,-0.00246863538166174,0.0211541850121324,0.00311756700094853,0.00571462894134656,0.00314775819012115,0.998220741808768,-0.00469828934680328
0.995411264459721,0.993765560065434,0.998311817777014,1.01490284431554,0.999612084407173,0.99803632356089,0.00050861753508706,0.997073525162203,-0.99916492276
0.991298568680776,0.987559026290813,1.01764518790663,0.00575779120647886,-0.000701765415829916,-0.000374324275027623,-0.00210846912811101,0.0124954599323281,0.00231233353207729
-0.00606309984000579,-0.00123111260921683,0.999992819665111,0.00157030356931292,0.000344127121686043,-0.98115343749917,1.01640704185559,0.00806802528626216,-0.00355322974978596
-0.0114222053610951,0.00770851550472559,0.0205142397066989,0.00561186679026996,0.00289748854335415,0.99873725130532,0.00392116746736309,0.0244187776835469,-0.0127040936742597
0.00114742139707654,0.00673360394402996,0.00588553051069557,0.997997347046564,0.000824920736866311,0.010729010639582,0.0135821968166777,0.0256756700078281,-0.0077425571236768
-0.996440325382069,-0.0122219610064311,0.00679656367529355,0.0122054428050052,0.00386002322455161,-0.0158715638761475,-0.00324619688544434,1.00211073452926,-0.0329151849543001
-0.998052841354472,-0.00133991563278899,0.00262707500026932,0.0151708944358525,0.00412877755924952,0.0113327796467104,0.0059987048701332,0.0162022442279079,-0.000447776092900366
0.00764597367263421,-0.00666745666011836,-0.00924172525234788,1.01491332868394,-0.977222971084854,0.00587453413708092,1.00547939975901,0.00817468961984436,0.00516916125650626
-0.0181004283665569,-0.0094267989756091,0.997222957807369,0.0246564131757348,0.00372758399092302,-0.00107519559058953,0.00206370888698009,0.0216501595003391,-0.00583263077247842
-0.0102480976976064,-0.00412974748079774,0.0114934409833367,0.0181741879312251,0.00502886931848242,-0.00255128529481434,0.00676283699478127,0.997893014125468,-0.00636719956059978
-0.00690642091098611,-0.00217402681199184,0.00130794913321848,0.0101297299064056,0.00618423880323649,0.0042051864140871,0.998421131717583,0.00361021147771563,-0.00258523432883917
-0.0111027041529887,-0.00660765298553516,-0.00222235418143837,1.00642083393121,0.00201362873991108,0.000286342054645476,-0.00158808878149302,0.992271547642592,0.000830174066868343
-0.992276827198504,-0.00483058180466491,-0.00834447020374389,0.00426994915034442,-0.00231654820395127,1.00651585280696,-0.00163008020929635,-0.00109427439864374,-0.00395331833299537
0.00589467687915799,0.00124992930739775,1.01511408991069,0.996347089292916,-0.998054387715522,-0.00379034366891488,1.00345224854441,0.992708176248386,-0.991581827007476
-0.00530495517339088,0.0038946309300618,0.0027962241374187,0.00379973664537986,0.00249586697953894,0.00285008708262105,-0.00262078225243117,1.00296043827073,0.00511920798109446
-0.010607339491525,0.00263267077982835,0.0271551438468846,-0.00672444273843948,0.0175335886690587,-0.000920731377557507,0.00532148959225124,0.997094392854288,0.0215499642695968
5.26781555567738e-05,0.00290464907643259,0.00141754892867826,1.00557743951422,-0.00324251820780531,0.0165164282091176,0.0131754177826182,0.993433294421782,-0.0206905795372437
0.00126895136453533,0.00292053596261618,-0.0074182316728781,0.998480035649911,0.00250805404247179,-0.00155986703959418,-0.0116281636154212,0.0296214101360758,-0.00034292600486054
0.00544528470089048,-0.000257718432374571,0.00986985248085898,1.01115334784894,-0.000647257805796959,-0.00088711533880967,0.987885041139753,0.0134649064194996,0.00640713429596138
-0.00439459424834054,0.00305769672196555,0.0108138620593511,1.01383065413106,0.00166472864806076,0.00115103747988352,-0.988999861875803,0.994651254387246,0.00171325646168143
-0.00265719972626046,0.00509549235515784,-0.00560754659187243,-0.013952738762815,0.0153395018383437,0.983716765868862,0.00363733732186891,1.01657382121808,0.01492637050351
0.00411083912664538,0.977055578951453,-0.00383985587340138,0.996346694140424,-0.00508940732734841,0.000219254763103253,-0.00453830786970493,1.0235766661478,0.00816375972817744
0.000380005292569024,-1.00362915256341,0.00660809777834417,0.992454696124095,1.00183256184527,-0.00461508976001552,0.0051784920227326,0.012289399194599,0.000599652585885043
0.00499975592282045,-0.0135308474145995,0.0140408656866981,0.968370922764624,-0.000515326503862866,0.00994552644855932,0.00633290913379827,1.02891487738587,0.0119704811544801
-0.0041517439361686,0.00315024044853374,-0.008511082068323,-0.0087604800127019,-0.0123911995393618,0.00207506020348189,0.00436274708530216,-0.0132378349126656,0.00545414047736691
0.00701325498043819,-0.0141790795999778,0.0133411736924039,-0.00970666972734362,0.00266086050809345,0.00716762112319449,0.997593089676858,0.00582721723602087,0.0102979281989647
-1.00557514411654,0.0148130793667069,0.0074762480411389,-0.00394070925252478,0.0107752436007319,0.00148598123275539,0.992839050302076,0.000603972733543524,-0.00494129144454539
-0.00816099973224298,0.00839267589710667,0.0103402259580513,0.0101420271479162,0.00321482299440437,0.0155543037435633,0.990500286411584,1.00729809308519,-0.00940691386600796
-0.996819972888574,-0.998566882522161,0.00173696659978301,0.00106802180636445,-0.00116948954862666,-1.01474489084791,0.998819509433262,-0.995790047786213,-0.991679024077799
-0.00521084473422962,0.00181632564311505,0.0131672002128094,-0.00541217216502412,0.00233518000278644,0.00263635150497546,0.00301104290812841,1.03652692988664,-0.959158844676025
-0.994235539380781,-0.000952572484958442,0.998049140282198,1.00899972575716,0.00257526232027578,-0.991547519274526,1.00848103780586,0.996523720321287,-0.00263023884593212
-0.00124113852324424,0.00166070962146567,1.00172123074962,-0.00641305653884143,0.000849568396632625,-0.00120568006659082,0.00177621580762985,0.00913721839734525,-0.00649923747772201
-1.00396331918656,-0.00316507221538384,-0.00280613688892771,1.0083548614369,1.00237292675171,0.994685472974452,0.00413235633813773,-0.00293356181221294,-0.988470509224707
0.00348319419745882,0.00258817508925759,1.02608821725942,-0.0108891053641498,-0.97143989115068,0.00412411268225299,-0.00299510991370462,0.00726741422051412,0.00141942344003883
-1.00434656728531,0.00673442226168313,0.00712813880952719,-0.00311953129509964,0.00703341736904814,-0.993233441467038,0.000644611103781731,0.00825454038456706,-0.00880187678193864
-0.00656322032206435,-0.000717696224198406,0.0262910159403452,0.0293010964175673,0.0168064182393083,-0.00126700847069833,0.998713844944393,0.011941562333795,-0.0153259099896745
-0.0157967906599833,-0.010382170685712,0.997952129457512,0.00974280548747568,0.00940417063936573,-0.00166554305420573,0.0127646226555356,0.0135430424348094,-0.0244385547225532
-0.00609192460967991,0.00268007687481903,0.0196212530719206,0.99676634297665,0.00625014860102134,0.0118611927292001,0.00598920810637964,1.0014955334127,0.00514424094042465
-0.99615026184498,-0.00112121529478111,0.998456810964711,0.00932554855534184,-0.00103340210276128,-0.000409202094983638,-0.00177504298405676,1.01358282491608,-0.98935623330685
0.00335451040591059,-0.988174904939517,0.998866036667752,0.00678503652153251,0.997441725342429,-0.00549468328326323,1.01308912216233,-0.00102544865683101,-0.00996549201290601
-0.00257997388341029,-4.96028764278685e-05,0.998005911225492,-0.000590926321637474,-0.0041603760029011,0.0017222941279624,1.01399316762848,0.00893838327886179,0.984808126517765
-1.00139106006954,-0.0039987639678812,0.991380381185014,-0.996354681119897,1.00816250002621,0.00278107962804399,0.99999840192011,-0.000569404150972753,-0.0101085538595833
-1.00475590265219,0.00889701511064268,0.00460811954262538,0.0037383640168787,0.00294786459790579,0.00465318599502941,0.992692955839877,0.00152135004110613,-0.0169117802967695
-0.00326906321270433,-0.00242344399236576,0.00286061524515404,0.000147282344837444,0.992201728657505,0.00425418278444425,1.00605225685905,0.00608768669929816,-0.0103490061070633
-0.00840712200985378,-0.00974467619608241,0.00472579015550551,0.999831971969902,0.00322220448371852,-0.00426236847914128,-0.00422794296951542,0.0205659774642427,0.00300751354750211
-0.992800733129358,-0.00312878290490697,0.000248200739194356,0.999180111923904,0.99787660933286,0.00162235486668624,1.00754937043986,0.0102550317031814,-0.000502885422128242
-1.03073704242362,0.000735194765911816,0.000871393659912795,0.99223522490734,0.990699666878499,-0.000972886214425777,0.994008131787568,0.988740638172938,0.00417061522817836
0.0020685446270249,-0.00553119661477688,0.987654019850839,0.00217487888554315,0.00185760656377574,0.00868210341293085,1.01001779063614,0.0104961193338219,-0.0110282535989624
-0.00377624921543011,-0.00386485071957652,0.00952108923428855,0.0127763764419515,0.00172955169086918,0.00274965914147636,0.998726025035961,0.00430686754121844,0.0081591027443545
-0.00200723275975444,0.00285972482308464,-0.00187176645773445,0.987757805839377,0.00160982539574721,0.00836867727790099,-0.993448884068918,1.01698140585445,0.00674456390887878
-0.00499157170044957,-0.00844162946031845,0.00256295156988931,1.00382376363457,0.00168384314681962,0.0029644786349891,0.00855266484083506,0.994724985199202,-0.0114843327865805
-0.99601259252692,0.00538253157269393,-0.0100875287960912,1.00998659443969,0.00422486564086504,0.0114211262469495,-0.00536796271192222,0.992476544624202,-0.000351697437205047
-1.01311385111949,0.00302725023163758,0.00823504284654242,0.9856675558752,0.00148525163717268,-0.000706882744176358,-0.00743728457194145,0.999091435615848,-0.0165746013652664
-0.0171943646255358,-0.000884692125907719,0.00469733702518317,0.981201948604344,-0.00986788038243913,-0.000788833344331267,-0.00952861007290739,1.01848324898774,0.000453260492803289
-1.0302146930179,0.000496743201645084,-0.000380184335143067,0.984761954692811,-0.00374839589682641,-0.00189563655269253,-0.00392677133246497,0.981422477338953,-0.0106409210983981
-0.00719561163368031,0.0142217500303607,1.02271775484579,0.0123514872154905,-0.974433776230818,0.00343020726328556,0.0036245327678937,0.0127531525883868,0.00125851595119854
-0.00565918625654392,0.00389949656907133,-0.983580227650586,1.01100872914327,0.00104108091815114,-0.000925105710864716,0.00543886727414435,1.00300198776724,0.00197364586153161
-0.00803074688552106,-0.00260353970696148,0.0112385182659888,-0.00945926674767858,-0.0078614694563198,0.00395266055854144,-0.977600857574094,1.02110433196368,-0.0149056379393668
-0.00182856775935061,-0.0112931617569122,0.00625822540764369,-0.00159594114714915,0.00183569296280766,-0.000749072864285645,-0.958565503879998,1.03905395742438,0.00396940431517146
-0.0131174406408006,-0.00480896464273609,1.0105856205897,-0.00036131439970168,0.00180424597579111,-0.00267079259690386,0.00199257797816476,0.000837341801930971,-0.986609277357487
0.00756331179252891,0.00120110292906669,-0.00884727658136061,0.0227467146513513,0.000518501572903716,-0.00367193087807072,-0.00101217049714822,0.999323222087324,-0.003864554992752
0.00118466883153146,0.00180820882310747,-0.00412914810475479,0.0216336929975062,0.00707761628631456,0.00969615333144082,0.0122197535347424,0.998756094144584,-0.0189927157687198
0.00450318484156541,-0.992771303465437,0.00700620840652529,0.00143970196843145,0.00367579005461551,0.999042716718764,-0.001184555428054,1.01248874095838,-0.993009836184491
0.00135430645969214,1.90088043454073e-05,0.0218591795317523,0.00522675534684651,-0.00051555118407902,0.00575146030452168,-0.96926489089638,1.03034017522497,-0.0217855669380254
-0.0174151073906049,-0.0207659644771474,0.00301217903488591,1.00197159337297,0.0067617688282096,0.0226925664248142,0.00638816485321499,0.996657875751065,-0.00490108587040518
-0.00860764624838782,0.00440405127113049,1.00758136878003,0.990298409665048,0.00935557171399579,-0.00303785468281679,1.00464488454576,0.995020579193603,-0.000842092115410704
-1.00748345993936,-0.00432235171173267,0.00359734331812238,1.00063038464322,0.995194538307441,0.00266742399747385,1.00007334655813,0.996725863845187,-0.997512304685107
-1.00936185776765,-0.00126044681396529,-0.0117745567740405,0.0192410829012937,0.00957468038929184,0.00154066670529946,0.990835882310918,-0.00134911214004691,0.0209507774178643
-0.996758612487217,0.00450685004164409,0.00208055551888059,0.024880699119256,-0.000436245784629511,0.00193932292516679,0.00268051338454567,1.00245202410048,-0.0205142206651769
0.000569573313051165,0.0100526624265408,0.00221577030839551,0.985677178700865,0.00102672810429028,0.00185735176265393,0.00667127894318325,1.01286541379717,-0.016649831216378
-0.00339868625908963,-0.0121868318812389,-0.00298403830390171,1.04217585189015,-0.976908414533448,0.00752348939419523,-0.976720606998778,0.000608302475695765,-0.00980675074573766
-0.999313469145122,-0.00245876429251746,0.00337043693345041,-0.00392372024780642,-0.00133600689855924,-0.00441101183227256,-0.000282736401007209,0.00541334258138413,-0.0163263947272644
0.00896734278991143,-0.00821949711967215,0.00189291529183808,0.00123159779462443,-0.960361147307242,0.00954879314353911,-0.00164287614224159,1.03717916218964,0.000163724356353141
-0.0050882469866751,0.00351388028756747,-0.00835376800468913,0.0257991056826742,-0.000898288579256827,-0.00199155488713492,0.00201046144976845,0.999088351953076,-0.0125285859830925
0.987002738207311,0.00294412030711802,0.00426803871821735,-0.00139642008697423,-0.000145781599437352,0.00389366467086672,0.00475242207673862,1.02500747018787,0.984392372808477
-1.00488878500187,-0.997237271055201,-0.000173217655307648,-0.00123858073272637,0.996990701601709,0.996712018727784,0.998967358135091,-0.000563411958686,-1.0023413592031
-0.00135473269776109,0.00150673923473411,-6.21880800254548e-05,0.00016213815872017,0.000529768512669404,0.000421772242249024,0.000435566858063853,1.0039013866986,0.000136721619360865
-0.000147487683803892,0.00745112560861764,-0.00593157599326118,0.0103175970877955,0.00410374552021626,0.0031512571593251,0.00689264355616596,1.00008385654572,-0.00808917582892383
-0.000252295294533358,0.0015497868033731,0.0132671974868329,0.0114833887921864,0.00300578800965663,-0.000947620574767082,0.00540020237764483,0.998833024245753,0.00924379979473324
-0.00191338015763396,-0.0114246950577391,0.00510461406929765,0.026187542291299,0.000810759068189171,0.0014912605216541,0.00463605840334227,0.998384927779925,-0.00861151307493174
-0.978140217213663,-0.0038394675970037,1.02893713046455,-0.00340580815183524,0.00112691758212276,-0.989605591659795,0.00291550802318742,-0.00197056549049544,-0.00070174035421938
0.987644009781375,-0.00285162596593612,0.00687258276712019,-0.000439762702325004,-0.00461827778769841,0.00280564733203706,0.00141787134880001,1.02678018099835,0.981668701941584
-0.998327842490366,-0.000472078763174518,0.00429258440486576,0.0209126073566317,0.00227803115855359,-0.990710147345496,1.00720339840582,0.0125883762079949,-0.011354224115714
-0.00195229929664104,0.0090889168378348,1.00032789927889,0.00298268211136783,0.00827187879603777,0.00523986601232702,-0.00883797207044411,0.00984852410847011,-0.000717108660524873
0.00503234031376669,0.00360119026238276,-0.00212585180351146,1.00094894726523,0.00467093332130377,-0.980957205056605,0.00391561195029772,1.01601272644618,-0.00204539032622133
-0.00198297490557804,-0.00724115563760306,-0.00597190037703051,0.996335978994487,0.00110985477862104,0.0101739801838583,0.00514661488339927,1.00133668772104,-0.00137563017149588
-0.0125596450756152,0.0114983378614695,-0.00270236009258073,0.0114182869890704,0.0102625228778528,-0.00447202650153551,0.00523001626853356,0.999877627176694,-0.00080379631623937
0.00145579505432455,-0.00396081657088491,0.00417978772448367,0.996414670040629,0.00733406963875296,0.00196021648881759,0.990051255302942,1.01156470709066,-0.0117170732748815
-0.0138331895120898,-0.0108910568008968,0.0295107045284276,0.00864701143787304,0.0126947285217872,0.00907526587328178,0.996017435771542,0.0295954551924638,-0.0258226520275978
0.997623549315584,0.00101771980661725,1.00330634935763,0.996879444488429,-0.000909604695647897,-0.997588464943413,0.998525529718163,1.00282244200869,0.000489964141135824
-0.0084431387585965,-0.00505312786382429,-0.00152614969812129,0.993861284255565,0.993928347741738,0.00093699801888575,0.996795461619909,-0.00445836101511359,-1.01290307336501
-0.00341185131666504,-0.00193700268672235,-0.980217417957683,1.00260899927194,0.0049009994007344,-0.00602768682698325,0.000414694991466401,1.01443838215092,-0.0022897421512476
-1.00055102683499,-0.000963982683882256,0.00014648389195668,0.998608634241515,-0.00140656028996201,-0.996929508668303,-0.99705938293822,1.00595910620619,-0.997787108857434
-1.00150438545833,-0.00312913602050815,1.00560954840438,0.0101603432460939,0.998833754643271,0.000146698358812773,1.00018823557185,0.00972032435959403,-0.991497711220974
-0.0043516131567268,0.977539887303757,0.00508981397567363,0.000860618406349768,0.989087715849289,0.000414078113575422,-0.000481752322564449,1.02965930865439,0.00698508848189437
-0.000651678643086751,-0.0026851371585732,0.996351272998112,1.00059496642659,1.00156147453081,0.00498198099023366,1.00628534084782,0.00318863525695413,-0.992092606182069
-0.00966226953640916,0.00228830553941129,-0.0071235067293557,0.012635606212452,0.00749723793169391,-0.00157582793516618,0.00355484154354643,0.997567372188903,-0.00902545465991179
-0.986244290961175,-0.00444925562419489,0.0080881481911875,1.02271966603871,-0.989862037612486,0.00241415968246093,0.99882075462304,-0.00812628391405404,-0.000704049727095272
0.0132879007798338,0.00258575867327299,-0.00313970712724122,1.01830869567131,-0.00202550002654441,-0.0023863534192751,0.98149959498923,-0.00393537820020884,-0.00540959758086425
0.00236302622386017,-0.00767905512291768,-0.975674934593536,1.02126637554785,0.0119424924243269,0.00076642302764249,0.00756055772177628,0.0100991206194578,-0.00504908368540039
0.00261329018601946,0.00496674585534624,0.00475532620503959,0.0139720669974078,0.00160156861932896,-0.000155704464122235,0.00858031909019597,1.00042392445569,-0.00788147536602667
-0.00186934509152081,0.00627962603943286,-0.0049693598748329,1.01273016553177,0.00247496049375082,-0.00212898530136542,-0.990417554871929,0.99540153219208,-0.00675540112170935
0.000842130489123997,0.00417959690022027,-0.00383773551039679,-0.0139466007220559,0.00324048353624456,0.00199571957905723,0.00168821481929568,1.03767868002323,0.956781843903808
0.00468692852692521,-0.00793105486842396,-0.00275607313384005,0.0092624077797917,0.00757947652338449,0.999053566306733,0.0101969056701628,0.00984480690098498,0.0140510000449224
-0.0154390827762668,-0.0111346449624015,0.000711340243126747,0.99815438581672,-0.00299604308200531,0.00536405175743303,0.00104648747559926,0.0269637785921604,0.00269215226760712
0.0017913983414834,0.00198047255309534,0.007330945930636,-0.0027639109048924,1.01334545047131,0.00520896416062466,0.999670162923928,-0.000526122449546501,-0.983717661332673
0.012019672292558,-0.014914802330688,0.0324900982085551,-0.00756881436327954,-0.0143926213319142,-0.00932435495062449,0.0111651925119936,0.00739741787539738,-0.00669825254741964
-0.0116203505514948,0.00346624931406729,0.0127508407643276,0.0219937576228609,0.00177864987195301,1.01484295482615,0.00885361035081179,0.982411878088566,-0.00882855198315798
-0.00311627459178925,0.000966172524317296,-0.0011477297465111,0.978781196613621,9.30785251062793e-05,0.00251665794626609,1.01783363380231,0.00685238638116275,0.00239918337871209
-0.997709578899162,0.995431798740083,1.01982223145727,0.00068184987518671,0.997690680472906,0.997980964566845,0.000112801501334559,-0.000833702316645213,0.987841962360454
-0.00163403070345131,0.000574784464276026,1.00424707408137,5.11556199888279e-05,0.000240507675123986,0.000320208569027693,-0.000308801512354919,0.000972568490588405,-0.000982421017100937
-0.999547595980088,-0.00927763160996256,0.00682064117920712,1.00411500888582,0.000776767352800317,-0.00153806808073178,-0.978668308592906,1.01613917788938,-0.0169814913317862
-1.01057567046734,0.00800650994171052,-0.00104232688265226,0.998081752625199,0.0110756919323456,-0.000276232518856708,-0.991671066829595,0.998366251242394,-1.48001371816753e-06
-0.00157251008370446,-0.00799881192629582,0.010290488172218,0.0117120593899587,0.00274261319965406,0.000516439245976727,0.00422112646059658,0.999714676319821,-0.00887904927073213
0.00196726286096001,0.0150857837511771,0.0019455193640237,0.00667217795165964,-0.982903123261384,-0.983068165107662,-0.984743028785917,1.04488173203445,-0.0176047532632639
-0.00459688809132849,0.00405709667931404,-0.0055091019932695,0.998917819215872,0.00895139288018052,0.00270555196173878,0.999838036858266,0.0237000093700473,-0.00904589267903278
-0.00183424686616846,0.00259633603933275,0.000701044694334868,0.999740007591961,-0.00249037090524543,0.00696436085763378,0.00930730199065267,0.0205034340048237,0.00725672148734303
-0.00735945073367816,0.000615119990880176,0.011331807966013,0.0128203008204403,-0.966021978810479,0.00200762317407336,0.00763477545519319,1.03134167580917,0.00338010149850376
-0.00702182023684907,-0.0029295746991096,0.998934606554978,0.00467964972744106,0.00500669105209172,0.00403292641026229,0.999005523854309,0.00866363921677547,0.000782147182798847
-1.00750282795341,-0.00313457955229051,0.99798568337282,0.0041244574333953,-0.0032050949884133,0.00016215046751609,0.994625984470224,-0.000660966407951403,-0.997290649748239
-0.000524182123803087,0.00221790706961909,-0.000250927614631008,0.000569653541551058,-0.998636273990073,0.0027627068530865,0.998428668420979,-0.00398017327595924,0.00342316330888714
-0.0136842113243977,0.000935073106558154,0.00706443909341634,1.01675902660052,-0.00374152692918278,-0.989186948910653,-0.004414995727472,0.991742204355327,-0.00712365523788837
-0.00359920562952095,0.00441899766666897,0.994554588950572,1.59194976657683e-05,0.00439615624665957,0.0063160031196845,1.00331385960108,-0.000197525867001686,0.00171321964188623
-0.0122139464454467,-0.00299248153262677,0.999459943301453,-0.0091572061092817,0.00596242608324068,0.00468802158713165,0.0103969318905459,-0.00255037650792919,-0.0167080927253813
